/*
 * Copyright (c) 2025 EdgeImpulse Inc.
 *
 * Generated by Edge Impulse and licensed under the applicable Edge Impulse
 * Terms of Service. Community and Professional Terms of Service
 * (https://edgeimpulse.com/legal/terms-of-service) or Enterprise Terms of
 * Service (https://edgeimpulse.com/legal/enterprise-terms-of-service),
 * according to your product plan subscription (the “License”).
 *
 * This software, documentation and other associated files (collectively referred
 * to as the “Software”) is a single SDK variation generated by the Edge Impulse
 * platform and requires an active paid Edge Impulse subscription to use this
 * Software for any purpose.
 *
 * You may NOT use this Software unless you have an active Edge Impulse subscription
 * that meets the eligibility requirements for the applicable License, subject to
 * your full and continued compliance with the terms and conditions of the License,
 * including without limitation any usage restrictions under the applicable License.
 *
 * If you do not have an active Edge Impulse product plan subscription, or if use
 * of this Software exceeds the usage limitations of your Edge Impulse product plan
 * subscription, you are not permitted to use this Software and must immediately
 * delete and erase all copies of this Software within your control or possession.
 * Edge Impulse reserves all rights and remedies available to enforce its rights.
 *
 * Unless required by applicable law or agreed to in writing, the Software is
 * distributed on an "AS IS" BASIS, WITHOUT WARRANTIES OR CONDITIONS OF ANY KIND,
 * either express or implied. See the License for the specific language governing
 * permissions, disclaimers and limitations under the License.
 */
// Generated on: 05.03.2025 09:53:06

#include <stdio.h>
#include <stdlib.h>
#include "edge-impulse-sdk/tensorflow/lite/c/builtin_op_data.h"
#include "edge-impulse-sdk/tensorflow/lite/c/common.h"
#include "edge-impulse-sdk/tensorflow/lite/micro/micro_mutable_op_resolver.h"
#include "edge-impulse-sdk/porting/ei_classifier_porting.h"

#if EI_CLASSIFIER_PRINT_STATE
#if defined(__cplusplus) && EI_C_LINKAGE == 1
extern "C" {
    extern void ei_printf(const char *format, ...);
}
#else
extern void ei_printf(const char *format, ...);
#endif
#endif

#define STRINGIZE(x) #x
#define STRINGIZE_VALUE_OF(x) STRINGIZE(x)

#if defined (__GNUC__)  /* GNU compiler */
#define ALIGN(X) __attribute__((aligned(X)))
#define DEFINE_SECTION(x) __attribute__((section(x)))
#elif defined (_MSC_VER)
#define ALIGN(X) __declspec(align(X))
#elif defined (__TASKING__) /* TASKING Compiler */
#define ALIGN(X) __align(X)
#define DEFINE_SECTION(x) __attribute__((section(x)))
#elif defined (__ARMCC_VERSION) /* Arm Compiler */
#define ALIGN(X) __ALIGNED(x)
#define DEFINE_SECTION(x) __attribute__((section(x)))
#elif defined (__ICCARM__) /* IAR Compiler */
#define ALIGN(x) __attribute__((aligned(x)))
#define DEFINE_SECTION(x) __attribute__((section(x)))
#elif defined (__clang__) /* LLVM/Clang Compiler */
#define ALIGN(X) __ALIGNED(x)
#define DEFINE_SECTION(x) __attribute__((section(x)))
#endif

#if defined(EI_MODEL_SECTION) && (defined(__GNUC__) || defined(__clang__))
#define MODEL_SECTION(X) __attribute__((section(STRINGIZE_VALUE_OF(X))))
#else
#define MODEL_SECTION(X)
#endif

#ifndef EI_MAX_SCRATCH_BUFFER_COUNT
#ifndef CONFIG_IDF_TARGET_ESP32S3
#define EI_MAX_SCRATCH_BUFFER_COUNT 4
#else
#define EI_MAX_SCRATCH_BUFFER_COUNT 4
#endif // CONFIG_IDF_TARGET_ESP32S3
#endif // EI_MAX_SCRATCH_BUFFER_COUNT

#ifndef EI_MAX_OVERFLOW_BUFFER_COUNT
#define EI_MAX_OVERFLOW_BUFFER_COUNT 10
#endif // EI_MAX_OVERFLOW_BUFFER_COUNT

using namespace tflite;
using namespace tflite::ops;
using namespace tflite::ops::micro;

namespace {

#if defined(EI_CLASSIFIER_ALLOCATION_STATIC_HIMAX) || defined(EI_CLASSIFIER_ALLOCATION_STATIC_HIMAX_GNU)
constexpr int kTensorArenaSize = 906464;
#else
constexpr int kTensorArenaSize = 905440;
#endif

#if defined(EI_CLASSIFIER_ALLOCATION_STATIC)
#if defined (EI_TENSOR_ARENA_LOCATION)
uint8_t tensor_arena[kTensorArenaSize] ALIGN(16) DEFINE_SECTION(STRINGIZE_VALUE_OF(EI_TENSOR_ARENA_LOCATION));
#else
uint8_t tensor_arena[kTensorArenaSize] ALIGN(16);
#endif
#elif defined(EI_CLASSIFIER_ALLOCATION_STATIC_HIMAX)
#pragma Bss(".tensor_arena")
uint8_t tensor_arena[kTensorArenaSize] ALIGN(16);
#pragma Bss()
#elif defined(EI_CLASSIFIER_ALLOCATION_STATIC_HIMAX_GNU)
uint8_t tensor_arena[kTensorArenaSize] ALIGN(16) __attribute__((section(".tensor_arena")));
#else
#define EI_CLASSIFIER_ALLOCATION_HEAP 1
uint8_t* tensor_arena = NULL;
#endif

static uint8_t* tensor_boundary;
static uint8_t* current_location;

template <int SZ, class T> struct TfArray {
  int sz; T elem[SZ];
};

enum used_operators_e {
  OP_CONV_2D, OP_DEPTHWISE_CONV_2D, OP_PAD, OP_ADD, OP_SOFTMAX,  OP_LAST
};

struct TensorInfo_t { // subset of TfLiteTensor used for initialization from constant memory
  TfLiteAllocationType allocation_type;
  TfLiteType type;
  void* data;
  TfLiteIntArray* dims;
  size_t bytes;
};

typedef struct {
  TfLiteTensor tensor;
  int16_t index;
} TfLiteTensorWithIndex;

typedef struct {
  TfLiteEvalTensor tensor;
  int16_t index;
} TfLiteEvalTensorWithIndex;

TfLiteContext ctx{};
static const int MAX_TFL_TENSOR_COUNT = 4;
static TfLiteTensorWithIndex tflTensors[MAX_TFL_TENSOR_COUNT];
static const int MAX_TFL_EVAL_COUNT = 4;
static TfLiteEvalTensorWithIndex tflEvalTensors[MAX_TFL_EVAL_COUNT];
TfLiteRegistration registrations[OP_LAST];

namespace g0 {
const TfArray<4, int> tensor_dimension0 = { 4, { 1,96,96,3 } };
const MODEL_SECTION(EI_MODEL_SECTION) ALIGN(16) float tensor_data1[16] = { -1.40682053565979, 3.5652291774749756, -18.869480133056641, 0.66274833679199219, 3.3089237213134766, 1.8675060272216797, 2.5637044906616211, 2.6141433715820312, -0.86772435903549194, 1.434140682220459, 3.122349739074707, 5.6899304389953613, -1.2384405136108398, 3.9184839725494385, 3.022789478302002, -0.13350634276866913, };
const TfArray<1, int> tensor_dimension1 = { 1, { 16 } };
const MODEL_SECTION(EI_MODEL_SECTION) ALIGN(16) float tensor_data2[16] = { -0.30109995603561401, 2.606907844543457, 4.0207424163818359, 3.4942617416381836, 1.8911662101745605, 3.2679657936096191, 5.337648868560791, 3.9302804470062256, -0.10712677240371704, 1.8281033039093018, 5.738072395324707, 10.292610168457031, -0.32396247982978821, 6.1184091567993164, 2.0389959812164307, -0.41642889380455017, };
const TfArray<1, int> tensor_dimension2 = { 1, { 16 } };
const MODEL_SECTION(EI_MODEL_SECTION) ALIGN(16) float tensor_data3[48] = { 2.1169416904449463, 0.035691522061824799, 3.1870341300964355, 1.8201406002044678, 1.9512195587158203, 2.0595712661743164, 3.8605661392211914, -0.04563438892364502, -0.030617604032158852, -0.76331740617752075, 1.4113444089889526, 0.80340176820755005, 2.1840219497680664, -0.16218365728855133, 2.6370527744293213, 3.2981653213500977, -0.1309230625629425, -0.71982139348983765, -0.31527099013328552, 3.8079721927642822, 1.0473172664642334, -0.031141702085733414, -0.0078144567087292671, 0.55774563550949097, 3.695547342300415, -0.53795504570007324, 0.14162373542785645, 1.2482925653457642, 1.2061918973922729, 2.9690325260162354, 2.8609549999237061, 2.3948831558227539, 0.68819302320480347, 3.1536319255828857, 0.12644395232200623, -1.2445715665817261, 1.5120015144348145, 1.3099713325500488, -0.42089390754699707, 3.4489448070526123, 2.8466565608978271, 2.2856001853942871, -0.15845170617103577, -0.91417688131332397, 4.9343581199645996, 0.12780171632766724, 2.8406782150268555, 0.83943408727645874, };
const TfArray<1, int> tensor_dimension3 = { 1, { 48 } };
const MODEL_SECTION(EI_MODEL_SECTION) ALIGN(16) float tensor_data4[48] = { 6.1130557060241699, 3.9871327877044678, 9.6158685684204102, 4.0375533103942871, 0.0099206008017063141, 3.5007476806640625, 0.2431892454624176, 1.5843260288238525, 2.3303563594818115, 0.71647143363952637, 1.86525559425354, 0.073798596858978271, -8.017669677734375, -0.70510011911392212, 2.51033616065979, -0.065942935645580292, -0.56034213304519653, 0.56156378984451294, 0.37343254685401917, 0.5313185453414917, -1.6929649114608765, 1.5346388816833496, 5.9080533981323242, 1.2787231206893921, -2.2278859615325928, 2.8634765148162842, 1.299121618270874, 1.1529905796051025, -1.0391855239868164, 0.78774768114089966, -0.36424484848976135, -9.9647188186645508, 2.5078911781311035, 1.0477256774902344, 2.4481539726257324, 0.28304755687713623, 0.77418661117553711, -0.098659157752990723, 4.660639762878418, -1.8959860801696777, 0.86298245191574097, -7.4980521202087402, 0.015865176916122437, 1.0151563882827759, -0.014930769801139832, 6.1266727447509766, 0.33323436975479126, -2.276517391204834, };
const TfArray<1, int> tensor_dimension4 = { 1, { 48 } };
const MODEL_SECTION(EI_MODEL_SECTION) ALIGN(16) float tensor_data5[48] = { 4.3301081657409668, 2.2665159702301025, 1.489543080329895, 3.1611611843109131, 2.2567028999328613, 4.9887990951538086, -2.0062046051025391, -0.28139755129814148, 0.6458050012588501, 1.3354034423828125, 2.2731509208679199, 0.10387685149908066, 0.97758942842483521, -0.52876460552215576, 0.4121415913105011, -3.6243131160736084, 1.654451847076416, 4.3403692245483398, -0.51622146368026733, 2.6440260410308838, 1.1258057355880737, 1.042891263961792, 3.9812757968902588, -0.61352616548538208, 1.2381508350372314, 1.1543416976928711, 4.0570998191833496, 3.7424144744873047, 0.0051724575459957123, -2.6589586734771729, 0.10920914262533188, 0.74533045291900635, -1.9932833909988403, 2.1798892021179199, 0.99278205633163452, 1.8165609836578369, 3.7287938594818115, 1.2480704784393311, 2.4295439720153809, 4.5935792922973633, -0.63507246971130371, 2.7957859039306641, 0.5270349383354187, 1.356357216835022, 1.1301543712615967, 1.1912276744842529, -1.1128336191177368, 2.6903274059295654, };
const TfArray<1, int> tensor_dimension5 = { 1, { 48 } };
const MODEL_SECTION(EI_MODEL_SECTION) ALIGN(16) float tensor_data6[48] = { -17.246822357177734, -0.24326318502426147, 1.7237784862518311, -0.27209416031837463, 0.81830757856369019, -0.048871308565139771, 0.98492228984832764, 3.4635930061340332, 0.26168304681777954, 4.6537399291992188, -0.13797725737094879, 4.2887606620788574, -1.5595753192901611, -0.2603110671043396, 2.4526691436767578, 1.558799147605896, 0.31057575345039368, 4.2574186325073242, 2.6371753215789795, 2.4399490356445312, -0.067677818238735199, -0.21686959266662598, 0.040372103452682495, 2.2929725646972656, -1.5282561779022217, 3.64522385597229, 26.752206802368164, 3.2153034210205078, 0.68888020515441895, 0.79695206880569458, -0.28680694103240967, 0.21943674981594086, 0.89246314764022827, 2.6216039657592773, -1.2806079387664795, 2.4739789962768555, -4.353424072265625, 2.7309174537658691, -5.5358166694641113, 2.707676887512207, 3.1581170558929443, 1.1977331638336182, 1.6109334230422974, -0.36043238639831543, 2.2897279262542725, 0.30391013622283936, 0.27209851145744324, 0.050349518656730652, };
const TfArray<1, int> tensor_dimension6 = { 1, { 48 } };
const MODEL_SECTION(EI_MODEL_SECTION) ALIGN(16) float tensor_data7[48] = { 0.24285948276519775, 0.72012096643447876, 0.64098483324050903, 0.20264197885990143, 2.249053955078125, 4.092780590057373, 1.162678599357605, -0.093559585511684418, -0.29407474398612976, -0.40384694933891296, 0.92344468832015991, 0.20067252218723297, 1.2591063976287842, 0.79467618465423584, 3.6561193466186523, 1.2970373630523682, 0.59850484132766724, -0.42129307985305786, -0.090968266129493713, 0.85069006681442261, -0.63815587759017944, 2.5982558727264404, 3.6484973430633545, 1.5298042297363281, 1.5753450393676758, 0.022933421656489372, 6.8802022933959961, 1.8517601490020752, 1.7301076650619507, -0.27900061011314392, 2.5630011558532715, 1.2123311758041382, 0.36418455839157104, -0.068782910704612732, 3.674868106842041, 1.7976244688034058, -1.3912662267684937, 0.12452904880046844, -0.16894820332527161, 1.7523034811019897, 0.17420551180839539, -0.19145168364048004, -0.2620314359664917, -0.02083740197122097, 1.9731801748275757, 1.330949068069458, 0.10831955075263977, 1.2219780683517456, };
const TfArray<1, int> tensor_dimension7 = { 1, { 48 } };
const MODEL_SECTION(EI_MODEL_SECTION) ALIGN(16) float tensor_data8[48] = { 0.081283450126647949, 1.5938644409179688, -0.11608839780092239, 2.1304869651794434, 1.0985240936279297, 7.2768182754516602, -0.3125109076499939, 5.8841233253479004, 0.27185291051864624, 1.3055541515350342, 1.3747144937515259, 0.42029237747192383, -0.37186515331268311, 1.1866422891616821, 0.21648555994033813, -0.42307004332542419, -0.15722709894180298, -0.071348965167999268, 0.24566680192947388, -0.18802820146083832, 0.08366161584854126, -0.47802430391311646, 0.015236690640449524, -2.4943814277648926, -0.35310795903205872, 4.4810571670532227, 4.7926898002624512, 7.8685321807861328, 0.14402741193771362, 0.7666621208190918, -0.13245372474193573, 0.18054312467575073, 1.3482683897018433, -0.21339648962020874, 1.1465644836425781, -0.6611170768737793, 5.7123403549194336, 0.044246315956115723, 6.0122523307800293, 0.087310165166854858, -0.088031232357025146, 5.9262728691101074, -0.058886408805847168, 0.15181112289428711, 1.6856465339660645, -0.020316213369369507, 0.50718230009078979, 1.1836780309677124, };
const TfArray<1, int> tensor_dimension8 = { 1, { 48 } };
const MODEL_SECTION(EI_MODEL_SECTION) ALIGN(16) float tensor_data9[96] = { 2.6036715507507324, 0.35643783211708069, 1.2434804439544678, -0.51625323295593262, 1.6138564348220825, 0.96316641569137573, 3.1051151752471924, 3.5706987380981445, -0.44288182258605957, 1.7801226377487183, 1.3338304758071899, 0.75594246387481689, 2.8044579029083252, 4.7723865509033203, 0.00062051753047853708, -0.68114966154098511, 2.2540264129638672, 2.3272762298583984, 0.42697685956954956, -0.075497344136238098, -0.24720406532287598, 2.5196676254272461, 1.4995934963226318, 0.84169536828994751, 1.7406213283538818, 2.1070065498352051, 1.3941208124160767, 0.88131624460220337, 0.16214852035045624, -0.0073362542316317558, 1.4436694383621216, 1.9050642251968384, 1.9269508123397827, 0.96150100231170654, 1.6816731691360474, -0.26893720030784607, 2.2069740295410156, 2.5889005661010742, 0.44214430451393127, 1.025317907333374, 0.53842616081237793, 1.8855472803115845, 2.2089691162109375, 0.78607594966888428, 1.1191399097442627, 3.2108676433563232, 2.8749918937683105, 1.417078971862793, 1.6375198364257812, 0.93856632709503174, 0.1339099109172821, -0.67434448003768921, 2.6539113521575928, 1.6410527229309082, 2.2929041385650635, 1.8976891040802002, -0.067878358066082001, 1.71956467628479, 0.78663581609725952, 1.6572084426879883, 1.7024390697479248, 1.3597419261932373, 1.0292147397994995, 2.7366523742675781, 1.1910610198974609, 1.1667972803115845, 1.992720365524292, -0.33813765645027161, 2.738440990447998, 1.1014586687088013, 1.9167667627334595, -0.55237138271331787, -0.38072255253791809, 1.3949991464614868, 0.39274051785469055, 1.2768434286117554, 2.3760452270507812, 4.410517692565918, 1.6323391199111938, -1.1782052516937256, 1.1344186067581177, -2.0877561569213867, -0.38763216137886047, 0.31362354755401611, 1.5184441804885864, 1.6577335596084595, 1.5472817420959473, 1.3685652017593384, 1.7631428241729736, 1.6455273628234863, 1.3901512622833252, 1.6557581424713135, 2.1053965091705322, 2.8077812194824219, -2.9639630317687988, 3.298525333404541, };
const TfArray<1, int> tensor_dimension9 = { 1, { 96 } };
const MODEL_SECTION(EI_MODEL_SECTION) ALIGN(16) float tensor_data10[96] = { 2.1439628601074219, -0.99983608722686768, 0.52194482088088989, 2.0570662021636963, -0.29045090079307556, -1.0022335052490234, -3.1817364692687988, 0.20094625651836395, -0.37520924210548401, 0.055530305951833725, 0.46154505014419556, -0.74372422695159912, 0.11726099252700806, -2.3465592861175537, 0.99419748783111572, -0.84355664253234863, -0.18383350968360901, 5.0050640106201172, 1.5728319883346558, 0.65610039234161377, -0.008540809154510498, -0.65527462959289551, -0.013845942914485931, 1.1722285747528076, 3.4797234535217285, -0.42531180381774902, -0.056460827589035034, -0.37135827541351318, -0.55267798900604248, -0.87329357862472534, 0.79477900266647339, -1.3314552307128906, -0.027238626033067703, -0.12622754275798798, 0.1564401388168335, 2.4459831714630127, 0.7792736291885376, -0.035671383142471313, 0.84227091073989868, 0.13995265960693359, -0.01135939359664917, 0.6765824556350708, -3.3043498992919922, -1.3531697988510132, -1.228018045425415, 3.7432169914245605, -0.14115430414676666, 3.2746372222900391, 2.6226677894592285, -2.2709708213806152, 0.023705482482910156, 1.2660692930221558, 1.6397690773010254, 0.26272076368331909, -1.7680792808532715, 1.1607633829116821, -3.9178094863891602, 0.61045068502426147, 0.066031798720359802, -0.4057108461856842, -0.42018115520477295, -0.077254824340343475, -3.2271051406860352, -0.062570787966251373, 0.26307159662246704, 3.2853984832763672, 2.5063765048980713, 1.6946302652359009, -3.3267784118652344, -0.10533241182565689, -2.083418607711792, -0.15148971974849701, 5.8055639266967773, 1.5846257209777832, -0.22612284123897552, 0.18297085165977478, 8.3589677810668945, 1.5855844020843506, 0.0068073570728302002, -1.9763107299804688, -0.3516487181186676, -2.0865621566772461, 0.022064119577407837, -0.40555208921432495, -0.054572343826293945, -0.05099177360534668, 0.15914605557918549, -0.19881570339202881, 0.24530515074729919, -0.22733625769615173, 0.38054832816123962, -0.23485895991325378, -0.3625958263874054, -0.44799816608428955, 1.247832179069519, 3.7011070251464844, };
const TfArray<1, int> tensor_dimension10 = { 1, { 96 } };
const MODEL_SECTION(EI_MODEL_SECTION) ALIGN(16) float tensor_data11[96] = { 0.3972516655921936, 1.5333558320999146, 1.8924933671951294, 2.2463288307189941, 3.0677368640899658, -1.049258828163147, -0.88583236932754517, 1.6380083560943604, 2.3314380645751953, -1.4086660146713257, 2.7475132942199707, 0.73191791772842407, 1.359588623046875, 2.3048703670501709, 2.3374238014221191, 0.61727416515350342, 0.52704435586929321, 1.2676013708114624, 2.2380335330963135, 1.1919918060302734, -0.049347978085279465, 0.38006559014320374, 1.938268780708313, -0.61614876985549927, 2.6299302577972412, -0.0095958895981311798, 2.2107467651367188, 1.3943370580673218, 1.6754790544509888, 3.4995453357696533, 2.8538882732391357, 2.4435968399047852, 1.6534557342529297, -0.19080014526844025, 1.9910882711410522, 0.65409022569656372, 0.47602024674415588, 1.4779915809631348, 2.7606911659240723, -0.61473929882049561, 1.9282797574996948, 1.6300680637359619, 2.6806983947753906, -1.0099940299987793, 3.2825992107391357, 1.4972797632217407, 1.6796547174453735, 2.6885366439819336, 4.1584033966064453, 2.1165966987609863, -0.11497778445482254, 1.5278573036193848, -1.0221477746963501, -0.033132877200841904, -0.96764069795608521, 1.0790576934814453, -0.056842222809791565, 1.8677263259887695, 2.0514202117919922, 1.5241172313690186, 1.5499345064163208, 1.2045953273773193, 1.4910569190979004, 1.0427671670913696, 2.4331486225128174, 1.9818780422210693, 1.3346800804138184, -1.2791851758956909, 1.7247587442398071, -0.69760316610336304, 1.2172973155975342, 1.6202307939529419, 2.0954225063323975, 1.0561482906341553, -1.5344065427780151, -1.2599518299102783, 1.5543863773345947, 0.14799486100673676, 0.76165997982025146, -0.40696346759796143, 2.0280361175537109, 1.6377823352813721, 0.85227727890014648, 1.9495099782943726, 1.217023491859436, -0.0044035245664417744, 2.2560262680053711, 3.823483943939209, 1.3784085512161255, 2.278313159942627, 1.2417042255401611, -0.052364915609359741, 1.4580566883087158, 1.5709636211395264, 1.0866206884384155, 1.7454384565353394, };
const TfArray<1, int> tensor_dimension11 = { 1, { 96 } };
const MODEL_SECTION(EI_MODEL_SECTION) ALIGN(16) float tensor_data12[96] = { 2.2157382965087891, 5.7670168876647949, 0.35444045066833496, 0.27192777395248413, 3.5590164661407471, -0.83907628059387207, -0.045758411288261414, -0.07956058531999588, 1.5606856346130371, 2.4046001434326172, -1.3995813131332397, 0.066773876547813416, 0.19873723387718201, 0.4138343334197998, 1.6902209520339966, -1.5538678169250488, -0.90632611513137817, -0.069385506212711334, -0.085335671901702881, 1.2058243751525879, -0.73096919059753418, 1.2147845029830933, -0.64713072776794434, 0.72369861602783203, 1.9923586845397949, -0.005689520388841629, -0.64173257350921631, 3.2174687385559082, 1.0379188060760498, -8.647089958190918, 0.33724194765090942, 5.2303013801574707, 2.8534557819366455, -1.6660876274108887, 0.51451277732849121, 1.0904114246368408, -0.20548975467681885, -0.21792024374008179, 0.56779110431671143, -0.76171863079071045, -1.1641049385070801, -0.19046869874000549, -2.149348258972168, 0.0060441195964813232, 11.11234188079834, -0.1397460401058197, 1.4257264137268066, 0.37090831995010376, -8.9334945678710938, 0.11222076416015625, 0.02163194864988327, 0.065876796841621399, -0.565146803855896, 2.743354320526123, -0.92374241352081299, 1.5876848697662354, 2.8433303833007812, 0.35394388437271118, 1.5718971490859985, -0.27031192183494568, -2.5218725204467773, -0.05486607551574707, 0.08508811891078949, -0.034678351134061813, -0.1309255063533783, 1.7082432508468628, 0.03500288724899292, -2.2477235794067383, -0.13459920883178711, 0.27142930030822754, 0.086300581693649292, -0.4127228856086731, 0.17850103974342346, 0.11872817575931549, -0.74032652378082275, -1.8327021598815918, -0.42183077335357666, -0.146614670753479, 2.6102221012115479, -1.3219709396362305, -1.4343926906585693, -2.8542299270629883, -0.07783886045217514, 0.099776774644851685, 3.4795989990234375, -1.6155986785888672, -0.80264359712600708, -14.896931648254395, -1.9216992855072021, 0.85374444723129272, -0.74972355365753174, 1.0266023874282837, -0.23684097826480865, -0.22768425941467285, -1.3381204605102539, 0.32130622863769531, };
const TfArray<1, int> tensor_dimension12 = { 1, { 96 } };
const MODEL_SECTION(EI_MODEL_SECTION) ALIGN(16) float tensor_data13[96] = { -0.64333522319793701, 1.6076536178588867, 2.4137132167816162, 0.88178586959838867, -1.0570935010910034, -1.4710373878479004, 3.3118233680725098, 0.67554330825805664, 0.61627614498138428, -0.64673101902008057, 1.9774675369262695, -0.061101965606212616, -2.5417165756225586, 2.8120639324188232, 3.076554536819458, 1.1364774703979492, 1.8659307956695557, 1.4606984853744507, -1.9742748737335205, -1.682889461517334, 0.65881174802780151, 2.7160313129425049, 3.0624423027038574, 1.6783179044723511, 0.19491985440254211, 0.47429564595222473, 2.9269471168518066, 1.0805740356445312, 0.490822434425354, -1.9049603939056396, 1.4637295007705688, -0.77613037824630737, -0.045339807868003845, 1.1622730493545532, 0.0018880069255828857, 0.32182508707046509, 1.9107621908187866, 1.0691943168640137, -0.62347590923309326, 1.7635626792907715, 1.2898364067077637, 2.6185953617095947, 1.4917155504226685, 2.3264789581298828, 1.9082382917404175, 1.0093727111816406, 0.50953751802444458, 2.1624119281768799, 1.3783694505691528, -1.3193747997283936, -1.5767371654510498, 0.098476648330688477, -0.1187504306435585, -0.29803392291069031, 0.77731537818908691, 0.0077777677215635777, 0.13850119709968567, -0.24331016838550568, -1.5049132108688354, 1.876501202583313, -0.70600521564483643, 0.66543912887573242, -0.28704202175140381, -0.76219648122787476, -1.8559489250183105, 1.9308950901031494, 2.1660628318786621, 0.40422186255455017, -1.1444426774978638, 0.33485487103462219, 0.38602882623672485, 0.5376465916633606, 1.3738901615142822, -0.39756876230239868, 0.19535830616950989, 2.1527950763702393, -0.13521358370780945, 1.8633421659469604, 1.8271071910858154, -0.12796270847320557, 1.4820406436920166, 0.31350827217102051, -0.077943645417690277, 0.26382067799568176, 1.7840497493743896, 2.3797829151153564, 2.4266297817230225, 0.29811722040176392, 0.71472263336181641, 2.0504369735717773, -0.098273217678070068, -1.9609428644180298, 0.21582961082458496, -0.99242967367172241, -0.59749007225036621, -0.42183417081832886, };
const TfArray<1, int> tensor_dimension13 = { 1, { 96 } };
const MODEL_SECTION(EI_MODEL_SECTION) ALIGN(16) float tensor_data14[32] = { 0.019609523937106133, -0.0059683374129235744, 0.011549233458936214, -0.018050160259008408, 0.018857114017009735, 0.0075543839484453201, 0.0011040649842470884, -0.010645501315593719, -0.0034568144474178553, 0.039817240089178085, 0.022695945575833321, 0.00063737033633515239, 0.00079823401756584644, 0.0025633017066866159, 0.037181127816438675, 0.0109372828155756, 0.0035386702511459589, -0.022555043920874596, -0.02241913415491581, 0.02183028869330883, 0.0062426486983895302, 0.014283998869359493, 0.042983740568161011, 0.025046925991773605, -0.026069721207022667, 0.056398969143629074, -0.012727594003081322, -0.015168337151408195, 0.067991331219673157, 0.010053155012428761, -0.012447306886315346, 0.015140418894588947, };
const TfArray<1, int> tensor_dimension14 = { 1, { 32 } };
const MODEL_SECTION(EI_MODEL_SECTION) ALIGN(16) float tensor_data15[1*3*3*16] = { 
  /* [0][0][][] */ -8.5695571899414062,0.089695706963539124,-0.23751117289066315,-1.5593483448028564,0.25568455457687378,-0.16683731973171234,1.2580251693725586,-0.10802992433309555,-0.094143897294998169,-0.032724179327487946,-0.059107284992933273,0.98046588897705078,-3.9252877235412598,0.046802502125501633,0.39453691244125366,-12.109872817993164, 4.0267438888549805,0.11858683079481125,-0.36414024233818054,1.5676791667938232,0.84725397825241089,-0.3227141797542572,2.0039753913879395,-0.18182753026485443,-0.088671565055847168,1.3156126737594604,-0.99236351251602173,1.6889456510543823,-3.2424850463867188,0.052603982388973236,0.92558944225311279,-4.0818142890930176, 1.9072631597518921,-0.11724384874105453,0.24847300350666046,-0.02410571277141571,-0.48753175139427185,0.17664450407028198,-1.5052928924560547,0.11235381662845612,-0.099574267864227295,-0.2830444872379303,0.025069616734981537,-0.4734228253364563,1.895155668258667,0.010896570049226284,-0.73460406064987183,-4.7821164131164551, 
  /* [0][1][][] */ -10.087335586547852,0.61138623952865601,-0.07035721093416214,0.16672024130821228,-0.29619693756103516,0.046424705535173416,-0.45663538575172424,0.020995223894715309,-0.028422560542821884,0.00417335145175457,0.021076621487736702,-3.4883506298065186,-1.515388011932373,0.082872152328491211,-0.21413008868694305,-2.3038740158081055, -6.2179684638977051,-0.19885280728340149,-0.16773080825805664,-0.17849107086658478,-0.053877409547567368,-0.060706477612257004,0.11916732788085938,-0.038944102823734283,-0.11365135759115219,-0.92293769121170044,0.15808096528053284,-0.31430146098136902,-3.2171955108642578,-1.2387453317642212,0.0072341435588896275,3.8089182376861572, 1.1119179725646973,0.0053377030417323112,0.17648078501224518,0.026358319446444511,0.014470991678535938,0.091480143368244171,-0.40934991836547852,0.04850316047668457,-0.13409925997257233,0.066821500658988953,-0.017065387219190598,0.073834910988807678,-0.66196262836456299,0.11443967372179031,-0.025844363495707512,7.1796369552612305, 
  /* [0][2][][] */ -9.1553964614868164,-0.34713616967201233,0.18541325628757477,0.027436824515461922,-0.046505827456712723,0.10671868920326233,-0.62400615215301514,0.075765259563922882,-0.082140311598777771,0.00198711222037673,-0.0026947546284645796,0.12225626409053802,1.2398595809936523,0.018103735521435738,-0.19558572769165039,3.7542333602905273, 1.8149527311325073,-0.019042965024709702,0.081587687134742737,-0.019653778523206711,-0.18431007862091064,0.10925852507352829,-0.54488599300384521,0.030321985483169556,-0.13389594852924347,-0.1357671320438385,-0.0054313368164002895,2.6926436424255371,-1.784921407699585,0.00064123206539079547,-0.20607592165470123,-18.429813385009766, 1.6327332258224487,-0.033989865332841873,0.048640891909599304,-0.00051177357090637088,0.024451941251754761,0.04260554164648056,0.13549152016639709,0.032467309385538101,-0.12331601232290268,0.045243330299854279,-0.007608040701597929,-4.1115374565124512,3.3074154853820801,0.023879148066043854,0.12468867748975754,-21.090656280517578, 
};
const TfArray<4, int> tensor_dimension15 = { 4, { 1,3,3,16 } };
const MODEL_SECTION(EI_MODEL_SECTION) ALIGN(16) float tensor_data16[8] = { -17.479743957519531, -62.499393463134766, -15.824215888977051, -18.600963592529297, -40.554664611816406, -7.45281982421875, -33.899879455566406, -34.108024597167969, };
const TfArray<1, int> tensor_dimension16 = { 1, { 8 } };
const MODEL_SECTION(EI_MODEL_SECTION) ALIGN(16) float tensor_data17[1*3*3*48] = { 
  /* [0][0][][] */ -0.22457426786422729,-0.080338083207607269,-0.055552046746015549,-0.069195501506328583,0.069651313126087189,-0.43309348821640015,-0.48030936717987061,-0.13817332684993744,-0.079268515110015869,-0.063674516975879669,0.023263826966285706,0.071533314883708954,0.26219913363456726,-16.692045211791992,0.28786331415176392,-0.43637955188751221,-13.208820343017578,-0.058944970369338989,0.12145062536001205,-0.064812839031219482,0.014259567484259605,-0.39722767472267151,-0.60119020938873291,-0.1370851993560791,-0.15623725950717926,-0.55012428760528564,-0.080591872334480286,-0.056099984794855118,1.2880034446716309,0.025238899514079094,0.21344941854476929,0.20383928716182709,-1.1015020608901978,-0.035802073776721954,-0.022230662405490875,0.2755969762802124,0.007831573486328125,0.88017618656158447,-0.16958540678024292,0.27687737345695496,-0.16995988786220551,-0.1345464289188385,0.53473222255706787,-0.044349145144224167,-0.039573304355144501,-0.17859306931495667,-0.77659016847610474,0.48134544491767883, 0.36835649609565735,0.039686780422925949,-0.18292257189750671,-0.10849481821060181,0.46598827838897705,-1.4876984357833862,-0.7647055983543396,-0.16403733193874359,0.18227346241474152,-0.098533831536769867,-0.35101091861724854,0.11908719688653946,0.2749364972114563,-19.226551055908203,-0.0014675370184704661,0.66859322786331177,-6.057316780090332,-0.078081920742988586,0.20029021799564362,0.040677614510059357,0.060660168528556824,-0.65377849340438843,-0.6880682110786438,-0.1220896989107132,-0.0096924863755702972,-0.53561168909072876,-0.15512493252754211,-0.086799129843711853,-0.88037264347076416,0.034264601767063141,-0.13108727335929871,0.43719726800918579,0.24902938306331635,-0.052450671792030334,0.24983993172645569,0.50270277261734009,0.0056810025125741959,1.319853663444519,-0.12598046660423279,0.44023695588111877,-0.28072729706764221,0.065946146845817566,0.62976503372192383,-0.051042791455984116,-0.0023019441869109869,-0.1195184662938118,-1.1383953094482422,0.42649766802787781, -0.1736094057559967,0.14927451312541962,0.034024544060230255,-0.014959907159209251,-0.5483318567276001,-1.246045708656311,-0.34765872359275818,-0.03360377624630928,0.26448580622673035,-0.0085802450776100159,-0.3834165632724762,0.042275078594684601,0.038245663046836853,-16.737319946289062,-0.2517676055431366,-0.11720850318670273,-14.83458137512207,-0.015702260658144951,0.086867928504943848,0.082746535539627075,-0.070873364806175232,-0.41259074211120605,-0.19513505697250366,-0.046473056077957153,-0.055867265909910202,-0.14029900729656219,-0.073419921100139618,-0.028173994272947311,-0.13336141407489777,0.030041612684726715,-0.053511336445808411,0.064292311668395996,0.92402732372283936,-0.036090198904275894,0.27430194616317749,0.15797349810600281,0.0071571855805814266,0.64028084278106689,-0.0032966353464871645,0.063424579799175262,-0.17175795137882233,0.059500221163034439,0.022749278694391251,-0.032915785908699036,-0.11323850601911545,0.017443889752030373,-0.49292683601379395,0.0651288703083992, 
  /* [0][1][][] */ -0.42864218354225159,-0.42419213056564331,-0.29634836316108704,-0.19216243922710419,-0.088024720549583435,0.66158854961395264,0.59136396646499634,-0.21078850328922272,-0.07742173969745636,-0.14067655801773071,-0.063389845192432404,0.12224292755126953,0.68128871917724609,-15.169624328613281,0.069087505340576172,-1.0200190544128418,-14.175686836242676,-0.06675083190202713,0.2958931028842926,-0.59193432331085205,0.20923611521720886,-0.54186022281646729,-0.56157052516937256,-0.22074377536773682,0.1797698438167572,-0.54738473892211914,-0.10395494848489761,-0.089117296040058136,2.1966254711151123,-0.11662054806947708,0.28930187225341797,0.67678374052047729,-0.37401646375656128,-0.033501170575618744,-0.061149075627326965,0.45213514566421509,-0.019070787355303764,-1.4073885679244995,-0.14628683030605316,0.31761625409126282,0.08873903751373291,0.64173740148544312,0.51232349872589111,-0.043411463499069214,-0.60517829656600952,-0.57533872127532959,0.72025829553604126,0.509540855884552, 0.64172357320785522,-0.27480852603912354,-0.79934030771255493,-0.51656687259674072,1.0635178089141846,0.45945248007774353,0.57150065898895264,-0.25926113128662109,0.31136614084243774,-0.16317716240882874,-0.32367914915084839,0.14276684820652008,0.94387024641036987,-3.3925542831420898,-0.015336022712290287,1.3626443147659302,-6.9975090026855469,-0.089674629271030426,0.43203422427177429,-0.98130261898040771,0.60236424207687378,-0.75033336877822876,-0.64485073089599609,-0.2049793004989624,0.5695146918296814,-0.41192463040351868,-0.16419965028762817,-0.26138880848884583,-2.0778980255126953,-0.24685542285442352,-0.1594645082950592,1.0292865037918091,0.25268086791038513,-0.045927688479423523,0.48144406080245972,0.73908370733261108,-0.035081557929515839,-2.3144497871398926,-0.13183502852916718,0.31736910343170166,0.12846441566944122,1.3123987913131714,0.63182908296585083,-0.047691710293292999,-0.73277521133422852,-0.62032455205917358,1.1150575876235962,0.55842941999435425, -0.2644200325012207,0.10736197233200073,-0.40184900164604187,-0.35076117515563965,-1.0200351476669312,-0.26368492841720581,0.19350792467594147,-0.079559162259101868,0.38422742486000061,-0.02434975653886795,-0.21846854686737061,0.043694138526916504,0.41369268298149109,-16.399894714355469,-0.062179852277040482,-0.46958434581756592,-4.3217730522155762,-0.018775893375277519,0.17748965322971344,-0.55028617382049561,0.25668710470199585,-0.47796112298965454,-0.20585909485816956,-0.043840136379003525,0.20380264520645142,-0.035426009446382523,-0.059048496186733246,-0.13434536755084991,0.24537694454193115,-0.16815552115440369,-0.079607695341110229,0.14872975647449493,0.27773916721343994,-0.039506401866674423,0.44807884097099304,0.10380761325359344,-0.017904782667756081,-1.1374155282974243,0.0012404816225171089,-0.044994466006755829,0.076729178428649902,0.57576686143875122,0.062250100076198578,-0.03123713843524456,-0.36805194616317749,-0.18498590588569641,0.58334755897521973,0.15029717981815338, 
  /* [0][2][][] */ -0.31180569529533386,-0.3572039008140564,-0.23147258162498474,-0.1342623382806778,0.015414592809975147,0.43226951360702515,-0.010454678907990456,-0.072183504700660706,-0.10724936425685883,-0.072396792471408844,-0.041114687919616699,0.065856210887432098,0.56896328926086426,-29.910606384277344,-0.31632465124130249,-0.6716427206993103,-5.0532617568969727,-0.010894679464399815,0.20945157110691071,0.56934589147567749,0.25746464729309082,-0.17981007695198059,-0.080636844038963318,-0.1031373143196106,0.13466683030128479,-0.27144035696983337,-0.014528625644743443,-0.11933718621730804,1.3385515213012695,0.05159706249833107,0.17794722318649292,0.51374602317810059,0.89864617586135864,-0.0098413527011871338,-0.152337446808815,-0.053305987268686295,-0.048772558569908142,0.6346173882484436,-0.024595052003860474,0.10706799477338791,0.02202841080725193,0.42458772659301758,0.050152894109487534,-0.023484472185373306,0.62382715940475464,-0.38505986332893372,0.040203675627708435,0.12935669720172882, 0.43748810887336731,-0.23321822285652161,-0.56980317831039429,-0.3361130952835083,0.69781309366226196,0.21453548967838287,0.060166757553815842,-0.097939714789390564,0.15498223900794983,-0.085757270455360413,-0.089218229055404663,0.064992472529411316,0.61332219839096069,-6.0131850242614746,0.043159190565347672,1.0085580348968506,-2.8593630790710449,-0.018924517557024956,0.26769351959228516,0.89191931486129761,0.38659834861755371,-0.27345794439315796,-0.11745584011077881,-0.1030007004737854,0.41536033153533936,-0.32569190859794617,-0.027612278237938881,-0.19237273931503296,-0.86000490188598633,0.072872906923294067,-0.10355478525161743,0.91946560144424438,-0.15909597277641296,-0.018558619543910027,0.24642780423164368,0.085873402655124664,-0.064287133514881134,0.91920602321624756,-0.020907871425151825,-0.0047619794495403767,0.024370620027184486,0.3439948558807373,0.05886511504650116,-0.027317211031913757,0.83821010589599609,-0.48987108469009399,-0.10499446094036102,0.17240904271602631, -0.14817479252815247,0.098365418612957001,-0.28590971231460571,-0.13970525562763214,-0.67210102081298828,-0.2010733038187027,0.14573335647583008,-0.025645485147833824,0.17820343375205994,-0.0013616179348900914,-0.030367413535714149,0.038862962275743484,0.22767002880573273,-10.07728099822998,0.28228262066841125,-0.30654686689376831,-10.878596305847168,-0.0013154336484149098,0.10217461735010147,0.45174628496170044,0.33941382169723511,-0.15700030326843262,-0.019560668617486954,-0.0044237240217626095,0.17717073857784271,-0.021639188751578331,-0.0079672830179333687,-0.13902154564857483,-0.22893218696117401,0.051508683711290359,-0.045772988349199295,0.32751864194869995,-0.77389466762542725,-0.016337448731064796,0.25152859091758728,0.03324686735868454,-0.01069562416523695,0.38596859574317932,0.037108730524778366,-0.13900291919708252,0.01592729240655899,0.40504017472267151,-0.028288010507822037,-0.0062159169465303421,0.41489794850349426,-0.1722370982170105,-0.033545352518558502,0.075502075254917145, 
};
const TfArray<4, int> tensor_dimension17 = { 4, { 1,3,3,48 } };
const MODEL_SECTION(EI_MODEL_SECTION) ALIGN(16) float tensor_data18[8] = { -9.6205339431762695, -9.956451416015625, 16.756620407104492, 19.367353439331055, 3.8531119823455811, 9.8411855697631836, 23.805273056030273, 4.9505825042724609, };
const TfArray<1, int> tensor_dimension18 = { 1, { 8 } };
const MODEL_SECTION(EI_MODEL_SECTION) ALIGN(16) float tensor_data19[1*3*3*48] = { 
  /* [0][0][][] */ 0.065411314368247986,-0.035791173577308655,0.13731861114501953,1.8358194828033447,0.011744738556444645,0.36971443891525269,0.0004916926845908165,0.14035028219223022,0.075601540505886078,0.074735663831233978,0.027908926829695702,0.072562314569950104,-0.093573331832885742,-0.054695744067430496,-0.13830709457397461,0.040405873209238052,-0.025837000459432602,0.077919676899909973,-0.076997481286525726,-0.85878390073776245,-0.060133721679449081,-0.1790311187505722,0.89209520816802979,-0.021161332726478577,-0.0067140921019017696,0.035908225923776627,-0.16578267514705658,0.057693786919116974,-0.041802600026130676,0.020749859511852264,0.080055959522724152,0.97957569360733032,0.53412729501724243,0.19692148268222809,0.32745423913002014,-0.20350085198879242,0.021604374051094055,0.11313314735889435,-0.036753971129655838,0.0016776745906099677,0.085429199039936066,-0.16904126107692719,-0.032521989196538925,-0.054595593363046646,0.095106072723865509,-0.00445550587028265,-0.076066933572292328,-0.047296464443206787, 1.7787008285522461,0.10582193732261658,0.10537040233612061,-2.1360509395599365,0.11948015540838242,0.40352579951286316,0.29057639837265015,0.055364444851875305,0.57964146137237549,0.9287186861038208,0.019309297204017639,0.35450425744056702,-0.44228008389472961,-0.14229269325733185,0.018403323367238045,0.039409823715686798,1.4047596454620361,-0.56078207492828369,-0.27618780732154846,-0.44029715657234192,-0.91768276691436768,0.24148429930210114,-0.77153801918029785,0.038909595459699631,0.13613952696323395,0.38742968440055847,-0.78015273809432983,-0.39880779385566711,0.16072899103164673,0.094571806490421295,0.045117437839508057,-1.2166951894760132,0.12994100153446198,-0.39297446608543396,1.0374728441238403,0.074763596057891846,-0.61837542057037354,-0.15836377441883087,-0.065030790865421295,0.087525568902492523,-0.38654136657714844,-0.23616088926792145,-0.16829553246498108,0.018673066049814224,-0.16976824402809143,-0.038308613002300262,-1.8316659927368164,0.096726655960083008, -0.44406318664550781,-0.023289548233151436,0.0606500543653965,0.25250086188316345,-0.011537699960172176,0.31111958622932434,0.15182140469551086,0.089700222015380859,0.13865213096141815,0.074824698269367218,-0.046034462749958038,0.2576732337474823,-0.13006646931171417,-0.016356758773326874,0.059769410640001297,0.019365096464753151,-1.1544990539550781,0.27645641565322876,-0.046517450362443924,0.53321534395217896,-0.29949241876602173,-0.081843875348567963,-0.12047948688268661,-0.012610143981873989,-0.0040226271376013756,-0.32850313186645508,-0.10712199658155441,0.1529262512922287,-0.13136188685894012,0.018911132588982582,0.013578821904957294,-0.19539617002010345,0.21451909840106964,-0.13547420501708984,0.11854329705238342,-0.13796471059322357,-0.0052667041309177876,0.166596919298172,0.44324091076850891,-0.0093250470235943794,0.24272280931472778,0.092298507690429688,-0.09111320972442627,0.085502497851848602,-0.22143451869487762,0.012380747124552727,-0.01488395594060421,-0.020189302042126656, 
  /* [0][1][][] */ 1.7544771432876587,0.089769534766674042,0.0070655914023518562,-1.6102477312088013,0.056466277688741684,-0.14635074138641357,0.8569340705871582,-0.078619636595249176,0.038318488746881485,0.065631397068500519,-0.038345091044902802,0.42980289459228516,-0.075520433485507965,-0.0098723415285348892,0.066826693713665009,-0.15165892243385315,-0.0037668254226446152,-0.49923545122146606,-0.23107802867889404,-0.63377279043197632,0.10621655732393265,-0.63945740461349487,-0.86252254247665405,-0.043847594410181046,0.045306853950023651,0.5357736349105835,-0.40028169751167297,-0.61619067192077637,-0.066173739731311798,0.15787585079669952,0.058277402073144913,-1.0729397535324097,0.46510374546051025,-0.33074301481246948,-0.0072992807254195213,0.93410688638687134,-0.051258455961942673,0.19673952460289001,-0.44769296050071716,0.031805381178855896,-0.30540385842323303,-0.29243963956832886,0.25077894330024719,-0.60779637098312378,-0.21450468897819519,-0.06832430511713028,-0.18253789842128754,-0.02507222443819046, 0.36024767160415649,-1.5009615421295166,-0.90679097175598145,1.9046484231948853,-0.58585518598556519,-0.61680996417999268,-3.0288612842559814,-0.62931513786315918,-0.61389386653900146,-0.68618553876876831,0.3866274356842041,-1.005620002746582,1.2034332752227783,0.80680572986602783,0.11322847753763199,-0.57939112186431885,-0.93577653169631958,1.263556957244873,0.52920413017272949,-0.7819972038269043,1.1580761671066284,1.146169900894165,0.77708768844604492,0.30962127447128296,0.88618171215057373,-0.70860660076141357,-3.0723814964294434,0.14504325389862061,-0.9260249137878418,-0.6101033091545105,0.47973504662513733,1.2410074472427368,-3.1124153137207031,0.82937580347061157,-0.21456243097782135,-0.31520643830299377,2.0142931938171387,-0.42697125673294067,1.2617394924163818,0.09623439610004425,0.62298852205276489,-0.18751086294651031,0.7737535834312439,0.87363362312316895,0.63487011194229126,-0.51969748735427856,1.4866687059402466,0.41126319766044617, 0.73867899179458618,0.067544840276241302,0.364847332239151,-0.21820428967475891,0.020304430276155472,-0.29515424370765686,1.0788235664367676,0.094176992774009705,-0.11328574270009995,0.10238060355186462,-0.3294316828250885,-0.063720777630805969,0.0019614654593169689,-0.25966286659240723,0.41070497035980225,0.022089222446084023,0.69543880224227905,-0.66253662109375,-0.32456770539283752,0.59896296262741089,0.13561263680458069,-0.39126241207122803,0.08765672892332077,-0.080902367830276489,0.027875753119587898,0.036271769553422928,-0.96115255355834961,0.3483302891254425,0.12875911593437195,0.18974065780639648,-0.005614760797470808,0.053037203848361969,0.83843284845352173,-0.26398947834968567,0.066316999495029449,0.49265825748443604,-0.069373764097690582,0.22484177350997925,0.68827182054519653,-0.0075022308155894279,-0.40280318260192871,0.021287268027663231,-0.4942205548286438,-0.19475542008876801,0.13747020065784454,-0.068589411675930023,-0.14162299036979675,0.023323321714997292, 
  /* [0][2][][] */ -0.73305797576904297,-0.078877478837966919,0.18860934674739838,-0.29126188158988953,0.026237215846776962,0.15239496529102325,-0.89894318580627441,0.11067371070384979,0.039354845881462097,-0.1703769862651825,0.032541468739509583,0.25600633025169373,0.024619575589895248,-0.029876802116632462,-0.10787522792816162,0.07939726859331131,0.054508209228515625,0.21375033259391785,-0.056345604360103607,0.74917173385620117,0.063841462135314941,-0.27230557799339294,-0.11412803083658218,-0.031000452116131783,-0.0023190719075500965,0.10983599722385406,0.011111345142126083,0.24974276125431061,-0.084069609642028809,0.015414194203913212,0.23436042666435242,-0.31355744600296021,-0.39599883556365967,-0.26825308799743652,-0.25188466906547546,-0.30148744583129883,-0.017083540558815002,0.1064181923866272,0.066472761332988739,-0.018786929547786713,0.045873798429965973,-0.0039431271143257618,0.26754814386367798,-0.23976770043373108,-0.17476928234100342,0.072158031165599823,-0.16137763857841492,0.068521983921527863, 0.95073843002319336,1.4997981786727905,0.54245918989181519,0.38130694627761841,0.07207883894443512,-0.11342041939496994,2.969637393951416,0.17813508212566376,0.081681393086910248,-0.017683014273643494,0.12888756394386292,0.21648624539375305,-0.032899145036935806,0.006575804203748703,-0.27599883079528809,0.11356984823942184,-0.64507627487182617,-0.56317895650863647,-0.18608647584915161,0.87652069330215454,-0.33027142286300659,0.43604600429534912,0.07079140841960907,0.046700704842805862,0.25671482086181641,-0.35215210914611816,-0.94993484020233154,0.15545889735221863,0.53649628162384033,0.00096421357011422515,0.63093554973602295,0.23143720626831055,2.1394023895263672,-0.15107767283916473,0.067416951060295105,-0.27349919080734253,-0.37102776765823364,-0.056373517960309982,-0.12693145871162415,0.091637037694454193,-0.133071169257164,-0.02412756159901619,-0.22641474008560181,0.31150436401367188,0.11856314539909363,-0.12241925299167633,0.12519048154354095,-0.4887147843837738, -0.57989180088043213,-0.048135858029127121,0.063117265701293945,-0.052201710641384125,0.018226930871605873,-0.022612851113080978,-1.4516309499740601,0.040966648608446121,-0.088210597634315491,-0.07194162905216217,-0.12886540591716766,-0.31702423095703125,0.18360753357410431,-0.052257739007472992,-0.018305905163288116,0.051703788340091705,0.38335010409355164,0.22947968542575836,-0.082229278981685638,-0.93349540233612061,0.20871549844741821,-0.075706519186496735,0.035777825862169266,-0.023304792121052742,-0.015659529715776443,0.060226291418075562,-0.24952848255634308,-0.25313469767570496,-0.12332068383693695,0.036834713071584702,0.018066750839352608,0.12362553924322128,-0.47698530554771423,0.58371096849441528,-0.3007214367389679,-0.17001241445541382,-0.05684787780046463,0.1333746463060379,0.2776426374912262,-0.045102156698703766,0.018776396289467812,0.024058328941464424,-0.21590030193328857,0.04654693603515625,-0.20513266324996948,0.55371302366256714,-0.05146108940243721,-0.0080807097256183624, 
};
const TfArray<4, int> tensor_dimension19 = { 4, { 1,3,3,48 } };
const MODEL_SECTION(EI_MODEL_SECTION) ALIGN(16) float tensor_data20[8] = { -18.496994018554688, 13.333059310913086, -12.313676834106445, -15.786067962646484, 14.350110054016113, 3.8603911399841309, 14.694222450256348, 33.796684265136719, };
const TfArray<1, int> tensor_dimension20 = { 1, { 8 } };
const MODEL_SECTION(EI_MODEL_SECTION) ALIGN(16) float tensor_data21[1*3*3*48] = { 
  /* [0][0][][] */ 0.23723901808261871,-0.15955778956413269,0.64748972654342651,0.18110004067420959,0.31686380505561829,-0.075488753616809845,0.62067830562591553,-0.40404140949249268,0.20463995635509491,-0.15066157281398773,-0.15285530686378479,0.18567799031734467,0.11765431612730026,-0.068728767335414886,-0.47504302859306335,-0.60398471355438232,0.79581910371780396,0.34329736232757568,0.24528083205223083,0.43097430467605591,0.20513033866882324,-0.56529444456100464,-0.25482803583145142,0.29330557584762573,-0.11598125845193863,-0.16824823617935181,-0.10696021467447281,-0.24172723293304443,-0.37334001064300537,0.23751316964626312,-0.25572618842124939,-0.67594820261001587,-0.029392937198281288,0.30124512314796448,0.084119729697704315,0.19057005643844604,-0.28362643718719482,0.21846954524517059,-0.28959694504737854,-0.051685560494661331,0.25842347741127014,-0.39000022411346436,0.18725605309009552,0.27607479691505432,-0.14295440912246704,0.092742837965488434,0.26978951692581177,-0.038396850228309631, 0.27625972032546997,-0.16632762551307678,0.85524886846542358,0.21138624846935272,-0.48785370588302612,-0.15411162376403809,-0.3256666362285614,-0.53373163938522339,0.32764855027198792,-0.17191411554813385,-0.12441857904195786,0.27544751763343811,0.17644448578357697,-0.16338454186916351,-0.62225323915481567,0.62539863586425781,-0.28918886184692383,0.39423656463623047,0.42582470178604126,0.71475553512573242,0.26579499244689941,-0.85594367980957031,0.15019415318965912,0.38903731107711792,-0.18817180395126343,-0.34624215960502625,-0.10751473158597946,-0.29958620667457581,0.29539158940315247,0.2999834418296814,-0.12642352283000946,-0.75552040338516235,-0.17906586825847626,0.57978445291519165,0.097793981432914734,0.2474103718996048,-0.36958593130111694,0.33534431457519531,-0.4984111487865448,-0.042244769632816315,0.3922608494758606,-0.49890777468681335,0.26672062277793884,0.39189633727073669,-0.11661030352115631,-0.90809279680252075,0.33296003937721252,-0.1111370325088501, 0.11835920810699463,-0.079821795225143433,0.46776938438415527,0.094287775456905365,0.1088966578245163,-0.094849914312362671,-0.2685699462890625,-0.25629034638404846,0.14723089337348938,-0.0487244613468647,0.0043507860973477364,0.14881370961666107,0.062443278729915619,-0.11879982799291611,-0.3562445342540741,0.00048792868619784713,-0.44055551290512085,0.1649855375289917,0.17420637607574463,0.39661487936973572,0.10345487296581268,-0.39753663539886475,0.095636457204818726,0.1367429792881012,-0.10180162638425827,-0.20076528191566467,-0.063641563057899475,-0.077289476990699768,0.16865827143192291,0.14293166995048523,0.36154291033744812,-0.53707098960876465,-0.16373296082019806,0.33988934755325317,0.043597415089607239,0.11047820746898651,-0.1523856520652771,0.16475538909435272,-0.21581357717514038,-0.02195286937057972,0.20456688106060028,-0.21048550307750702,0.11293869465589523,0.1939290463924408,-0.0092886565253138542,-0.074690088629722595,0.13291037082672119,-0.080017104744911194, 
  /* [0][1][][] */ 0.31858667731285095,-0.18586458265781403,-0.29008719325065613,0.23875468969345093,0.33626729249954224,-0.18246376514434814,0.72407674789428711,-0.53886914253234863,0.28641676902770996,-0.2000504732131958,-0.14159627258777618,0.3056052029132843,0.18440699577331543,-0.16649982333183289,-0.10501132905483246,-0.88371926546096802,0.98974847793579102,0.45988363027572632,0.38425511121749878,-0.2403239905834198,0.24951215088367462,0.78856688737869263,-0.38428047299385071,0.4024384617805481,0.25615254044532776,-0.33167031407356262,-0.14985699951648712,-0.36790761351585388,-0.70880317687988281,0.32816261053085327,-0.28720349073410034,-0.050427202135324478,-0.17034606635570526,0.52258563041687012,0.12423441559076309,0.28644612431526184,-0.3774268627166748,0.31059059500694275,-0.49962672591209412,0.28610694408416748,0.42939925193786621,-0.5420299768447876,0.28069034218788147,0.38596776127815247,-0.13568004965782166,0.82013314962387085,0.32994204759597778,-0.10492787510156631, 0.43576741218566895,-0.20562231540679932,-0.47944384813308716,0.31888818740844727,-0.79981964826583862,-0.27963748574256897,-0.53019094467163086,-0.76553517580032349,0.41923049092292786,-0.22278937697410583,-0.24901275336742401,0.4745955765247345,0.28049647808074951,-0.18499273061752319,-0.16664952039718628,0.64205849170684814,-0.50153762102127075,0.52377438545227051,0.65112465620040894,-0.31462541222572327,0.38388583064079285,0.93035107851028442,0.21240620315074921,0.68323558568954468,0.43845102190971375,-0.55401533842086792,-0.20317742228507996,-0.47418829798698425,0.28297662734985352,0.47736608982086182,-0.11977353692054749,0.089035816490650177,-0.25421380996704102,0.94768911600112915,0.15167778730392456,0.37036141753196716,-0.57107138633728027,0.50896018743515015,-0.78243350982666016,0.39231306314468384,0.63304102420806885,-0.6784246563911438,0.41317397356033325,0.5464705228805542,-0.19392940402030945,-0.052419126033782959,0.4477292001247406,-0.13964788615703583, 0.2150757908821106,-0.12471945583820343,-0.23545926809310913,0.16183434426784515,0.2289109081029892,-0.13916224241256714,-0.28758987784385681,-0.37572199106216431,0.18525160849094391,-0.074819087982177734,-0.1159050390124321,0.23226267099380493,0.1037314236164093,-0.084051810204982758,-0.11046219617128372,0.089186809957027435,-0.50072598457336426,0.21419799327850342,0.29251182079315186,-0.18003757297992706,0.16957424581050873,0.47298657894134521,0.15441583096981049,0.3490566611289978,0.22208485007286072,-0.29392543435096741,-0.095723308622837067,-0.15603508055210114,0.20319055020809174,0.2309207022190094,0.52858519554138184,0.088907293975353241,-0.12576481699943542,0.52527791261672974,0.058459863066673279,0.15070885419845581,-0.2460029274225235,0.23716612160205841,-0.38153535127639771,0.18366725742816925,0.29891118407249451,-0.30679944157600403,0.18283931910991669,0.26077982783317566,-0.098235629498958588,-0.49428480863571167,0.21253024041652679,-0.061167459934949875, 
  /* [0][2][][] */ 0.14500515162944794,-0.085376746952533722,-0.3272954523563385,0.13528597354888916,0.16273842751979828,-0.11662747710943222,0.36050784587860107,-0.2702217698097229,0.14274574816226959,-0.12951865792274475,-0.012970658019185066,0.16299951076507568,0.12752395868301392,-0.10590810328722,0.50763076543807983,-0.54700809717178345,0.57445204257965088,0.21250447630882263,0.17737945914268494,-0.17392571270465851,0.082854211330413818,-0.066629156470298767,-0.23254011571407318,0.16647648811340332,-0.086335353553295135,-0.20981781184673309,-0.074285827577114105,-0.19481179118156433,-0.41164642572402954,0.1235835999250412,-0.17221370339393616,0.51297903060913086,-0.15523198246955872,0.27896517515182495,0.054953306913375854,0.13127225637435913,-0.12686878442764282,0.1345798671245575,-0.27501380443572998,-0.26030930876731873,0.24668295681476593,-0.29293659329414368,0.13949552178382874,0.19965998828411102,-0.041281942278146744,0.13202470541000366,0.14616219699382782,-0.082166805863380432, 0.24946862459182739,-0.11570542305707932,-0.32985115051269531,0.20527844130992889,-0.35689139366149902,-0.14109212160110474,-0.40174949169158936,-0.41411060094833374,0.17361810803413391,-0.13459314405918121,-0.13077732920646667,0.23887234926223755,0.17389737069606781,-0.067499071359634399,0.81843239068984985,0.19640243053436279,-0.36340820789337158,0.24691341817378998,0.32032623887062073,-0.23935547471046448,0.17155711352825165,-0.12631241977214813,0.13647377490997314,0.36567652225494385,-0.17214316129684448,-0.2841087281703949,-0.12072435766458511,-0.24800325930118561,0.16958868503570557,0.2416914701461792,-0.099447928369045258,0.65174055099487305,-0.11308575421571732,0.48510533571243286,0.06647268682718277,0.18087509274482727,-0.23166222870349884,0.25278118252754211,-0.42823934555053711,-0.32153162360191345,0.34085959196090698,-0.37489038705825806,0.20302200317382812,0.27524545788764954,-0.12406190484762192,0.37346911430358887,0.21656538546085358,-0.059478223323822021, 0.14444878697395325,-0.063419975340366364,-0.18181684613227844,0.1183076873421669,0.18000112473964691,-0.043809182941913605,-0.098336026072502136,-0.22401480376720428,0.061699528247117996,-0.04236811026930809,-0.10615344345569611,0.13836249709129333,0.077201865613460541,0.0077961194328963757,0.44363981485366821,0.16961528360843658,-0.23257637023925781,0.10392879694700241,0.14044912159442902,-0.19317875802516937,0.085266508162021637,0.010086300782859325,0.12697331607341766,0.23915493488311768,-0.090545468032360077,-0.13581936061382294,-0.067339628934860229,-0.09762149304151535,0.19125804305076599,0.15641672909259796,0.26963213086128235,0.37666386365890503,-0.0026128944009542465,0.28707969188690186,0.019304152578115463,0.07995259016752243,-0.13423553109169006,0.11746172606945038,-0.19644948840141296,-0.16080306470394135,0.14808936417102814,-0.17360150814056396,0.084929689764976501,0.12265650182962418,-0.10069276392459869,0.054051905870437622,0.11468146741390228,-0.0067136017605662346, 
};
const TfArray<4, int> tensor_dimension21 = { 4, { 1,3,3,48 } };
const MODEL_SECTION(EI_MODEL_SECTION) ALIGN(16) float tensor_data22[16] = { -28.803737640380859, 1.7294353246688843, 1.0695542097091675, -6.9543075561523438, -5.1567749977111816, -6.2029733657836914, -5.6583447456359863, -17.855661392211914, 7.4174041748046875, 16.0960693359375, 20.661430358886719, -5.0791592597961426, -5.2105584144592285, -20.447154998779297, 20.678731918334961, -25.198524475097656, };
const TfArray<1, int> tensor_dimension22 = { 1, { 16 } };
const MODEL_SECTION(EI_MODEL_SECTION) ALIGN(16) float tensor_data23[1*3*3*96] = { 
  /* [0][0][][] */ -0.1553160548210144,0.026689426973462105,-0.16932672262191772,0.17097471654415131,-0.1282472163438797,0.23327310383319855,-0.83978718519210815,-0.16909445822238922,0.08484824001789093,-0.089147835969924927,0.5753169059753418,-0.080467715859413147,0.015432307496666908,-0.14559343457221985,-0.02784552238881588,0.36990624666213989,0.0075954385101795197,0.13922832906246185,-0.085175618529319763,-0.00070231396239250898,0.19378486275672913,0.014450197108089924,0.16453747451305389,-0.72078007459640503,0.034029997885227203,0.17197209596633911,0.18256962299346924,0.35092347860336304,0.09547172486782074,0.063919194042682648,0.09723808616399765,0.28161880373954773,-0.039430737495422363,0.11379470676183701,0.074141204357147217,-0.13667450845241547,0.098949506878852844,0.26014432311058044,-0.097490519285202026,-0.20328500866889954,0.13484001159667969,0.15085828304290771,0.39461168646812439,0.14379781484603882,-0.45588719844818115,-0.13535016775131226,0.17974825203418732,-0.026744483038783073,-0.02717871218919754,-0.13199105858802795,-0.083529986441135406,-0.036789409816265106,0.51584511995315552,0.019909283146262169,-0.17118029296398163,0.015073160640895367,0.0024129375815391541,-0.32351726293563843,0.1387535035610199,-0.12029875814914703,0.34530335664749146,-0.014410071074962616,1.4376553297042847,0.14175200462341309,-0.12231987714767456,-0.12871254980564117,0.037757311016321182,-0.12997442483901978,0.80985510349273682,0.35302051901817322,0.002616124227643013,-0.013442552648484707,0.5253368616104126,-0.22238887846469879,0.59713560342788696,0.023624157533049583,0.35448181629180908,-0.27851894497871399,0.29533034563064575,0.71573895215988159,0.0096511952579021454,0.19567665457725525,0.70178693532943726,-0.096325457096099854,0.21386227011680603,0.15621857345104218,-0.16393822431564331,-0.15251010656356812,0.24801613390445709,-0.043173331767320633,-0.15334314107894897,0.48425841331481934,0.02512095682322979,0.35814139246940613,-0.48335283994674683,0.024152195081114769, -0.39941057562828064,0.055252086371183395,-0.072838202118873596,0.015262464061379433,0.3491952121257782,-0.066502667963504791,-0.12551005184650421,-0.37115275859832764,0.19645275175571442,0.18417090177536011,-0.75203621387481689,-0.062403179705142975,-0.062410615384578705,-0.21243754029273987,0.023268288001418114,0.50247365236282349,0.068155065178871155,-0.39264911413192749,-0.038840778172016144,-0.13054299354553223,0.17889562249183655,-0.66584229469299316,0.59859699010848999,0.31597331166267395,-0.47596314549446106,-0.30342501401901245,-0.54599952697753906,-0.15312032401561737,0.10362456738948822,0.14717064797878265,-0.1977304220199585,0.10647157579660416,0.56712442636489868,0.051546376198530197,-0.09633830189704895,-0.014741682447493076,-0.39214390516281128,0.68214637041091919,-0.09671299159526825,-0.92925137281417847,0.046948641538619995,-0.27201750874519348,-0.46397224068641663,0.088778100907802582,0.2516179084777832,-0.31985151767730713,0.8942834734916687,-0.29120802879333496,-0.2134578675031662,0.32198813557624817,0.3212507963180542,0.032855357974767685,0.39810758829116821,-0.86340600252151489,0.48808300495147705,1.0921695232391357,0.47749143838882446,0.36971136927604675,-0.46027535200119019,0.30324196815490723,1.4492368698120117,0.20471172034740448,-0.020832465961575508,-0.11667444556951523,0.46238633990287781,-0.44606426358222961,-0.3411533534526825,-0.0018550071399658918,0.47028243541717529,-0.29329988360404968,-0.098436705768108368,0.21571378409862518,-0.34397730231285095,-0.29897844791412354,0.81312954425811768,-0.022335153073072433,-0.55968445539474487,-0.13603265583515167,-0.35138809680938721,0.7802852988243103,-0.44802504777908325,0.6241486668586731,-0.081968635320663452,0.038299184292554855,-0.04657449945807457,0.23382188379764557,0.32235953211784363,-0.30919921398162842,-0.20082569122314453,0.20318728685379028,-0.14816907048225403,0.42882630228996277,-0.73037320375442505,-0.5575520396232605,4.6608633995056152,-0.36391726136207581, -0.019278008490800858,-0.020154403522610664,-0.19893437623977661,-0.11374924331903458,0.044787969440221786,0.16962888836860657,0.51876509189605713,0.047409933060407639,-0.04441424086689949,0.020626846700906754,0.025423629209399223,0.98324793577194214,-0.0047981254756450653,-0.1914508044719696,-0.085152916610240936,0.055148158222436905,-0.057472452521324158,0.1439816951751709,-0.047531947493553162,0.082522347569465637,0.015861917287111282,0.18537846207618713,0.1119987815618515,-0.6468203067779541,0.012390986084938049,-0.30082526803016663,0.040029380470514297,0.0981035977602005,0.0024790915194898844,0.039970200508832932,0.1898294985294342,-0.4570927619934082,0.18586072325706482,0.091824106872081757,0.10363639891147614,-0.21169446408748627,0.16555118560791016,0.020953383296728134,-0.044156342744827271,-0.16476859152317047,0.041227478533983231,0.04856959730386734,-0.25106599926948547,0.043909795582294464,0.11236006766557693,-0.088462650775909424,0.15691892802715302,-0.0037212062161415815,0.020661497488617897,-0.04487132653594017,0.029393428936600685,-0.019087083637714386,0.050534188747406006,0.027090193703770638,-0.15655730664730072,0.18018543720245361,0.0068499455228447914,0.38465437293052673,0.025568114593625069,-0.02426626905798912,0.16370436549186707,-0.10153099149465561,-0.024162676185369492,-0.099084176123142242,-0.29653406143188477,-0.23876458406448364,0.11675960570573807,-0.11435657739639282,-1.3970004320144653,-0.053403604775667191,0.28304147720336914,-0.081344395875930786,-0.87841075658798218,-0.17238505184650421,-0.035984907299280167,0.12098508328199387,0.16516910493373871,-0.025372866541147232,0.049886170774698257,0.24690140783786774,-0.081893593072891235,0.14543084800243378,-0.2057763934135437,-0.019755065441131592,-0.21938112378120422,0.12242639064788818,0.15202154219150543,0.27535608410835266,-0.17673200368881226,-0.082192324101924896,0.21335983276367188,-0.031725667417049408,0.12963128089904785,0.13043245673179626,-0.27901065349578857,-0.13616855442523956, 
  /* [0][1][][] */ -0.31014364957809448,0.22457201778888702,-0.15441311895847321,0.062674835324287415,-0.59465539455413818,-0.16350159049034119,-0.16873568296432495,-0.13466125726699829,0.140523761510849,1.3945568799972534,-0.26820853352546692,-0.27856448292732239,-0.12152370810508728,-0.40010932087898254,-0.046396266669034958,0.32980015873908997,0.53572714328765869,-0.31880909204483032,-0.23861388862133026,-0.12803803384304047,0.14325493574142456,-0.88052588701248169,-0.13891521096229553,0.1465466171503067,-0.29388794302940369,-0.45334875583648682,-0.66402208805084229,-0.057780295610427856,0.14318861067295074,0.14792226254940033,-0.20053757727146149,0.16406832635402679,-0.64731353521347046,-0.33339497447013855,-0.5490301251411438,0.020600227639079094,1.0582278966903687,-0.047596946358680725,-0.11272402852773666,0.3433515727519989,-0.16621394455432892,1.3396047353744507,0.01027364656329155,0.0004941662191413343,0.1798001229763031,-0.10203263908624649,-0.08921930193901062,-0.21015582978725433,0.35955965518951416,0.31809821724891663,-0.031624689698219299,0.10183421522378922,0.48234117031097412,0.10818332433700562,-0.60357201099395752,-0.31302008032798767,0.377340167760849,0.064875312149524689,-0.55180734395980835,0.45144739747047424,-0.43537884950637817,-0.53952270746231079,0.21455086767673492,0.71015149354934692,-0.63337874412536621,-0.45006725192070007,-0.30121296644210815,0.31131860613822937,-0.51151257753372192,1.2699265480041504,-0.14479397237300873,0.2461571991443634,-0.25155392289161682,-0.31286340951919556,0.30643746256828308,0.050107158720493317,-0.65282899141311646,-0.14942798018455505,1.2773247957229614,0.47744467854499817,0.88099294900894165,0.65662580728530884,-0.0029442764353007078,-0.023589568212628365,0.73669725656509399,0.14752766489982605,-0.53744441270828247,0.37574252486228943,-0.265726238489151,-0.14656206965446472,-0.97773438692092896,0.22482262551784515,0.58024328947067261,1.8062002658843994,5.5657587051391602,-0.1641346663236618, 0.9988524317741394,0.54412627220153809,1.1087018251419067,0.19812509417533875,-0.31542220711708069,-1.1523544788360596,1.6853222846984863,0.076664038002490997,0.75595438480377197,-1.8538790941238403,0.09530416876077652,-1.8831404447555542,-0.44766229391098022,1.9289695024490356,0.94731819629669189,0.60665196180343628,-0.052244037389755249,-1.4049807786941528,-0.17255677282810211,-0.9407353401184082,0.30696633458137512,0.17393624782562256,-0.33503952622413635,2.0456194877624512,1.0445642471313477,1.2393908500671387,-0.29683166742324829,-1.0070887804031372,0.39155784249305725,0.49272206425666809,-0.50726282596588135,0.74213075637817383,-0.063322819769382477,-0.5759698748588562,-1.1169617176055908,1.0790232419967651,-2.0769133567810059,-0.27396312355995178,0.19025050103664398,0.77593773603439331,-0.96340334415435791,-1.9292086362838745,1.9122159481048584,0.91061019897460938,0.67713642120361328,-0.27343198657035828,-0.75318306684494019,0.84787631034851074,-0.040336910635232925,0.88571655750274658,-0.89032119512557983,-0.63240796327590942,-1.3927822113037109,1.6246048212051392,2.1582298278808594,-2.5541465282440186,1.4885712862014771,-1.1250869035720825,-0.17564815282821655,0.13977324962615967,-1.2377480268478394,-0.15505512058734894,-0.79884618520736694,-0.3748927116394043,1.403654932975769,1.5951598882675171,-0.24297086894512177,0.30481106042861938,1.6148051023483276,-1.0489978790283203,-0.80480128526687622,0.54790520668029785,-0.31051710247993469,0.69494503736495972,-0.98244154453277588,-0.97312408685684204,-2.4882197380065918,0.27482834458351135,-0.83332711458206177,1.3323389291763306,-0.29529199004173279,1.7377773523330688,0.4608951210975647,0.73872649669647217,-0.19087877869606018,-0.68474447727203369,-0.13111062347888947,-0.79461485147476196,-0.92984259128570557,-0.51543915271759033,-0.21814218163490295,-0.72820079326629639,-0.11153134703636169,-2.2014000415802002,-23.925073623657227,0.33932623267173767, -0.18650029599666595,0.27254682779312134,-0.32981905341148376,0.010751339606940746,0.83136141300201416,0.66894680261611938,-0.28458413481712341,0.12877467274665833,0.016290931031107903,0.39378097653388977,-0.090107247233390808,-0.013148062862455845,-0.11601302772760391,-0.45608341693878174,-0.092136122286319733,-0.0079154893755912781,-0.42585256695747375,-0.26996561884880066,-0.34098553657531738,0.2411847710609436,0.078136973083019257,0.55214840173721313,-0.069407902657985687,-2.0652825832366943,-0.28539976477622986,-0.38809177279472351,0.6075279712677002,0.53985387086868286,0.040125753730535507,0.14716021716594696,0.28813406825065613,0.050275519490242004,0.63428401947021484,-0.2031361311674118,1.1334202289581299,-0.053473033010959625,0.89712059497833252,-0.0020384574308991432,-0.22792328894138336,0.11196660995483398,0.25353774428367615,0.36757570505142212,-0.33753132820129395,-0.0095968674868345261,-0.12637330591678619,-0.13353900611400604,-0.086160540580749512,-0.29346245527267456,0.22815287113189697,0.12654629349708557,-0.084412135183811188,0.20207267999649048,-0.053854871541261673,-0.047669529914855957,-1.2870607376098633,-0.25775930285453796,0.36755073070526123,0.15293115377426147,0.59985560178756714,-0.33033400774002075,0.041353058069944382,0.72809785604476929,-0.00013825991482008249,-0.2145702987909317,-1.2272047996520996,-0.3714030385017395,-0.26758930087089539,0.25007471442222595,0.1421407163143158,-0.17313748598098755,0.75049799680709839,0.11177767813205719,-0.14653508365154266,-0.34229457378387451,0.13510949909687042,0.35458862781524658,-0.62574082612991333,-0.011904237791895866,-0.47956004738807678,-0.019789556041359901,-0.31555855274200439,0.14115183055400848,0.26932647824287415,0.13052698969841003,-0.48297792673110962,0.18461908400058746,0.70351427793502808,-0.34821876883506775,0.235971599817276,-0.10288327187299728,1.1983895301818848,-0.02896975539624691,-0.65233093500137329,0.63548135757446289,6.2742710113525391,0.04979361966252327, 
  /* [0][2][][] */ -0.046406041830778122,-0.14762777090072632,-0.19465126097202301,-0.094604916870594025,-0.032547034323215485,0.12659555673599243,0.53746402263641357,0.088953636586666107,0.0016859018942341208,0.18786352872848511,-0.1176159530878067,0.83983862400054932,0.10292647033929825,-0.5415724515914917,-0.037362497299909592,0.087819799780845642,0.19202882051467896,-0.022313952445983887,0.02834697812795639,0.12177266180515289,-0.02192375436425209,0.23391909897327423,-0.078527085483074188,-0.45702749490737915,0.021065639331936836,-0.24084772169589996,0.033304717391729355,0.045146513730287552,-0.018762513995170593,0.0086774379014968872,0.20405213534832001,-0.4313201904296875,-0.19496531784534454,0.35017156600952148,-0.28508877754211426,-0.22914959490299225,0.52008217573165894,-0.22808745503425598,-0.10644438117742538,0.10325529426336288,0.071160115301609039,0.17097048461437225,-0.5612291693687439,0.17227689921855927,0.064603470265865326,-0.18034636974334717,-0.085319310426712036,-0.010685623623430729,-0.023767823353409767,0.064665243029594421,0.14430379867553711,-0.030101180076599121,0.10464905947446823,-0.042166121304035187,-0.34417697787284851,0.14281004667282104,-0.012240435928106308,0.36115846037864685,-0.23354876041412354,0.10743369907140732,-0.072745196521282196,-0.10300672054290771,0.086441032588481903,0.085571132600307465,-0.037676185369491577,-0.15256612002849579,0.080891542136669159,-0.13010334968566895,-0.77551370859146118,0.12746964395046234,-0.16763631999492645,-0.015347975306212902,-0.82800370454788208,-0.20420405268669128,0.057950116693973541,0.13945992290973663,0.3100903332233429,-0.023562515154480934,0.57671582698822021,0.22196297347545624,0.15855994820594788,0.52908456325531006,-0.27435022592544556,0.059998121112585068,0.087943606078624725,0.14006459712982178,-0.11861099302768707,0.10019272565841675,0.059690028429031372,0.096706338226795197,0.20182807743549347,-0.041684549301862717,0.14600275456905365,0.68693041801452637,-1.8356932401657104,-0.083647638559341431, -0.2181742787361145,-0.017649004235863686,-0.23102129995822906,0.041894227266311646,-0.30565181374549866,0.68425208330154419,-0.35531848669052124,0.18750877678394318,0.036226265132427216,-0.056965779513120651,0.30664980411529541,-0.12008733302354813,0.51885324716567993,-0.098680943250656128,-0.12826846539974213,-0.057054288685321808,0.0045116487890481949,-0.49744769930839539,-0.15285429358482361,0.13529500365257263,-0.053330529481172562,0.56943929195404053,-0.21954351663589478,-1.986577033996582,-0.36924916505813599,-0.45950391888618469,0.49249124526977539,0.55696320533752441,0.056790195405483246,0.17968328297138214,0.21780520677566528,-0.0027732879389077425,-0.5927618145942688,0.30237504839897156,-0.17185579240322113,-0.20956136286258698,-0.4945928156375885,-0.15152674913406372,-0.25417158007621765,-0.034611079841852188,0.33623898029327393,-0.19994562864303589,-0.25853884220123291,0.27745470404624939,-0.14336657524108887,-0.10060027241706848,-0.13569101691246033,-0.31707972288131714,-0.17202450335025787,0.22081294655799866,0.49481168389320374,0.12731635570526123,-0.10516843944787979,-1.0623481273651123,0.54057830572128296,1.0194146633148193,0.21404702961444855,0.2192731648683548,0.3533329963684082,-0.20481202006340027,0.22091096639633179,-0.34039744734764099,-0.081542037427425385,0.013224874623119831,0.206013023853302,-0.30607229471206665,-0.49907124042510986,-0.14144355058670044,-0.13592356443405151,-0.2504611611366272,-0.38674724102020264,0.11394299566745758,0.2647441029548645,-0.27640685439109802,-0.17128273844718933,-0.070554047822952271,-0.8467373251914978,0.049556698650121689,-0.6086660623550415,0.076335109770298004,0.33023911714553833,0.58464652299880981,0.097761891782283783,0.049103517085313797,0.049637127667665482,0.30839994549751282,-0.51808744668960571,0.98640114068984985,0.11885356903076172,0.50101780891418457,-0.28395566344261169,-0.08772142231464386,0.67991358041763306,-0.32409527897834778,8.5823936462402344,0.23823189735412598, -0.086864203214645386,-0.12626717984676361,-0.223859503865242,0.051062546670436859,0.08635980635881424,0.56843060255050659,-0.61057472229003906,0.032042361795902252,0.028251990675926208,-0.03012971393764019,0.0015436733374372125,0.2688935399055481,0.041356358677148819,-0.77120745182037354,-0.07454199343919754,-0.0094872601330280304,-0.17718802392482758,-0.1190272718667984,0.048864707350730896,0.097449466586112976,-0.057877656072378159,0.078478142619132996,-0.092940211296081543,0.031194658949971199,-0.04364326223731041,0.20333476364612579,-0.023655818775296211,0.38663128018379211,0.015746362507343292,0.0007766344933770597,0.14837709069252014,0.16502709686756134,0.1340678334236145,0.22752957046031952,0.15918764472007751,-0.21195565164089203,-0.091869346797466278,-0.15905848145484924,-0.068979866802692413,0.064602382481098175,0.081834495067596436,-0.17800576984882355,0.29459729790687561,0.077468059957027435,-0.39731904864311218,-0.092215895652770996,-0.091558009386062622,0.015914639458060265,-0.0013815149432048202,-0.079294338822364807,0.022802608087658882,-0.015313588082790375,-0.071011878550052643,0.078691549599170685,-0.30004861950874329,-0.097325481474399567,0.029075561091303825,-0.47637313604354858,0.077235788106918335,-0.11144062876701355,-0.25056588649749756,0.2870631217956543,0.1369621753692627,-0.16239610314369202,-0.11204023659229279,-0.058725763112306595,0.13334599137306213,-0.14764796197414398,0.5806114673614502,0.084600888192653656,0.36766695976257324,-0.080210693180561066,0.21174466609954834,-0.34685295820236206,-0.08590669184923172,0.15624453127384186,0.18505258858203888,0.024789270013570786,-0.056027971208095551,0.27015623450279236,-0.20968222618103027,0.50143933296203613,0.49987253546714783,-0.068542145192623138,-0.095918424427509308,0.29138728976249695,0.21097123622894287,-0.053787350654602051,0.80988562107086182,0.045934945344924927,0.031767286360263824,-0.079693391919136047,0.065487883985042572,-0.35973092913627625,-1.4736322164535522,-0.13196615874767303, 
};
const TfArray<4, int> tensor_dimension23 = { 4, { 1,3,3,96 } };
const MODEL_SECTION(EI_MODEL_SECTION) ALIGN(16) float tensor_data24[16] = { 5.9456543922424316, 3.95906662940979, -3.5888543128967285, 5.2051372528076172, 10.47254753112793, 4.0279645919799805, -1.6861412525177002, -2.5542323589324951, 3.6912004947662354, -2.0253779888153076, 8.1740913391113281, 11.035829544067383, -4.8368334770202637, 3.9172084331512451, 10.498927116394043, -7.8554072380065918, };
const TfArray<1, int> tensor_dimension24 = { 1, { 16 } };
const MODEL_SECTION(EI_MODEL_SECTION) ALIGN(16) float tensor_data25[1*3*3*96] = { 
  /* [0][0][][] */ -0.16427353024482727,-0.2763839066028595,-0.041716381907463074,1.0352197885513306,0.18502968549728394,0.45614540576934814,0.26495620608329773,-0.28606840968132019,-0.11287610232830048,-0.070119425654411316,-0.13277970254421234,-0.041972488164901733,-0.41119906306266785,0.00045560390572063625,0.48902559280395508,0.06819220632314682,-0.062646046280860901,-0.32933917641639709,0.19644656777381897,0.064068220555782318,0.054946046322584152,-0.29527565836906433,0.89582371711730957,0.04525434598326683,-0.26711207628250122,0.063605211675167084,0.3352828323841095,-0.228799968957901,-0.38571485877037048,-2.4856157302856445,0.67678689956665039,0.25087130069732666,0.053529076278209686,0.18165116012096405,0.78837573528289795,-0.41203573346138,-0.57674753665924072,-0.10592609643936157,0.32608535885810852,0.033620815724134445,-0.1143462061882019,0.22856608033180237,-1.9043078422546387,0.32975757122039795,0.39381241798400879,-0.2963910698890686,0.17990994453430176,0.43451225757598877,-0.45028343796730042,0.20078828930854797,-0.37984400987625122,0.1627810150384903,0.030879883095622063,-0.024879638105630875,0.27778652310371399,0.26524257659912109,-0.46221122145652771,-0.8553692102432251,-0.11889787763357162,-0.19416798651218414,-0.15808911621570587,0.0041114515624940395,0.041201893240213394,0.33755886554718018,0.3763049840927124,-0.14731071889400482,0.94440072774887085,0.17664630711078644,-0.097741864621639252,0.10013739019632339,0.17212870717048645,0.63031071424484253,0.26873457431793213,0.17239563167095184,0.30991613864898682,0.025190040469169617,-0.041652791202068329,0.061399810016155243,0.3417021632194519,-0.050813145935535431,-0.11819383502006531,0.18718245625495911,-0.20586715638637543,0.22796450555324554,0.27950891852378845,0.12179974466562271,-0.36784732341766357,-0.3830321729183197,0.031144522130489349,-0.15295639634132385,-0.23288534581661224,-0.061404965817928314,0.033172782510519028,-0.1395401656627655,-0.18157842755317688,0.40072727203369141, 0.43852999806404114,-0.46481561660766602,0.29237633943557739,0.83854794502258301,-0.38413125276565552,0.78289949893951416,0.1325354129076004,-0.56645494699478149,0.7708325982093811,0.014753052033483982,-0.17328022420406342,0.76262420415878296,1.7037888765335083,-0.87128603458404541,-0.19282408058643341,0.1350308358669281,0.084085270762443542,0.89721035957336426,0.91851532459259033,-0.40514445304870605,0.28559958934783936,-0.11623645573854446,0.55015659332275391,0.23321004211902618,-0.4007669985294342,-0.62497544288635254,-0.54232883453369141,-0.27814075350761414,-0.15511088073253632,0.86040854454040527,-0.98384201526641846,-0.17781050503253937,-0.4306318461894989,0.37717372179031372,-1.6709387302398682,-1.8960914611816406,-0.85069805383682251,-0.13658870756626129,-0.458709716796875,0.21616604924201965,0.0061060618609189987,1.0149891376495361,2.2183246612548828,0.35174304246902466,-0.74196344614028931,-0.49725320935249329,-0.51530742645263672,-0.59480565786361694,-0.38985610008239746,-0.50602340698242188,0.64912289381027222,0.70851993560791016,0.47403264045715332,-0.17351894080638885,0.68609648942947388,0.43121024966239929,-0.22423247992992401,0.70946770906448364,-0.14602498710155487,-1.1258360147476196,-0.60505574941635132,-0.55993342399597168,-0.19621802866458893,0.56238681077957153,0.40416869521141052,-0.32257860898971558,0.32754227519035339,0.39499163627624512,-0.7778315544128418,0.20292133092880249,-0.1727578341960907,0.44238418340682983,1.3149070739746094,0.81345880031585693,0.11914723366498947,0.1788870096206665,0.021903332322835922,0.19829985499382019,-0.093723423779010773,0.42215386033058167,0.60289287567138672,1.3024312257766724,1.062827467918396,-0.23217631876468658,-0.012816471047699451,0.41291722655296326,-0.50851583480834961,2.9213359355926514,-1.3172833919525146,-0.48871037364006042,0.046333018690347672,-0.17592319846153259,-0.51340568065643311,-0.65963822603225708,-0.49653124809265137,1.5648030042648315, -0.26429745554924011,-0.056281398981809616,0.14547373354434967,-0.62989264726638794,0.12231311947107315,-0.10948248207569122,0.2272961437702179,-0.05504000186920166,0.86558055877685547,-0.1284167468547821,-0.28496149182319641,0.12034572660923004,-0.24964132905006409,0.027594268321990967,-0.13033528625965118,-0.056723281741142273,-0.067125320434570312,-0.10219131410121918,0.038521964102983475,-0.025615960359573364,-0.038260094821453094,-0.19720436632633209,0.21014659106731415,0.0058724842965602875,-0.37909436225891113,0.51736694574356079,0.01807766780257225,-0.4582383930683136,0.3650180995464325,0.9245029091835022,-0.22668464481830597,0.11619097739458084,0.014349838718771935,0.1208236888051033,0.18569870293140411,-0.64560037851333618,-0.21357002854347229,0.33510178327560425,0.20050013065338135,0.090374574065208435,0.19809515774250031,0.12802706658840179,-2.1469171047210693,0.31538751721382141,0.25995859503746033,-0.080253936350345612,0.16951765120029449,0.081832431256771088,-0.36437329649925232,0.036550808697938919,-0.20228227972984314,0.040969189256429672,-0.068743467330932617,0.0055076018907129765,0.005541851744055748,0.14339195191860199,-0.33086615800857544,0.083337850868701935,-0.061062801629304886,0.52263754606246948,0.018762404099106789,0.58455216884613037,0.10602342337369919,-0.019460698589682579,-0.040383607149124146,-0.22136621177196503,-0.41386288404464722,0.29192847013473511,0.088076315820217133,0.039784293621778488,-0.047053072601556778,0.19964434206485748,0.12614421546459198,-0.16127517819404602,-0.058094196021556854,0.11290150880813599,-0.044137831777334213,-0.0074277226813137531,-0.23323236405849457,0.017721138894557953,-0.20479173958301544,-0.21248434484004974,-0.1349174976348877,0.068072095513343811,-0.24530981481075287,0.076344907283782959,-0.1912931352853775,-0.52908957004547119,-0.55625748634338379,0.11104027926921844,-0.40754690766334534,-0.041602339595556259,0.20191378891468048,-0.17257970571517944,-0.1759902685880661,0.026996949687600136, 
  /* [0][1][][] */ -0.22599050402641296,-0.26644736528396606,0.27152922749519348,-0.32090246677398682,-0.42573335766792297,0.55148601531982422,0.083945631980895996,0.6250460147857666,-0.56511014699935913,-0.081310056149959564,0.02035868726670742,-0.72890758514404297,0.33999970555305481,-0.98489725589752197,1.0512746572494507,0.27066314220428467,-0.00070747319841757417,-0.44014206528663635,-0.11452893167734146,0.31115177273750305,0.13041509687900543,-0.16357140243053436,0.31078016757965088,0.17646795511245728,-0.31402811408042908,-0.051876101642847061,0.9575919508934021,-0.16756902635097504,-0.086442664265632629,1.2476006746292114,2.1000752449035645,-1.0758877992630005,-0.65762501955032349,0.63728564977645874,-1.1300374269485474,-1.3120713233947754,-0.71445274353027344,0.37043130397796631,-0.256318598985672,0.42483434081077576,-0.47182732820510864,-0.20613132417201996,-0.066871426999568939,0.19461295008659363,-0.76576709747314453,0.58228230476379395,-0.12004948407411575,0.66687959432601929,0.38105097413063049,0.37610501050949097,0.32266399264335632,-0.021262235939502716,0.11429312825202942,-0.30022796988487244,0.39633768796920776,0.14345495402812958,0.62173944711685181,2.0806708335876465,-0.13688354194164276,-0.84822797775268555,1.6415373086929321,-0.42855098843574524,-0.1083298996090889,1.1067886352539062,0.38359358906745911,-0.18269981443881989,-0.22549815475940704,0.0151850376278162,1.1961536407470703,0.237606480717659,1.0944004058837891,0.44290098547935486,-0.45053544640541077,0.7022055983543396,-0.0063122273422777653,0.17406874895095825,0.12163553386926651,0.044945422559976578,-0.082678712904453278,0.10800094902515411,-0.37663114070892334,1.2768356800079346,-0.65388035774230957,1.181583046913147,0.0044156829826533794,0.17428021132946014,-0.25051608681678772,0.69838458299636841,0.88966488838195801,-0.62743443250656128,-0.46205601096153259,-0.016671113669872284,0.77069675922393799,-0.34013468027114868,-0.27163177728652954,0.0056197731755673885, 0.23217886686325073,0.4651932418346405,0.21254158020019531,-0.93476873636245728,1.1327170133590698,0.51793193817138672,0.26485496759414673,0.17691293358802795,-1.4367989301681519,0.48980188369750977,1.1373130083084106,-0.22606676816940308,-0.88104599714279175,-1.1443995237350464,-1.7258321046829224,0.83211761713027954,1.0363086462020874,-0.42784470319747925,-0.90462696552276611,-0.17951375246047974,0.22919651865959167,0.19391779601573944,-0.86045771837234497,0.38966849446296692,-0.35992515087127686,-0.47268316149711609,-0.35955888032913208,1.0386569499969482,-0.37475204467773438,2.1029479503631592,-2.1405866146087646,-1.3170958757400513,-0.45254340767860413,0.83395564556121826,1.4492052793502808,2.7828538417816162,2.4303710460662842,-1.3214024305343628,-0.98816072940826416,0.45693257451057434,-0.60718309879302979,-0.77294063568115234,1.964873194694519,-0.57333558797836304,-1.9476057291030884,-0.16843114793300629,-0.60000389814376831,-1.3655401468276978,3.1001229286193848,-0.43635579943656921,1.3167625665664673,0.36438596248626709,0.90967565774917603,0.72769683599472046,1.5989476442337036,-0.65976583957672119,0.50109601020812988,-2.2307722568511963,-0.22016938030719757,1.2820239067077637,0.25805574655532837,-1.0899921655654907,-0.40983757376670837,-0.85648804903030396,-0.69998598098754883,0.64812391996383667,-1.6731898784637451,1.6390488147735596,-1.2148075103759766,-0.75148934125900269,-0.91043645143508911,-0.41015195846557617,-1.437171459197998,-0.51854962110519409,1.3644340038299561,1.0926318168640137,-0.80197995901107788,0.42096886038780212,-0.21264703571796417,1.1510250568389893,1.1947526931762695,0.32365638017654419,-0.35004904866218567,-1.3729763031005859,0.13720123469829559,0.64233601093292236,0.39908039569854736,1.1258609294891357,1.3822470903396606,0.066633902490139008,1.8476383686065674,0.0078087151050567627,-0.39899194240570068,0.18080081045627594,1.6973155736923218,-1.9371819496154785, -0.1888696700334549,-0.054791368544101715,-0.21755693852901459,0.28080421686172485,-0.50230580568313599,-0.51687812805175781,0.1378588080406189,-0.13122253119945526,0.20164582133293152,-0.130501389503479,-0.26001358032226562,0.58691364526748657,0.041853450238704681,0.9266553521156311,0.17758630216121674,0.12086962163448334,-0.020644130185246468,0.45961624383926392,-0.043245162814855576,0.43344780802726746,0.0084300572052598,-0.1793094277381897,-0.26776185631752014,0.039642207324504852,-0.23404762148857117,0.5278393030166626,-0.54502725601196289,-0.16676487028598785,-0.22466747462749481,-0.33297449350357056,0.30896738171577454,-0.63777405023574829,-0.35468092560768127,0.24458722770214081,0.080319434404373169,-0.43297228217124939,-0.584014892578125,0.48347705602645874,-0.64290452003479004,0.23334738612174988,1.2192609310150146,-0.013531965203583241,-0.70831608772277832,0.14347903430461884,-0.64976197481155396,-0.25655484199523926,0.066167175769805908,0.45526611804962158,0.2015874832868576,0.45473212003707886,-0.14032085239887238,0.051705189049243927,-0.24629868566989899,-0.41575673222541809,0.0063611343502998352,0.11239862442016602,0.46373867988586426,0.028252230957150459,-0.0057038767263293266,0.20152996480464935,-0.42914363741874695,1.6466233730316162,0.29751485586166382,-0.44511663913726807,-0.23574163019657135,0.057822979986667633,0.45635971426963806,-0.10980469733476639,-0.75130271911621094,0.72853970527648926,-0.15759259462356567,-0.41734984517097473,0.018426673486828804,-0.33687695860862732,-0.13027910888195038,-0.12899394333362579,0.20872002840042114,0.04627520963549614,0.21961851418018341,-0.31172117590904236,-0.65649873018264771,-0.41654092073440552,0.4692140519618988,0.18210645020008087,-0.10355488210916519,-0.070017337799072266,0.28125578165054321,0.51753515005111694,0.17230565845966339,0.31919410824775696,-0.64285433292388916,0.034199554473161697,-0.23678857088088989,0.46820354461669922,-0.33410090208053589,-0.057026997208595276, 
  /* [0][2][][] */ -0.23536626994609833,-0.0039972732774913311,-0.061087101697921753,-0.21755625307559967,0.088833890855312347,-0.22397580742835999,0.18198086321353912,0.12604925036430359,0.60593879222869873,-0.10362802445888519,-0.29768621921539307,-0.057961534708738327,0.23366011679172516,0.20684032142162323,-0.34570670127868652,0.02004002220928669,-0.03512321412563324,0.45227473974227905,0.055105842649936676,-0.0089107370004057884,-0.13158611953258514,-0.16032345592975616,0.048512715846300125,-0.018885368481278419,-0.088674023747444153,-0.24293692409992218,0.29972720146179199,-0.5533447265625,0.27615809440612793,0.77542227506637573,0.42287838459014893,0.2313629537820816,0.051364835351705551,-0.048064105212688446,-0.1537763923406601,-1.1184031963348389,-0.13809046149253845,0.40585368871688843,0.011605973355472088,0.066403299570083618,-0.14845974743366241,-0.082227535545825958,-1.1646161079406738,0.50740694999694824,0.040816564112901688,0.1429227888584137,0.044952694326639175,0.3642045259475708,-0.3672950267791748,-0.11420312523841858,0.17800281941890717,-0.19628185033798218,0.17739006876945496,-0.016348812729120255,0.14098706841468811,0.077416934072971344,-0.3852522075176239,0.41615438461303711,-0.036043498665094376,0.1479932963848114,0.20438839495182037,0.016322582960128784,-0.056825596839189529,-0.061392273753881454,-0.018144130706787109,-0.22716623544692993,-0.64234364032745361,0.1912894994020462,-0.28419807553291321,0.10656543076038361,0.27469950914382935,0.15203405916690826,0.14854009449481964,-0.13270284235477448,0.34911692142486572,0.093751624226570129,0.13387969136238098,0.02204594761133194,-0.21610395610332489,-0.061346862465143204,-0.05635930597782135,-0.076477803289890289,0.15078036487102509,0.15871182084083557,-0.28088504076004028,0.068018205463886261,0.068967990577220917,-0.99889981746673584,-0.63076192140579224,-0.23232774436473846,-0.38647335767745972,-0.067825973033905029,0.061971496790647507,0.31086215376853943,-0.20714344084262848,-0.1137109249830246, 0.42064324021339417,0.1255936324596405,-0.57918626070022583,-0.32773420214653015,-0.65257751941680908,-0.099360980093479156,0.10358099639415741,0.14166402816772461,-0.71988487243652344,-0.10974911600351334,-0.17548112571239471,-0.65528899431228638,-1.0429017543792725,1.0403014421463013,-0.17011423408985138,0.2686200737953186,0.034230642020702362,-0.37096881866455078,-0.066608510911464691,-0.44549250602722168,0.20169083774089813,-0.11347944289445877,-0.25674432516098022,0.0024031647481024265,-0.32728725671768188,0.69498056173324585,-0.36516758799552917,0.16940504312515259,-0.10973478108644485,-0.40537989139556885,-0.14124399423599243,-0.076696105301380157,-0.33463212847709656,0.1119818314909935,0.37804153561592102,0.056164920330047607,-0.37188220024108887,-0.30960223078727722,1.204367995262146,0.19387014210224152,0.11765421181917191,-0.15147939324378967,1.1610459089279175,-0.11427006870508194,-0.59744465351104736,0.35951006412506104,-0.32181066274642944,-0.47397267818450928,-0.80214959383010864,-0.025900552049279213,-1.9751505851745605,-1.083814263343811,-0.35092920064926147,-0.14335846900939941,0.053835216909646988,0.22110152244567871,-0.34065470099449158,-0.15398696064949036,0.014814683236181736,0.39617073535919189,-0.085972435772418976,-0.26555362343788147,0.033889647573232651,-0.4190809428691864,-0.30385592579841614,0.16391472518444061,0.79282832145690918,-0.26513504981994629,1.1060800552368164,0.64958977699279785,-0.17358064651489258,-0.35326060652732849,0.13313928246498108,-0.39433059096336365,0.099504426121711731,0.0496867336332798,0.63436013460159302,0.016788376495242119,0.14725016057491302,0.22345158457756042,0.12424725294113159,-0.98426544666290283,-0.4028778076171875,0.012606903910636902,0.010618444532155991,0.075369715690612793,0.55160093307495117,0.93283021450042725,-0.66203194856643677,0.21332924067974091,-0.27733540534973145,-0.14565703272819519,0.24165481328964233,0.40194550156593323,-0.10938159376382828,0.39682221412658691, -0.19148069620132446,0.036100242286920547,-0.09795881062746048,0.18449093401432037,0.12211044877767563,-0.351570725440979,-0.36466962099075317,0.0045346072874963284,-0.13008575141429901,-0.029004262760281563,-0.15167973935604095,0.017785517498850822,0.19795499742031097,-0.16102428734302521,0.2686348557472229,0.0047199930995702744,-0.053145498037338257,-0.12352136522531509,0.04489019513130188,0.047932453453540802,-0.11777728050947189,-0.17139694094657898,0.12975269556045532,0.029711723327636719,0.046433649957180023,-0.48433476686477661,0.16725912690162659,0.019043652340769768,-0.17181837558746338,-0.75875741243362427,-0.11112457513809204,0.17085754871368408,0.19999381899833679,-0.13385862112045288,-0.081008009612560272,-0.55505645275115967,-0.66866189241409302,0.053552847355604172,0.39337942004203796,-0.081063404679298401,0.2520173192024231,-0.030919389799237251,-0.92011737823486328,-0.074812948703765869,0.021840224042534828,0.30263963341712952,0.11432056874036789,0.15689139068126678,-0.21500195562839508,-0.023156888782978058,0.16818167269229889,-0.099748104810714722,0.11488503217697144,0.027020694687962532,-0.00025509673287160695,0.0030474793165922165,-0.32796818017959595,-0.22533665597438812,-0.0037107844837009907,-0.36986371874809265,-0.14489211142063141,0.18207851052284241,0.27578321099281311,-0.12413318455219269,0.1703743189573288,-0.021131183952093124,-0.04425995796918869,0.28403744101524353,0.0076244114898145199,0.03300035372376442,-0.0088665559887886047,0.11360268294811249,-0.17233318090438843,0.083512790501117706,0.032735917717218399,0.16459225118160248,0.2753375768661499,0.0041756159625947475,0.21305149793624878,-0.10344740003347397,0.022351216524839401,-0.092640817165374756,-0.04114169254899025,-0.14935031533241272,0.15797442197799683,0.055810701102018356,0.18846304714679718,-0.89696377515792847,0.65717166662216187,0.20736311376094818,-0.2646465003490448,-0.077063068747520447,-0.031817670911550522,0.014553340151906013,-0.17827440798282623,-0.21050736308097839, 
};
const TfArray<4, int> tensor_dimension25 = { 4, { 1,3,3,96 } };
const MODEL_SECTION(EI_MODEL_SECTION) ALIGN(16) float tensor_data26[16] = { -3.3915541172027588, 14.152256965637207, -4.7240853309631348, -4.2972970008850098, -3.1685152053833008, 6.1762428283691406, 7.2885441780090332, -18.612234115600586, -2.1890511512756348, 1.7097355127334595, 13.596392631530762, 1.3561782836914062, -2.1251564025878906, 0.12188950926065445, -8.1546745300292969, 3.7493536472320557, };
const TfArray<1, int> tensor_dimension26 = { 1, { 16 } };
const MODEL_SECTION(EI_MODEL_SECTION) ALIGN(16) float tensor_data27[4] = { 5.0619502067565918, -6.042546272277832, -6.0340352058410645, -6.0694427490234375, };
const TfArray<1, int> tensor_dimension27 = { 1, { 4 } };
const MODEL_SECTION(EI_MODEL_SECTION) ALIGN(16) float tensor_data28[16*3*3*3] = { 
  /* [0][0][][] */ 4.8747259224958709e-20,3.7147711957476137e-20,2.2560115283226402e-20, 1.8998144703015219e-20,9.99850122558854e-21,2.4239875557561167e-21, 1.4501873620925392e-20,1.3855346346097105e-20,8.9639567732261252e-21, 
  /* [0][1][][] */ 3.8636523968972215e-20,2.4191955223685994e-20,1.3960823183307553e-20, 2.0533141503907886e-20,1.3445754617976975e-20,2.9473941662847144e-21, 2.0706167654773519e-20,1.8024154072018234e-20,1.7330613211593671e-20, 
  /* [0][2][][] */ 3.1181633015346212e-20,1.1348582769897257e-21,-8.6793048605184484e-21, 1.1872147707964976e-20,-1.0257333632515912e-20,-2.2796315737788639e-20, 1.7555312301349726e-20,6.2228341078998947e-21,2.910896437342946e-21, 
  /* [1][0][][] */ 1.329434871673584,0.10094764828681946,1.1294242143630981, -0.21283617615699768,-0.41525989770889282,0.66143083572387695, -4.0067262649536133,-3.2481012344360352,-1.9245165586471558, 
  /* [1][1][][] */ -0.25915741920471191,-0.21952687203884125,-0.08912956714630127, -1.0023157596588135,0.03080742247402668,-0.21130037307739258, -0.55845838785171509,-1.263879656791687,-0.14536964893341064, 
  /* [1][2][][] */ -0.56014800071716309,0.21125034987926483,-0.35846659541130066, -0.63333910703659058,-0.11177881062030792,-0.38107174634933472, 0.65922689437866211,-0.98089796304702759,-0.069743886590003967, 
  /* [2][0][][] */ -0.23143558204174042,-0.65079671144485474,-0.1929062157869339, 1.733851432800293,3.7625184059143066,0.42146340012550354, 1.9311872720718384,-0.6280827522277832,1.252301812171936, 
  /* [2][1][][] */ -0.092782117426395416,0.39710873365402222,0.33093506097793579, 2.3863844871520996,4.3907661437988281,-0.41191166639328003, 1.3576403856277466,0.5576663613319397,0.62373811006546021, 
  /* [2][2][][] */ 2.0134322643280029,-1.9135745763778687,1.146754264831543, 3.0844306945800781,-1.0768740177154541,-0.18937835097312927, 1.8433091640472412,-1.2236902713775635,1.1676805019378662, 
  /* [3][0][][] */ 0.27181962132453918,0.4381975531578064,-0.13798439502716064, 0.4082084596157074,0.89961588382720947,-0.087760917842388153, 0.0077234739437699318,0.052862644195556641,-0.034406624734401703, 
  /* [3][1][][] */ 0.35503673553466797,0.40455526113510132,-0.14839504659175873, 0.8018333911895752,1.215349555015564,-0.046154871582984924, -0.10452671349048615,-0.16724491119384766,0.074572645127773285, 
  /* [3][2][][] */ 0.1617429256439209,0.055331483483314514,-0.13376714289188385, 0.4406801164150238,0.33400985598564148,-0.12106891721487045, 0.071182213723659515,0.052918028086423874,0.093053437769412994, 
  /* [4][0][][] */ 0.049289006739854813,0.20477594435214996,-0.05582897737622261, -0.026747586205601692,0.19921389222145081,-0.10082024335861206, -0.082943938672542572,0.030025999993085861,-0.03409179300069809, 
  /* [4][1][][] */ 0.060594078153371811,0.24852760136127472,0.099005557596683502, 0.026305275037884712,0.29059335589408875,0.015392715111374855, 0.08469720184803009,0.17632660269737244,-0.069713681936264038, 
  /* [4][2][][] */ 0.1724332720041275,0.26537060737609863,0.072906993329524994, 0.15592299401760101,0.39055848121643066,0.011079129762947559, 0.0071809985674917698,0.14703014492988586,0.071119844913482666, 
  /* [5][0][][] */ 2.739450216293335,3.758725643157959,-9.5011739730834961, 1.9499008655548096,3.9860882759094238,-7.0168251991271973, 1.6394346952438354,5.8888287544250488,-0.47917532920837402, 
  /* [5][1][][] */ 1.9430539608001709,-0.49224662780761719,-11.403084754943848, 0.95067614316940308,-1.4503089189529419,-10.627547264099121, 0.60264885425567627,3.0184297561645508,-2.3083648681640625, 
  /* [5][2][][] */ -0.30252707004547119,1.6601699590682983,-2.054631233215332, -0.051298264414072037,0.44468715786933899,-1.1506272554397583, -0.26692244410514832,1.511005163192749,-1.3275456428527832, 
  /* [6][0][][] */ 0.55904281139373779,-0.98131197690963745,0.65382206439971924, 0.92217105627059937,-1.3904925584793091,0.7645561695098877, 0.19108399748802185,-0.34697097539901733,0.10515289008617401, 
  /* [6][1][][] */ 0.79151439666748047,-1.5234510898590088,1.1605930328369141, 1.2381983995437622,-2.0673472881317139,1.3559901714324951, 0.20001652836799622,-0.45538032054901123,0.30166766047477722, 
  /* [6][2][][] */ 0.41792714595794678,-0.57859325408935547,0.23604077100753784, 0.29703965783119202,-0.73252260684967041,0.48362502455711365, -0.1992371529340744,0.10209491103887558,-0.037414424121379852, 
  /* [7][0][][] */ -4.285888671875,1.641716480255127,1.0113962888717651, -11.373461723327637,-4.0017175674438477,0.56331062316894531, -1.4169740676879883,2.877171516418457,0.97418856620788574, 
  /* [7][1][][] */ -2.0613994598388672,-0.7626679539680481,0.63441747426986694, -12.000095367431641,-9.1639547348022461,-0.24147792160511017, 1.0822346210479736,0.20907796919345856,1.3144216537475586, 
  /* [7][2][][] */ -1.6875678300857544,3.4723448753356934,-0.21030439436435699, 0.2029564380645752,1.6847385168075562,0.61264735460281372, -0.44079810380935669,3.4397697448730469,0.62928557395935059, 
  /* [8][0][][] */ 0.077344290912151337,0.10820165276527405,0.13081295788288116, 0.073134034872055054,0.10473413020372391,0.12590812146663666, 0.059297237545251846,0.092091761529445648,0.11520122736692429, 
  /* [8][1][][] */ 0.065877020359039307,0.092248529195785522,0.11683374643325806, 0.05967775359749794,0.087347403168678284,0.11135963350534439, 0.048687875270843506,0.079030372202396393,0.10442911088466644, 
  /* [8][2][][] */ 0.10154496878385544,0.1175406351685524,0.12454724311828613, 0.097655892372131348,0.11599034070968628,0.12154890596866608, 0.12447244673967361,0.12019695341587067,0.11859423667192459, 
  /* [9][0][][] */ -0.13050299882888794,0.10874544084072113,0.30847656726837158, -0.10477784276008606,0.031822115182876587,0.1879105269908905, 0.010482567362487316,0.077859058976173401,-0.0073467409238219261, 
