/*
 * Copyright (c) 2025 EdgeImpulse Inc.
 *
 * Generated by Edge Impulse and licensed under the applicable Edge Impulse
 * Terms of Service. Community and Professional Terms of Service
 * (https://edgeimpulse.com/legal/terms-of-service) or Enterprise Terms of
 * Service (https://edgeimpulse.com/legal/enterprise-terms-of-service),
 * according to your product plan subscription (the “License”).
 *
 * This software, documentation and other associated files (collectively referred
 * to as the “Software”) is a single SDK variation generated by the Edge Impulse
 * platform and requires an active paid Edge Impulse subscription to use this
 * Software for any purpose.
 *
 * You may NOT use this Software unless you have an active Edge Impulse subscription
 * that meets the eligibility requirements for the applicable License, subject to
 * your full and continued compliance with the terms and conditions of the License,
 * including without limitation any usage restrictions under the applicable License.
 *
 * If you do not have an active Edge Impulse product plan subscription, or if use
 * of this Software exceeds the usage limitations of your Edge Impulse product plan
 * subscription, you are not permitted to use this Software and must immediately
 * delete and erase all copies of this Software within your control or possession.
 * Edge Impulse reserves all rights and remedies available to enforce its rights.
 *
 * Unless required by applicable law or agreed to in writing, the Software is
 * distributed on an "AS IS" BASIS, WITHOUT WARRANTIES OR CONDITIONS OF ANY KIND,
 * either express or implied. See the License for the specific language governing
 * permissions, disclaimers and limitations under the License.
 */
// Generated on: 06.03.2025 08:03:13

#include <stdio.h>
#include <stdlib.h>
#include "edge-impulse-sdk/tensorflow/lite/c/builtin_op_data.h"
#include "edge-impulse-sdk/tensorflow/lite/c/common.h"
#include "edge-impulse-sdk/tensorflow/lite/micro/micro_mutable_op_resolver.h"
#include "edge-impulse-sdk/porting/ei_classifier_porting.h"

#if EI_CLASSIFIER_PRINT_STATE
#if defined(__cplusplus) && EI_C_LINKAGE == 1
extern "C" {
    extern void ei_printf(const char *format, ...);
}
#else
extern void ei_printf(const char *format, ...);
#endif
#endif

#define STRINGIZE(x) #x
#define STRINGIZE_VALUE_OF(x) STRINGIZE(x)

#if defined (__GNUC__)  /* GNU compiler */
#define ALIGN(X) __attribute__((aligned(X)))
#define DEFINE_SECTION(x) __attribute__((section(x)))
#elif defined (_MSC_VER)
#define ALIGN(X) __declspec(align(X))
#elif defined (__TASKING__) /* TASKING Compiler */
#define ALIGN(X) __align(X)
#define DEFINE_SECTION(x) __attribute__((section(x)))
#elif defined (__ARMCC_VERSION) /* Arm Compiler */
#define ALIGN(X) __ALIGNED(x)
#define DEFINE_SECTION(x) __attribute__((section(x)))
#elif defined (__ICCARM__) /* IAR Compiler */
#define ALIGN(x) __attribute__((aligned(x)))
#define DEFINE_SECTION(x) __attribute__((section(x)))
#elif defined (__clang__) /* LLVM/Clang Compiler */
#define ALIGN(X) __ALIGNED(x)
#define DEFINE_SECTION(x) __attribute__((section(x)))
#endif

#if defined(EI_MODEL_SECTION) && (defined(__GNUC__) || defined(__clang__))
#define MODEL_SECTION(X) __attribute__((section(STRINGIZE_VALUE_OF(X))))
#else
#define MODEL_SECTION(X)
#endif

#ifndef EI_MAX_SCRATCH_BUFFER_COUNT
#ifndef CONFIG_IDF_TARGET_ESP32S3
#define EI_MAX_SCRATCH_BUFFER_COUNT 4
#else
#define EI_MAX_SCRATCH_BUFFER_COUNT 4
#endif // CONFIG_IDF_TARGET_ESP32S3
#endif // EI_MAX_SCRATCH_BUFFER_COUNT

#ifndef EI_MAX_OVERFLOW_BUFFER_COUNT
#define EI_MAX_OVERFLOW_BUFFER_COUNT 10
#endif // EI_MAX_OVERFLOW_BUFFER_COUNT

using namespace tflite;
using namespace tflite::ops;
using namespace tflite::ops::micro;

namespace {

#if defined(EI_CLASSIFIER_ALLOCATION_STATIC_HIMAX) || defined(EI_CLASSIFIER_ALLOCATION_STATIC_HIMAX_GNU)
constexpr int kTensorArenaSize = 909712;
#else
constexpr int kTensorArenaSize = 908688;
#endif

#if defined(EI_CLASSIFIER_ALLOCATION_STATIC)
#if defined (EI_TENSOR_ARENA_LOCATION)
uint8_t tensor_arena[kTensorArenaSize] ALIGN(16) DEFINE_SECTION(STRINGIZE_VALUE_OF(EI_TENSOR_ARENA_LOCATION));
#else
uint8_t tensor_arena[kTensorArenaSize] ALIGN(16);
#endif
#elif defined(EI_CLASSIFIER_ALLOCATION_STATIC_HIMAX)
#pragma Bss(".tensor_arena")
uint8_t tensor_arena[kTensorArenaSize] ALIGN(16);
#pragma Bss()
#elif defined(EI_CLASSIFIER_ALLOCATION_STATIC_HIMAX_GNU)
uint8_t tensor_arena[kTensorArenaSize] ALIGN(16) __attribute__((section(".tensor_arena")));
#else
#define EI_CLASSIFIER_ALLOCATION_HEAP 1
uint8_t* tensor_arena = NULL;
#endif

static uint8_t* tensor_boundary;
static uint8_t* current_location;

template <int SZ, class T> struct TfArray {
  int sz; T elem[SZ];
};

enum used_operators_e {
  OP_CONV_2D, OP_DEPTHWISE_CONV_2D, OP_ADD, OP_PAD, OP_FULLY_CONNECTED, OP_RESHAPE, OP_SOFTMAX,  OP_LAST
};

struct TensorInfo_t { // subset of TfLiteTensor used for initialization from constant memory
  TfLiteAllocationType allocation_type;
  TfLiteType type;
  void* data;
  TfLiteIntArray* dims;
  size_t bytes;
};

typedef struct {
  TfLiteTensor tensor;
  int16_t index;
} TfLiteTensorWithIndex;

typedef struct {
  TfLiteEvalTensor tensor;
  int16_t index;
} TfLiteEvalTensorWithIndex;

TfLiteContext ctx{};
static const int MAX_TFL_TENSOR_COUNT = 4;
static TfLiteTensorWithIndex tflTensors[MAX_TFL_TENSOR_COUNT];
static const int MAX_TFL_EVAL_COUNT = 4;
static TfLiteEvalTensorWithIndex tflEvalTensors[MAX_TFL_EVAL_COUNT];
TfLiteRegistration registrations[OP_LAST];

namespace g0 {
const TfArray<4, int> tensor_dimension0 = { 4, { 1,96,96,3 } };
const MODEL_SECTION(EI_MODEL_SECTION) ALIGN(16) float tensor_data1[8] = { 3.2078619003295898, 0.097075797617435455, 3.7713563442230225, 0.68612492084503174, 1.872586727142334, 2.6200945377349854, 0.20711621642112732, 3.0926156044006348, };
const TfArray<1, int> tensor_dimension1 = { 1, { 8 } };
const MODEL_SECTION(EI_MODEL_SECTION) ALIGN(16) float tensor_data2[8] = { 0.90562379360198975, 0.10707321763038635, 0.30845820903778076, 0.83074891567230225, 2.0424377918243408, 0.089174963533878326, 0.47194737195968628, -0.035182178020477295, };
const TfArray<1, int> tensor_dimension2 = { 1, { 8 } };
const MODEL_SECTION(EI_MODEL_SECTION) ALIGN(16) float tensor_data3[48] = { -0.38911566138267517, -1.9837473630905151, 0.93106180429458618, 1.0522840023040771, 2.8771357536315918, 2.0778625011444092, 2.2741250991821289, 0.32888108491897583, -0.56925296783447266, -2.1083228588104248, 0.89172852039337158, 1.1825001239776611, 1.3656461238861084, -3.9042515754699707, 0.050393849611282349, 0.30215758085250854, -1.7756692171096802, -0.044022321701049805, 0.813862144947052, 1.4942946434020996, 1.2190890312194824, 3.1495895385742188, 0.3558734655380249, 0.26800912618637085, 2.2096357345581055, 2.0591506958007812, 3.8038158416748047, -3.2069549560546875, 1.9281482696533203, -0.41518455743789673, -0.013506561517715454, -3.5774762630462646, 2.1273729801177979, 2.1996243000030518, 3.3740689754486084, -1.1608906984329224, -4.2903409004211426, 0.03308945894241333, -3.4007985591888428, -0.1482548713684082, -3.7089600563049316, -2.2716882228851318, -0.39664959907531738, 1.0772045850753784, 1.0352826118469238, -2.9516808986663818, 0.3129718005657196, -0.98551827669143677, };
const TfArray<1, int> tensor_dimension3 = { 1, { 48 } };
const MODEL_SECTION(EI_MODEL_SECTION) ALIGN(16) float tensor_data4[48] = { 0.23571616411209106, -0.047536201775074005, 0.1787177175283432, 0.052324242889881134, 1.0363154411315918, 0.54869425296783447, 0.0659312903881073, 1.6091201305389404, 0.82153117656707764, -0.068575985729694366, -0.096454858779907227, 0.015158772468566895, 0.043692760169506073, -0.091465950012207031, -0.033590495586395264, 0.0094435177743434906, 1.8840676546096802, -0.016160771250724792, 0.015305414795875549, 3.4414982795715332, 0.022253492847084999, 1.3433816432952881, -0.040258675813674927, -0.0062473658472299576, -0.0022256970405578613, -5.8638672828674316, 1.0084043741226196, -0.094092972576618195, 0.41001591086387634, -0.17486196756362915, 0.30420014262199402, 0.98191308975219727, 0.047568164765834808, 0.068563297390937805, 0.14997483789920807, 0.068874537944793701, 1.1650710105895996, -0.047708332538604736, 0.11226910352706909, -0.12013397365808487, 0.13417941331863403, -0.043917939066886902, 1.403153657913208, -1.6449573040008545, -0.0012408662587404251, 0.0054709687829017639, 0.0014119907282292843, -0.095025882124900818, };
const TfArray<1, int> tensor_dimension4 = { 1, { 48 } };
const MODEL_SECTION(EI_MODEL_SECTION) ALIGN(16) float tensor_data5[48] = { 0.91190111637115479, 0.52143323421478271, 0.75388777256011963, 1.0817620754241943, 0.40064087510108948, 0.73587554693222046, 0.62443220615386963, 0.60104697942733765, 0.54570657014846802, 0.72920358180999756, 0.71716362237930298, 0.65735644102096558, 0.75954818725585938, 0.39625006914138794, 0.55728477239608765, 0.012367549352347851, 0.10302922129631042, -0.76471531391143799, 0.96712684631347656, 1.0277469158172607, 0.71160650253295898, 0.84140050411224365, 0.85464644432067871, 0.1828799843788147, 0.60870665311813354, 0.94121646881103516, 0.69218564033508301, -0.04629555344581604, -0.44769638776779175, 0.93141025304794312, 0.91796058416366577, 0.78977829217910767, 0.61974245309829712, 0.30627304315567017, 0.61184954643249512, -0.14771860837936401, 0.18538522720336914, 0.40959545969963074, 0.029446706175804138, 0.68773001432418823, 0.41385781764984131, 0.87275981903076172, 0.40241020917892456, 0.21874095499515533, 0.55272591114044189, 0.51322066783905029, -0.07105216383934021, 1.0054768323898315, };
const TfArray<1, int> tensor_dimension5 = { 1, { 48 } };
const MODEL_SECTION(EI_MODEL_SECTION) ALIGN(16) float tensor_data6[48] = { 2.0481719970703125, 0.9814380407333374, -0.41703698039054871, 2.3847298622131348, -0.021937839686870575, -0.56427240371704102, 0.64711439609527588, -0.11017275601625443, 0.11243999004364014, 1.0192276239395142, -0.10696405172348022, 0.055695652961730957, -0.57226032018661499, 1.7930076122283936, 0.7701801061630249, -0.018015936017036438, -0.3537231981754303, -0.67730480432510376, -0.24726156890392303, 0.020329147577285767, 1.2646474838256836, -0.082027725875377655, -1.6998492479324341, -0.03349917009472847, -1.448339581489563, 0.23630279302597046, 0.13987040519714355, 0.0005105435848236084, -0.76093924045562744, -0.30304136872291565, -0.74500632286071777, 0.10040728747844696, 1.0912504196166992, -0.23596511781215668, 0.1195036917924881, 1.0302002429962158, -0.2333141416311264, 0.36455100774765015, -0.69615787267684937, 0.73708665370941162, 0.94338458776473999, 0.26923361420631409, 0.51788008213043213, 0.00055450201034545898, 0.093776516616344452, -0.014027375727891922, -0.64902865886688232, 2.3785498142242432, };
const TfArray<1, int> tensor_dimension6 = { 1, { 48 } };
const MODEL_SECTION(EI_MODEL_SECTION) ALIGN(16) float tensor_data7[48] = { 0.24846206605434418, 0.682586669921875, 0.45813155174255371, -0.090933121740818024, -0.19377613067626953, 0.080730520188808441, 0.82022416591644287, 0.60494476556777954, 0.50544077157974243, -0.52804434299468994, 0.38757809996604919, 0.0069414856843650341, 0.70955485105514526, 0.044280603528022766, 0.43155807256698608, -0.35522940754890442, -0.072868868708610535, 0.69072473049163818, 0.22402398288249969, 0.35054785013198853, -0.22689551115036011, 1.6023107767105103, 0.42488402128219604, -0.2602161169052124, 0.28623425960540771, 0.77684682607650757, 0.60706537961959839, -0.42353540658950806, 0.069146327674388885, 0.036715272814035416, -0.478655606508255, -0.36083748936653137, 0.75007933378219604, 0.32629081606864929, 0.89265787601470947, 0.98629432916641235, 0.89599192142486572, 0.82113707065582275, -0.5932852029800415, -0.3260217010974884, -0.29992383718490601, 0.511432945728302, 0.2854074239730835, 0.1977045089006424, -0.45456361770629883, -0.51515555381774902, 0.61196529865264893, 0.1900334358215332, };
const TfArray<1, int> tensor_dimension7 = { 1, { 48 } };
const MODEL_SECTION(EI_MODEL_SECTION) ALIGN(16) float tensor_data8[48] = { 1.1969465017318726, 1.7164956331253052, 1.0457868576049805, 1.307559609413147, 0.70060700178146362, 0.96762543916702271, 1.8970458507537842, 1.1655551195144653, 1.96614670753479, -0.12569747865200043, 0.026470422744750977, 1.0436125993728638, 2.3102962970733643, -0.16069653630256653, 0.65591078996658325, 0.023157417774200439, 0.18079254031181335, 2.2962372303009033, 1.0677187442779541, 0.0023030489683151245, 0.30137723684310913, -2.3208780288696289, -0.053729444742202759, 0.095406174659729004, 1.7213494777679443, 2.2867763042449951, 0.040544986724853516, 0.01041761040687561, -0.0090949535369873047, 1.2589808702468872, -0.40295016765594482, 0.32061952352523804, -1.2475128173828125, 1.1099213361740112, 2.3247032165527344, 3.2617356777191162, 2.2719547748565674, 2.5113935470581055, -0.0073516443371772766, -0.0094491243362426758, 0.86725056171417236, 1.5939762592315674, 0.034573614597320557, -0.035397887229919434, -0.020642310380935669, -0.18177182972431183, 1.4706059694290161, 0.92778867483139038, };
const TfArray<1, int> tensor_dimension8 = { 1, { 48 } };
const MODEL_SECTION(EI_MODEL_SECTION) ALIGN(16) float tensor_data9[48] = { 1.043251633644104, -0.11951939016580582, 0.43374311923980713, 0.31580263376235962, 0.70854824781417847, 0.13527055084705353, 0.62653213739395142, -0.14626143872737885, 0.91488128900527954, 0.75411272048950195, -0.099179893732070923, -0.014708747155964375, 0.4647255539894104, 0.34718397259712219, 0.060472741723060608, 0.62850320339202881, 0.51782888174057007, 0.742087721824646, -0.39943021535873413, -0.083618871867656708, 0.71684634685516357, 0.36159729957580566, 0.68137800693511963, 0.016465086489915848, 0.69281685352325439, 0.71380716562271118, 0.9112667441368103, -0.26473885774612427, 0.91921883821487427, -0.034521561115980148, 0.77409636974334717, 0.62422889471054077, 0.85848367214202881, 0.082009084522724152, 0.29959002137184143, 0.67467218637466431, 0.64507573843002319, 0.40875878930091858, 0.5280718207359314, 0.26741990447044373, -0.045273397117853165, 0.72609454393386841, 0.76431971788406372, 0.68345850706100464, 0.90751230716705322, 0.29950511455535889, 0.067087605595588684, 0.68416726589202881, };
const TfArray<1, int> tensor_dimension9 = { 1, { 48 } };
const MODEL_SECTION(EI_MODEL_SECTION) ALIGN(16) float tensor_data10[48] = { 1.5784118175506592, 0.81925535202026367, 0.7877197265625, 1.3834247589111328, 1.7977859973907471, -0.99136507511138916, -0.12931381165981293, -0.033508032560348511, -0.10681897401809692, -2.8314113616943359, -0.25550726056098938, -0.57240200042724609, 1.0695760250091553, 1.3245723247528076, 2.269578218460083, -0.0046372115612030029, 0.7733234167098999, 1.3138647079467773, 0.21336573362350464, -0.89282572269439697, 0.83176314830780029, -0.52692043781280518, 1.4645627737045288, -0.030732139945030212, 1.1243118047714233, 1.4348496198654175, -0.049669414758682251, -0.017843425273895264, 0.019300557672977448, 0.59474170207977295, 1.5459145307540894, 0.55812221765518188, 0.091967545449733734, -1.3421127796173096, -0.055732190608978271, 0.057054586708545685, 1.9484597444534302, 0.70494711399078369, -0.0014734640717506409, 0.093686185777187347, 1.3226704597473145, -1.2140626907348633, 1.2584679126739502, -0.020065207034349442, 0.086172521114349365, 0.54551476240158081, 1.3574751615524292, -0.50977587699890137, };
const TfArray<1, int> tensor_dimension10 = { 1, { 48 } };
const MODEL_SECTION(EI_MODEL_SECTION) ALIGN(16) float tensor_data11[48] = { -0.29051268100738525, -0.44800227880477905, 0.64761137962341309, -0.11010070890188217, -0.50675970315933228, 0.28150615096092224, 0.5330650806427002, 1.2661933898925781, 0.28757384419441223, 0.56821352243423462, 0.76834297180175781, 0.38880452513694763, 0.34502819180488586, 0.88084107637405396, 0.77027881145477295, -0.44104340672492981, 0.99361968040466309, 0.26044723391532898, 0.22283934056758881, -0.6000978946685791, 0.0075108478777110577, -0.14708840847015381, 0.35936430096626282, 0.93632179498672485, 0.19364885985851288, 0.69623255729675293, 0.59966039657592773, -0.034284710884094238, 0.55388182401657104, 0.058552362024784088, 0.27601200342178345, -0.39549592137336731, -0.42144337296485901, -0.32151994109153748, -0.54470580816268921, 0.41242212057113647, 0.47506427764892578, 0.37880882620811462, 0.45193812251091003, 0.45088732242584229, 0.65129899978637695, 0.22161632776260376, 0.69573700428009033, 0.49017876386642456, 0.9400668740272522, 0.72757440805435181, -0.20682689547538757, 0.19253949820995331, };
const TfArray<1, int> tensor_dimension11 = { 1, { 48 } };
const MODEL_SECTION(EI_MODEL_SECTION) ALIGN(16) float tensor_data12[48] = { -0.071347802877426147, -0.82141959667205811, 0.26413357257843018, -0.18251208961009979, -0.018113687634468079, -0.16691234707832336, 0.74226176738739014, 7.5637316703796387, -1.2166579961776733, 1.2124511003494263, 1.5696650743484497, -0.31627100706100464, 0.8682180643081665, -0.36611053347587585, 1.1590089797973633, -0.20070259273052216, 0.031634166836738586, -0.12097455561161041, 0.30580157041549683, -0.55354833602905273, -0.39466595649719238, -0.38189339637756348, -1.3973851203918457, -0.46311405301094055, 0.90681374073028564, -0.062557846307754517, -0.055849790573120117, 0.43491563200950623, 1.7641435861587524, 0.73269116878509521, 1.1519110202789307, -0.33816561102867126, -1.5441634654998779, -0.0017654299736022949, -0.90897542238235474, -0.71423399448394775, 0.50858485698699951, 0.65992069244384766, -1.1170895099639893, 1.4480469226837158, 0.28501608967781067, -0.060277253389358521, -0.60688132047653198, -0.60233974456787109, -2.286759614944458, 1.1420747041702271, -0.0030353963375091553, 0.76804131269454956, };
const TfArray<1, int> tensor_dimension12 = { 1, { 48 } };
const MODEL_SECTION(EI_MODEL_SECTION) ALIGN(16) float tensor_data13[48] = { -0.099128805100917816, 0.31793662905693054, 0.29030746221542358, 0.58839273452758789, 0.92724275588989258, -0.14955031871795654, -0.36525216698646545, 0.96354055404663086, 0.27280536293983459, 0.82956057786941528, 0.073983177542686462, -0.38411635160446167, 0.64027619361877441, -0.66077727079391479, 0.70746141672134399, -0.25326210260391235, -0.036723800003528595, -0.1468440443277359, 0.21791835129261017, 0.52493709325790405, 0.64881652593612671, 0.48828405141830444, 0.63090580701828003, 0.14248122274875641, -0.4955381453037262, -0.43729832768440247, 0.107545405626297, 0.5167081356048584, 0.31757065653800964, 0.59226852655410767, -0.16906291246414185, 0.62582051753997803, 0.68687081336975098, 0.75330328941345215, 0.41922137141227722, 0.21289752423763275, 0.87230950593948364, 0.23795014619827271, 0.14589495956897736, -0.22852656245231628, 0.15670596063137054, 0.95203977823257446, -0.14281584322452545, 0.20658650994300842, 0.83632183074951172, 0.030268851667642593, 0.26284477114677429, 0.788982093334198, };
const TfArray<1, int> tensor_dimension13 = { 1, { 48 } };
const MODEL_SECTION(EI_MODEL_SECTION) ALIGN(16) float tensor_data14[48] = { 0.060582131147384644, 0.63861632347106934, 1.3697437047958374, 1.7892953157424927, 2.1094512939453125, -0.13953074812889099, -0.20268005132675171, 5.2555098533630371, 0.12226760387420654, -0.2448887825012207, -0.20858168601989746, 0.34890511631965637, -0.038599729537963867, -0.5277135968208313, 0.93860942125320435, -0.015648752450942993, 0.0045377612113952637, 0.12216010689735413, 1.2480807304382324, 1.2384247779846191, 1.477617621421814, 1.8339773416519165, 1.6354255676269531, 0.06843489408493042, -0.027983576059341431, 0.030471295118331909, -0.14963114261627197, -0.053960263729095459, -1.8435001373291016, 0.8089745044708252, -1.2378139495849609, 1.8813139200210571, 1.0229156017303467, 2.4263596534729004, 1.298392653465271, -1.3005919456481934, -0.058822549879550934, 1.5313029289245605, 0.9009740948677063, -0.0083238780498504639, 0.039553403854370117, 2.783311128616333, 0.0029825568199157715, -0.32666444778442383, -0.82609856128692627, 0.039290428161621094, 0.13795870542526245, 1.3049466609954834, };
const TfArray<1, int> tensor_dimension14 = { 1, { 48 } };
const MODEL_SECTION(EI_MODEL_SECTION) ALIGN(16) float tensor_data15[48] = { 0.40613791346549988, 0.49556061625480652, 0.75309938192367554, 0.51850354671478271, 0.58977478742599487, -0.061143621802330017, 0.023501133546233177, 1.1475725173950195, 0.47234958410263062, 0.23572449386119843, 0.38258892297744751, 0.95487964153289795, 0.61469322443008423, 0.45925015211105347, 0.46179875731468201, 0.33635121583938599, 0.70511597394943237, 0.40919604897499084, 0.84252417087554932, 0.92287880182266235, 0.062707841396331787, 0.06541750580072403, 0.81768321990966797, 0.85970449447631836, 0.51661849021911621, 0.2355940043926239, 0.35944035649299622, 0.1921984851360321, 0.6949806809425354, 0.96886312961578369, 0.01043324451893568, 0.2873702347278595, 0.090909764170646667, 0.2835029661655426, 0.46709227561950684, 0.24854841828346252, 0.92471104860305786, 0.61934036016464233, 0.57579177618026733, 0.29289808869361877, 0.63933753967285156, 0.18861833214759827, 0.96347981691360474, 0.003348625497892499, 0.8463902473449707, 0.071000091731548309, 0.47293534874916077, 0.033009201288223267, };
const TfArray<1, int> tensor_dimension15 = { 1, { 48 } };
const MODEL_SECTION(EI_MODEL_SECTION) ALIGN(16) float tensor_data16[48] = { 0.063261866569519043, 1.1335067749023438, -0.84971356391906738, -0.56364196538925171, -0.42027357220649719, 1.1498141288757324, -0.9131317138671875, 4.6926288604736328, -0.41535294055938721, 1.2037374973297119, -0.24270032346248627, -0.072222061455249786, 1.5685220956802368, 0.070561051368713379, -0.22625884413719177, -0.50012588500976562, 1.9300154447555542, 0.3311786949634552, -0.47528213262557983, 0.018241379410028458, -0.19729459285736084, 0.47711119055747986, 1.5132508277893066, 0.20156717300415039, 0.52153658866882324, 0.57363212108612061, 0.018993273377418518, 0.58345139026641846, -1.3284988403320312, 1.4461674690246582, 0.10659775882959366, 1.12638258934021, 0.17091551423072815, 0.0018996596336364746, -0.19356837868690491, -0.47924214601516724, -0.36626684665679932, 0.16636174917221069, 0.45815238356590271, -0.6575201153755188, -0.81193602085113525, -0.18539178371429443, 0.63695597648620605, 0.14507120847702026, -0.21159088611602783, -0.30674982070922852, 0.77432435750961304, 0.077070921659469604, };
const TfArray<1, int> tensor_dimension16 = { 1, { 48 } };
const MODEL_SECTION(EI_MODEL_SECTION) ALIGN(16) float tensor_data17[48] = { -0.35119688510894775, 0.31365442276000977, -0.022356914356350899, -0.13736468553543091, 0.067642152309417725, 0.039505679160356522, 0.20987792313098907, -0.21685147285461426, 0.32363167405128479, 0.38444656133651733, 0.095376476645469666, 0.91789883375167847, 0.27011376619338989, 0.38892725110054016, 0.40256768465042114, 0.0071608726866543293, 0.41394919157028198, 0.66899609565734863, 0.58391118049621582, 0.11584512144327164, 0.1451428234577179, -0.10798146575689316, 0.33617308735847473, 0.67681765556335449, 0.66956460475921631, 0.35541433095932007, 0.69928222894668579, 0.047475870698690414, -0.13612435758113861, 0.18029646575450897, 0.4022897481918335, 0.46468761563301086, 0.19357192516326904, 0.32706388831138611, 0.15919758379459381, 0.35091465711593628, 0.07776208221912384, 0.23718906939029694, 0.14124035835266113, 0.51519328355789185, -0.063686467707157135, 0.37748706340789795, 0.33312392234802246, 0.26572108268737793, 0.95589131116867065, -0.043543584644794464, 0.21512138843536377, 0.18041746318340302, };
const TfArray<1, int> tensor_dimension17 = { 1, { 48 } };
const MODEL_SECTION(EI_MODEL_SECTION) ALIGN(16) float tensor_data18[48] = { 1.1617803573608398, -0.27073818445205688, 1.0058770179748535, -0.76790487766265869, 1.3440918922424316, 0.33197987079620361, 0.88784551620483398, 0.29885923862457275, -0.34353688359260559, -0.37170195579528809, -0.14907073974609375, -0.41641610860824585, -0.082342147827148438, 0.99423480033874512, 0.030053958296775818, -0.82976239919662476, -0.23911410570144653, 2.1996843814849854, 1.3071136474609375, -0.33924639225006104, 0.4796072244644165, 1.0046300888061523, -0.31643593311309814, -0.24380585551261902, 2.1370034217834473, -0.056615203619003296, -0.74154818058013916, 0.82897323369979858, -0.16183456778526306, -0.44402164220809937, -0.4545573890209198, 0.63756024837493896, -0.13351786136627197, 0.91682338714599609, -0.13387817144393921, 0.91695654392242432, -0.45512095093727112, 0.93979310989379883, 0.99079746007919312, 0.99516898393630981, 0.26370668411254883, -0.008183598518371582, 0.096424698829650879, -0.17526239156723022, 2.6744530200958252, -0.78007960319519043, 0.0079159140586853027, 1.0138943195343018, };
const TfArray<1, int> tensor_dimension18 = { 1, { 48 } };
const MODEL_SECTION(EI_MODEL_SECTION) ALIGN(16) float tensor_data19[48] = { 0.30557072162628174, 0.95351648330688477, 0.32889118790626526, 0.80295288562774658, 0.22321484982967377, 0.37306708097457886, 0.57288658618927002, 0.41026675701141357, 0.52884334325790405, -0.19519506394863129, 0.31729996204376221, -0.15755948424339294, -0.78469711542129517, 0.65493690967559814, -0.2235054075717926, 0.056710682809352875, 0.34291329979896545, 0.18666927516460419, 0.29683047533035278, -0.17900744080543518, 0.75870484113693237, -0.15444384515285492, 0.5980648398399353, 0.32184818387031555, 0.12149520963430405, 0.16745151579380035, 0.97004890441894531, 0.098549142479896545, 0.15935696661472321, 0.60848456621170044, 0.41812339425086975, 0.71656829118728638, 0.64054733514785767, -0.28533515334129333, 0.18583239614963531, 0.56158924102783203, 0.15586875379085541, 0.52964448928833008, 0.30710053443908691, -0.067939035594463348, -0.44148024916648865, -0.035457540303468704, 0.33036604523658752, -0.065558470785617828, 0.59739112854003906, 0.24144110083580017, -0.6265188455581665, 0.52292877435684204, };
const TfArray<1, int> tensor_dimension19 = { 1, { 48 } };
const MODEL_SECTION(EI_MODEL_SECTION) ALIGN(16) float tensor_data20[48] = { 1.39336097240448, -0.4473070502281189, 0.24861037731170654, 1.7945986986160278, 0.4381009042263031, 1.6744211912155151, 1.0216536521911621, -0.20249032974243164, -0.3218153715133667, -0.075181365013122559, 0.27140480279922485, -0.064247280359268188, -0.66407316923141479, 0.18500903248786926, -0.60138469934463501, 0.12407048046588898, -0.52957046031951904, 1.3487479686737061, 0.25568753480911255, -0.86758232116699219, 1.3797228336334229, -0.22570937871932983, 1.3015186786651611, -0.19940173625946045, 0.99145674705505371, -0.92271298170089722, 2.2044787406921387, -0.49826163053512573, -0.2421092689037323, -0.65466368198394775, 1.01936936378479, -0.065903902053833008, 1.8353245258331299, 0.83492732048034668, 2.5785713195800781, 1.4029189348220825, 0.081259533762931824, 0.93263369798660278, -0.27032876014709473, -0.38507384061813354, -0.71544170379638672, -0.43117964267730713, -0.28951072692871094, -0.2725653350353241, 0.37510955333709717, -1.0017333030700684, -0.94861078262329102, -0.5576329231262207, };
const TfArray<1, int> tensor_dimension20 = { 1, { 48 } };
const MODEL_SECTION(EI_MODEL_SECTION) ALIGN(16) float tensor_data21[48] = { -0.23964458703994751, 0.59649491310119629, 0.63349056243896484, 0.83030039072036743, 0.24776479601860046, 1.0194728374481201, 0.51491045951843262, -0.054737843573093414, 0.65676003694534302, -0.011390944942831993, 0.43329435586929321, 0.49628692865371704, -0.019104147329926491, 0.060697667300701141, 0.41594094038009644, 0.010687246918678284, 0.95798748731613159, 0.73787802457809448, -0.23888775706291199, 0.10253997147083282, 0.30785629153251648, 0.15935696661472321, -0.16817477345466614, -0.29706785082817078, 0.76040399074554443, -0.32901573181152344, 0.65339016914367676, 0.90856736898422241, 0.59230655431747437, 1.0099104642868042, 0.12617900967597961, 0.40419763326644897, 0.43181449174880981, 0.23272287845611572, 0.38340616226196289, 1.0269030332565308, -0.24730919301509857, 0.9768947958946228, 1.1501487493515015, -0.36221584677696228, 0.37001776695251465, -0.090972840785980225, 0.51907545328140259, 0.66698956489562988, 1.0928786993026733, 0.36122223734855652, -0.08858877420425415, 0.16669973731040955, };
const TfArray<1, int> tensor_dimension21 = { 1, { 48 } };
const MODEL_SECTION(EI_MODEL_SECTION) ALIGN(16) float tensor_data22[48] = { 0.02594989538192749, -0.50876730680465698, -0.28782472014427185, 0.0003791740455199033, 2.6306581497192383, 0.3447125256061554, -0.018249452114105225, -0.00091180205345153809, -0.088707715272903442, 0.46986526250839233, 0.21684110164642334, 0.012221038341522217, 0.83895885944366455, -0.22489853203296661, 1.391756534576416, 0.053527861833572388, 0.067622318863868713, 0.013960406184196472, 0.0047427266836166382, 0.18442371487617493, 0.88782632350921631, 0.52138614654541016, -0.20716649293899536, 0.012902259826660156, -0.30966782569885254, 0.0032897293567657471, 1.4445223808288574, -0.61659836769104004, 1.45365309715271, -0.038443271070718765, -0.49798068404197693, -0.070176124572753906, 0.78455430269241333, 0.18182593584060669, -0.15521067380905151, -0.022849738597869873, 0.0023536384105682373, 0.068899869918823242, 2.4408562183380127, -0.0026705265045166016, 0.43917575478553772, -0.00061759352684020996, -0.31785261631011963, 0.044501960277557373, 4.3121194839477539, 0.32015848159790039, -0.30523446202278137, 0.29983806610107422, };
const TfArray<1, int> tensor_dimension22 = { 1, { 48 } };
const MODEL_SECTION(EI_MODEL_SECTION) ALIGN(16) float tensor_data23[96] = { 0.42879483103752136, 0.1801859438419342, 0.47993370890617371, 0.11939018964767456, 0.5532105565071106, 0.93002516031265259, 0.35145553946495056, 0.9444308876991272, 0.034102000296115875, 0.4467540979385376, 0.31194448471069336, 0.43723610043525696, 0.87317007780075073, 0.41790255904197693, 0.33113023638725281, -0.53889620304107666, 0.28809592127799988, 0.54469507932662964, -0.092187650501728058, 0.4527626633644104, 0.29616615176200867, 0.04180232435464859, 0.39540106058120728, 0.80738550424575806, -0.27870458364486694, 0.49891090393066406, 0.27585265040397644, -0.098440632224082947, 0.42167910933494568, 0.65487349033355713, 0.55737316608428955, 0.33997988700866699, 0.48954129219055176, 0.70538133382797241, 0.27733740210533142, 0.2362760603427887, 0.32396954298019409, 0.26955568790435791, 0.54255861043930054, 0.67441260814666748, 0.11854839324951172, 0.17924696207046509, 0.48131725192070007, 0.65794461965560913, -0.24817168712615967, 0.36991837620735168, 0.0066205156035721302, -0.22918060421943665, 0.31494888663291931, 0.066564805805683136, 0.20385044813156128, 0.22935223579406738, 0.97611379623413086, 0.63460975885391235, 0.86418813467025757, 0.60794597864151001, -0.12113676965236664, 0.91937088966369629, 0.90267050266265869, -0.24305902421474457, 0.33945611119270325, 0.17768515646457672, 0.53501737117767334, -0.020342718809843063, 0.32099279761314392, 0.4370168149471283, 0.38517472147941589, 0.82506299018859863, 0.55612456798553467, -0.13768464326858521, 0.4063478410243988, 0.074227720499038696, 0.57107740640640259, 0.043778005987405777, 0.64864301681518555, -0.068810954689979553, 0.035338204354047775, 0.032682221382856369, 0.56193381547927856, -0.26633921265602112, 0.46960189938545227, -0.15856209397315979, -0.17732429504394531, 0.052140846848487854, 0.057565558701753616, 0.76603966951370239, 0.38764885067939758, 0.28143477439880371, 0.28702300786972046, 0.46662524342536926, 0.066679641604423523, 0.12604820728302002, 0.040223695337772369, 0.27630895376205444, 0.083598926663398743, 0.29661265015602112, };
const TfArray<1, int> tensor_dimension23 = { 1, { 96 } };
const MODEL_SECTION(EI_MODEL_SECTION) ALIGN(16) float tensor_data24[96] = { 0.11575181037187576, -0.0085214972496032715, 0.11841464042663574, -0.037592828273773193, -0.051161795854568481, -0.190935879945755, -0.24464194476604462, -0.0017037093639373779, -0.021102190017700195, -0.18811656534671783, -0.8731570839881897, -0.16505858302116394, -1.295071005821228, 0.00992584228515625, -0.14906151592731476, -0.43668323755264282, -0.2159496545791626, 1.0403475761413574, 1.6489224433898926, -0.10415764153003693, 0.86002051830291748, 0.031199164688587189, -0.18040983378887177, -0.16538670659065247, 1.1425948143005371, 2.3676855564117432, -0.45737302303314209, 0.73585665225982666, 1.5887579917907715, 0.34950155019760132, -0.010943211615085602, -0.055487930774688721, -0.3197198212146759, -0.030681490898132324, -0.45337465405464172, -0.68260765075683594, 0.0031803548336029053, 1.2073720693588257, -0.016807477921247482, -0.23533451557159424, -0.12408041954040527, -0.0091442465782165527, -0.055037997663021088, 0.020550429821014404, 0.84456312656402588, 0.12552407383918762, -0.2840595543384552, 0.79807394742965698, 0.9771612286567688, -0.016917230561375618, 2.1223113536834717, 0.0027925968170166016, 0.30295515060424805, -0.44092482328414917, -0.085368841886520386, -0.018376618623733521, -0.277232825756073, -0.018114417791366577, -0.098634690046310425, -0.00038748979568481445, 0.01550796814262867, -1.6904677152633667, 0.014513880014419556, 0.026638329029083252, -0.11053192615509033, 1.9650921821594238, -0.0063340663909912109, 0.23970374464988708, 0.23785924911499023, -0.0026979148387908936, 0.033948201686143875, -0.35138159990310669, 0.66727179288864136, -0.17106159031391144, 0.65456473827362061, -0.13331550359725952, 0.7073332667350769, -1.3729076385498047, -0.0049897432327270508, -0.89469230175018311, -0.037199258804321289, -0.0035187825560569763, -0.54143029451370239, -0.0091462135314941406, -1.2143466472625732, -1.3040698766708374, -1.2519631385803223, -0.4493567943572998, 0.87647217512130737, -1.0226693153381348, 0.28192585706710815, -0.5338861346244812, 1.0308570861816406, -0.27080115675926208, -0.44152015447616577, -0.64370095729827881, };
const TfArray<1, int> tensor_dimension24 = { 1, { 96 } };
const MODEL_SECTION(EI_MODEL_SECTION) ALIGN(16) float tensor_data25[96] = { 0.44862431287765503, 0.34100204706192017, -0.4813685417175293, 0.32778871059417725, 0.26268142461776733, 0.03757987916469574, -0.27163761854171753, 0.58169054985046387, 0.27467170357704163, 0.09795871376991272, 0.00064304424449801445, 0.18505083024501801, 0.024559378623962402, 0.13182365894317627, 0.54354393482208252, 0.10056445747613907, 0.76084744930267334, 0.66148442029953003, 0.3616051971912384, 0.70395189523696899, 0.23965956270694733, 0.6559569239616394, 0.69614773988723755, 0.073325134813785553, 0.40928724408149719, 0.89132010936737061, -0.079798460006713867, -0.10389875620603561, 0.28890705108642578, 0.45053297281265259, 0.25024360418319702, 0.60032749176025391, -0.055562779307365417, 0.40796104073524475, 0.47505855560302734, 0.26751190423965454, 0.5002586841583252, 0.41220709681510925, 0.24975934624671936, 0.022787824273109436, -0.10156472772359848, 0.31615850329399109, -0.37581762671470642, 0.14400973916053772, 0.35070481896400452, 0.35355499386787415, 0.5637354850769043, 0.20759132504463196, 0.41196155548095703, 0.83332949876785278, -0.21333807706832886, 0.041007712483406067, 0.0056586270220577717, 0.69535154104232788, 0.17051053047180176, 0.36123618483543396, -0.48648783564567566, 0.18247981369495392, 0.083604626357555389, 0.45005977153778076, 0.10892854630947113, 0.49325868487358093, 0.40122461318969727, 0.30933326482772827, 0.10770559310913086, 0.18179045617580414, 0.48028984665870667, -0.14936748147010803, -0.099691092967987061, 0.67786550521850586, 0.31075233221054077, 0.42299604415893555, -0.092498689889907837, 0.50258129835128784, 0.057193472981452942, 0.094887055456638336, 0.47483569383621216, 0.77552217245101929, 0.73153138160705566, -0.43918433785438538, 0.16190443933010101, 0.068848617374897003, 0.44933125376701355, 0.58112555742263794, 0.34216493368148804, 0.35458266735076904, 0.13604277372360229, 0.16107481718063354, -0.027816103771328926, -0.0041322526521980762, 0.065330490469932556, 0.32414919137954712, 0.48404863476753235, 0.061435312032699585, 0.15895229578018188, -0.46101397275924683, };
const TfArray<1, int> tensor_dimension25 = { 1, { 96 } };
const MODEL_SECTION(EI_MODEL_SECTION) ALIGN(16) float tensor_data26[96] = { -0.32303771376609802, -1.3138504028320312, -0.007359623908996582, -0.083911605179309845, -0.96573138236999512, -0.11206576973199844, 1.1032259464263916, 0.20281112194061279, -0.037744149565696716, 0.70616114139556885, 0.016236364841461182, -0.096507370471954346, 0.36438861489295959, -0.040395744144916534, 0.1316012442111969, -0.45737922191619873, -0.10704886913299561, 0.97696840763092041, 1.3342529535293579, -0.11575478315353394, -1.5536880493164062, -0.060560140758752823, -0.010909758508205414, -0.097176805138587952, 0.52585214376449585, -0.13105736672878265, -0.029073566198348999, 0.16829816997051239, -0.87126374244689941, -0.58247125148773193, 1.0548853874206543, 0.87972259521484375, -0.37411928176879883, 0.90837985277175903, 2.8261818885803223, 0.079764366149902344, 0.11085398495197296, -0.011075496673583984, 0.043006479740142822, 0.12693369388580322, 0.83288657665252686, 1.0606204271316528, 0.22022810578346252, -0.1339438408613205, -1.7264865636825562, 1.1056820154190063, -0.15418316423892975, 0.93351268768310547, -0.51021236181259155, 0.54396569728851318, -0.041789457201957703, 0.64899182319641113, -0.0027402639389038086, -0.16027146577835083, -0.038235411047935486, 0.21489134430885315, 0.28658410906791687, 0.45465570688247681, -0.052203655242919922, -1.5793877840042114, -0.64711093902587891, -1.5123553276062012, -0.62251663208007812, -0.029907263815402985, 0.21484333276748657, 0.11527515202760696, 1.3872843980789185, -0.49790394306182861, 1.5845335721969604, 1.3614057302474976, -0.47149530053138733, 0.99121063947677612, -0.4463810920715332, -0.3617386519908905, -0.064802259206771851, -0.26639163494110107, 0.042146846652030945, -0.066258504986763, 0.2413889467716217, -0.1869519054889679, 1.0456197261810303, -1.0855711698532104, -0.0044929385185241699, 2.8570175170898438, 0.15751773118972778, -1.3143801689147949, 0.014177531003952026, 0.034650236368179321, -0.61664342880249023, 1.1288740634918213, 0.22110623121261597, -0.031455144286155701, -1.2944865226745605, 0.028380002826452255, 0.44245797395706177, -0.2471214085817337, };
const TfArray<1, int> tensor_dimension26 = { 1, { 96 } };
const MODEL_SECTION(EI_MODEL_SECTION) ALIGN(16) float tensor_data27[96] = { 0.54638373851776123, 0.6435391902923584, -0.1776362806558609, 0.44528162479400635, 0.17269667983055115, 0.48791825771331787, 0.51103377342224121, 0.51609981060028076, 0.51264768838882446, 0.61255061626434326, -0.15770053863525391, 0.10018683969974518, 0.032878037542104721, 0.84844017028808594, 0.18196974694728851, 0.41689953207969666, 0.34049814939498901, 0.18594503402709961, 0.64543211460113525, 0.50366407632827759, 0.33685845136642456, 0.12797865271568298, 0.59146988391876221, -0.20037569105625153, 0.23537056148052216, -0.282488614320755, 0.38077172636985779, 0.47270479798316956, 0.35895422101020813, 0.075343012809753418, 0.1061236783862114, 0.38626307249069214, 0.4264017641544342, 0.39473560452461243, -0.13668741285800934, 0.032738413661718369, 0.13491131365299225, -0.14166031777858734, 0.28867346048355103, 0.67717140913009644, 0.4275682270526886, 0.51306456327438354, 0.35245296359062195, -0.14619447290897369, 0.49514490365982056, 0.61246168613433838, 0.72187459468841553, 0.47963801026344299, 0.051119811832904816, 0.4853779673576355, 0.22071889042854309, 0.16595901548862457, 0.41437438130378723, 0.26290178298950195, 0.37207195162773132, 0.51106148958206177, 0.22936384379863739, 0.4764036238193512, -0.09076274186372757, 0.14205704629421234, 0.21846866607666016, 0.30075964331626892, 0.61830693483352661, 0.023948259651660919, 0.28908288478851318, 0.16478791832923889, -0.24991881847381592, 0.51336747407913208, -0.078685268759727478, 0.50489795207977295, -0.30439537763595581, 0.63056081533432007, 0.80699735879898071, -0.087680540978908539, 0.026667678728699684, 0.79358124732971191, 0.24491682648658752, 0.31131070852279663, 0.77738690376281738, 0.45126444101333618, 0.4459763765335083, 0.077771455049514771, 0.48234876990318298, 0.53034663200378418, 0.28214457631111145, 0.41028317809104919, 0.43765881657600403, 0.69007593393325806, 0.075727269053459167, 0.01272537000477314, -0.097743548452854156, 0.469716876745224, 0.52106994390487671, 0.34547606110572815, 0.35822790861129761, 0.06030910462141037, };
const TfArray<1, int> tensor_dimension27 = { 1, { 96 } };
const MODEL_SECTION(EI_MODEL_SECTION) ALIGN(16) float tensor_data28[96] = { 1.9851174354553223, 1.8978109359741211, 0.024184823036193848, -0.15011477470397949, -1.3698936700820923, -0.52830928564071655, -1.2189254760742188, 1.9257012605667114, 1.496524453163147, -0.32144355773925781, -0.0034230947494506836, -0.0036403536796569824, 1.4093989133834839, 0.16750970482826233, -0.14723512530326843, -3.1386184692382812, -0.21518099308013916, -0.00095328688621520996, 1.2312262058258057, -0.63152676820755005, 2.1635556221008301, -0.95118749141693115, 1.6304359436035156, -0.21981234848499298, -0.38676649332046509, -0.89387458562850952, 1.6258443593978882, 1.7613893747329712, -1.1137808561325073, -0.18456384539604187, 0.22035673260688782, 0.52992397546768188, -0.40626639127731323, -0.20061500370502472, -0.82071161270141602, -0.26656115055084229, -0.080105066299438477, -0.18821683526039124, -0.40426412224769592, 0.77604877948760986, 1.8886122703552246, 1.6754758358001709, 2.0177028179168701, -0.012377798557281494, 1.6731617450714111, 1.540719747543335, 0.84609806537628174, -0.11838090419769287, 0.0055021047592163086, -1.1631340980529785, -0.53645938634872437, -0.99404424428939819, -0.70062023401260376, 1.6158345937728882, -0.6731942892074585, 2.1998298168182373, -0.039820492267608643, 1.1556006669998169, 0.06932675838470459, -0.8669428825378418, 1.7686772346496582, -1.0097339153289795, 0.096269696950912476, 0.19684602320194244, 1.1142787933349609, -0.65552735328674316, -0.057274997234344482, 1.1641949415206909, 0.014580488204956055, 1.1622660160064697, -0.88218986988067627, -0.4880373477935791, -0.60139882564544678, -0.16802918910980225, 1.6779428720474243, 4.5647006034851074, -0.0094199776649475098, 1.6920108795166016, -0.2895427942276001, -1.3780688047409058, -0.68938183784484863, -0.94469887018203735, -1.519906759262085, -0.2420496940612793, 0.1987680196762085, 1.15491783618927, -0.07379014790058136, -0.29630285501480103, -0.33692416548728943, -0.51538735628128052, -0.25095358490943909, -0.297157883644104, 0.28740069270133972, -0.23059755563735962, -0.24074041843414307, -1.2919155359268188, };
const TfArray<1, int> tensor_dimension28 = { 1, { 96 } };
const MODEL_SECTION(EI_MODEL_SECTION) ALIGN(16) float tensor_data29[96] = { 0.32785528898239136, 0.83326572179794312, 0.61247932910919189, 0.10135557502508163, 0.12615102529525757, 0.21144288778305054, 0.084216050803661346, -0.069731853902339935, 0.53079915046691895, 0.16291891038417816, 0.33833709359169006, 0.24239209294319153, 0.24852848052978516, 0.46189552545547485, 0.69856274127960205, -0.067604847252368927, 0.53747618198394775, 0.34037971496582031, 0.284178227186203, 0.3974452018737793, 0.11522535979747772, 0.59203141927719116, 0.60809361934661865, 0.28006163239479065, 0.60632872581481934, -0.31910097599029541, -0.086717300117015839, 0.18601466715335846, 0.20623315870761871, -0.0052412976510822773, 0.39506420493125916, 0.33937078714370728, -0.23566949367523193, 0.32522371411323547, 0.095770321786403656, 0.1862669438123703, 0.099654160439968109, 0.14450298249721527, -0.002699835691601038, -0.33816799521446228, 0.15255412459373474, -0.022348370403051376, -0.10171716660261154, 0.11450381577014923, 0.60456764698028564, 0.32582768797874451, 0.10604514926671982, 0.5284426212310791, 0.23407328128814697, 0.44145539402961731, 0.17307212948799133, 0.65304863452911377, 0.48562219738960266, 0.36740210652351379, 0.10028151422739029, 0.1211535856127739, 0.73285114765167236, 0.5083281397819519, 0.41826722025871277, 0.35383808612823486, 0.27647405862808228, -0.11080367863178253, 0.27709737420082092, 0.13767075538635254, 0.67486447095870972, 0.22317284345626831, 0.24515855312347412, 0.42831429839134216, 0.30850720405578613, 0.72893941402435303, 0.18614305555820465, 0.34765315055847168, -0.18541477620601654, -0.026072114706039429, 0.042981300503015518, 0.025969548150897026, 0.15823139250278473, 0.33804738521575928, 0.36295664310455322, 0.25631052255630493, 0.40906432271003723, 0.25639611482620239, 0.22856885194778442, 0.074952222406864166, 0.30714559555053711, 0.53572201728820801, 0.39670184254646301, -0.14862076938152313, 0.51172006130218506, 0.66586518287658691, 0.15130086243152618, 0.90810579061508179, 0.14658921957015991, 0.22577525675296783, 0.20413881540298462, 0.3238598108291626, };
const TfArray<1, int> tensor_dimension29 = { 1, { 96 } };
const MODEL_SECTION(EI_MODEL_SECTION) ALIGN(16) float tensor_data30[96] = { -0.81586039066314697, -1.1390528678894043, -0.081874333322048187, 0.1623193621635437, 1.0963469743728638, -0.31133145093917847, 0.057969231158494949, 3.2192239761352539, 0.20339681208133698, 0.14301136136054993, 0.08026885986328125, -0.58143270015716553, 0.27594298124313354, -0.40743756294250488, -0.11798924207687378, 0.080119878053665161, -0.72853940725326538, 1.2600524425506592, -0.20695462822914124, 0.58187282085418701, -0.011024318635463715, -0.11530360579490662, 0.048505127429962158, 0.50987035036087036, 0.36969098448753357, 0.042475566267967224, 1.0108011960983276, -0.83715605735778809, -0.34663039445877075, -1.0244451761245728, -0.8548891544342041, -0.42467918992042542, 0.35017096996307373, -0.85734140872955322, 1.0490279197692871, -0.038371220231056213, -0.20465858280658722, -0.022267377004027367, -0.83275741338729858, -0.94972711801528931, -0.73075830936431885, -0.0078560113906860352, 0.25719907879829407, 1.3279309272766113, -0.45567727088928223, 1.304185152053833, 0.39884078502655029, -0.43835926055908203, -0.21462483704090118, -0.80765372514724731, 0.33121100068092346, -0.10287474095821381, 0.22236090898513794, 0.2663118839263916, -0.88577479124069214, 0.17894510924816132, 0.085063233971595764, 1.1533161401748657, -1.3757269382476807, -0.44989669322967529, -0.027550309896469116, 0.10285530984401703, 0.26640745997428894, -0.24665839970111847, 0.93955248594284058, 1.2064640522003174, 0.59558224678039551, -0.0041543245315551758, -1.1167709827423096, -0.68568539619445801, 0.23236280679702759, 0.01464080810546875, -0.00076588988304138184, -0.051088124513626099, -0.089534372091293335, -0.31871271133422852, -0.0078603103756904602, 0.05243287980556488, -0.062206089496612549, 0.2366863340139389, -0.43940836191177368, 0.36136612296104431, -0.18649016320705414, -0.074461281299591064, 0.092297077178955078, -0.32623636722564697, 0.40911808609962463, -0.51991480588912964, -0.25878584384918213, -0.54158556461334229, 1.7085332870483398, 1.9334843158721924, -0.38821735978126526, 0.18329943716526031, -0.059358358383178711, -0.31976062059402466, };
const TfArray<1, int> tensor_dimension30 = { 1, { 96 } };
const MODEL_SECTION(EI_MODEL_SECTION) ALIGN(16) float tensor_data31[96] = { 0.56429874897003174, 0.092253699898719788, 0.51339495182037354, 0.53003913164138794, 0.64756828546524048, 0.38208335638046265, 0.34261918067932129, 0.90899491310119629, -0.028576657176017761, 0.73542881011962891, 0.68975239992141724, 0.38860428333282471, 0.1026589497923851, 0.41012421250343323, 0.14171144366264343, 0.16193069517612457, 0.24357326328754425, 0.43569827079772949, 0.027774695307016373, 0.056395798921585083, 0.45133289694786072, 0.52049988508224487, -0.34836351871490479, 0.58336853981018066, 0.053405065089464188, 0.43580725789070129, -0.17100094258785248, -0.40753620862960815, 0.46525683999061584, 0.50418967008590698, 0.46233201026916504, 0.6455422043800354, 0.083452455699443817, 0.66930180788040161, 0.35715889930725098, 0.27352219820022583, 0.19055208563804626, 0.50794172286987305, 0.35863474011421204, 0.17778702080249786, 0.57414549589157104, 0.11387347429990768, -0.059678606688976288, 0.37101218104362488, 0.33580109477043152, 0.2047993391752243, -0.061573412269353867, 0.17304296791553497, -0.089099586009979248, -0.12893523275852203, 0.036155711859464645, 0.40444689989089966, 0.42004209756851196, 0.22747611999511719, 0.44276672601699829, 0.54059016704559326, 0.33756190538406372, -0.092988058924674988, 0.30476394295692444, 0.17352861166000366, 0.30618485808372498, 0.38720604777336121, 0.18571816384792328, 0.21772196888923645, 0.52413684129714966, -0.088356815278530121, 0.14321097731590271, 0.045942999422550201, 0.53135430812835693, 0.74849212169647217, -0.13128222525119781, 0.16462971270084381, 0.29532170295715332, 0.30982199311256409, -0.34779196977615356, 0.066836059093475342, -0.30899587273597717, 0.01336301676928997, 0.61227941513061523, 0.21110400557518005, 0.41095840930938721, 0.14776897430419922, 0.75905525684356689, 0.093995697796344757, 0.12889917194843292, 0.58193117380142212, -0.2306496798992157, 0.57199239730834961, 0.41800108551979065, 0.72575056552886963, 0.34510934352874756, 0.265867680311203, -0.1749473363161087, 0.47983139753341675, 0.33176147937774658, -0.11241123080253601, };
const TfArray<1, int> tensor_dimension31 = { 1, { 96 } };
const MODEL_SECTION(EI_MODEL_SECTION) ALIGN(16) float tensor_data32[96] = { -0.39432388544082642, -0.94407504796981812, -0.2557029128074646, -0.57198667526245117, 1.0606569051742554, -0.43954861164093018, 1.2036961317062378, 1.8653531074523926, 0.010346382856369019, 2.792938232421875, 0.30462974309921265, 1.850095272064209, -0.19067618250846863, -0.58500993251800537, 0.40766769647598267, -0.72302144765853882, -0.85075861215591431, 0.152298703789711, -0.017875745892524719, -0.621196448802948, 0.49893826246261597, 0.21659517288208008, -0.31772291660308838, -0.19483634829521179, 0.12296536564826965, 0.27463042736053467, -0.070696145296096802, -0.15354520082473755, -1.2301586866378784, 0.0090050473809242249, 2.2515959739685059, -0.15238140523433685, 0.029043518006801605, 1.3832811117172241, 0.33711636066436768, -0.088430874049663544, 0.71267873048782349, -0.62192004919052124, -0.062174528837203979, 0.47050762176513672, -0.59988850355148315, 0.7456430196762085, 0.60984760522842407, -0.16593599319458008, -0.97044241428375244, -1.1272882223129272, -0.82048702239990234, -0.68043297529220581, -0.76613324880599976, 0.012948580086231232, -0.20810385048389435, 0.34143543243408203, 0.11690652370452881, 0.39615026116371155, -0.31752407550811768, -0.89037138223648071, 0.002991851419210434, 2.0595617294311523, -0.75230777263641357, 0.074635595083236694, -0.53290075063705444, 0.67313116788864136, -0.033642992377281189, -0.041272580623626709, 0.38122469186782837, -0.87868714332580566, 1.3376761674880981, 0.28960934281349182, -0.53587090969085693, 1.7083877325057983, 2.8595888614654541, 0.19950985908508301, -0.34753704071044922, 1.2363382577896118, -0.4587099552154541, 1.1057484149932861, -2.7121818065643311, -1.5057820081710815, -0.24635934829711914, 0.39102405309677124, -3.737889289855957, 0.008253246545791626, -1.0092471837997437, -0.5584530234336853, -0.50979155302047729, 1.1250278949737549, 1.3389718532562256, -1.2020994424819946, 0.22028754651546478, 0.020061969757080078, -0.59389334917068481, 0.15702261030673981, 1.1836678981781006, -0.07707725465297699, -0.29053190350532532, -1.2352203130722046, };
const TfArray<1, int> tensor_dimension32 = { 1, { 96 } };
const MODEL_SECTION(EI_MODEL_SECTION) ALIGN(16) float tensor_data33[96] = { 0.059684153646230698, -0.091108165681362152, -0.23434406518936157, 0.66269564628601074, 0.49591705203056335, -0.31294974684715271, 0.13302581012248993, 0.85804039239883423, 0.37775209546089172, 0.70346558094024658, 0.44613796472549438, 0.75947767496109009, 0.38558065891265869, 0.73902034759521484, -0.48024919629096985, 0.83204036951065063, 0.59590238332748413, 0.75295746326446533, 0.30648082494735718, 0.31628850102424622, 0.27747276425361633, 0.0051744659431278706, 0.68872517347335815, -0.38040176033973694, 0.81671386957168579, 0.83517789840698242, 0.29913267493247986, 0.29323413968086243, -0.029963681474328041, -0.29897195100784302, -0.16746708750724792, -0.15751403570175171, -0.10497811436653137, 0.7001880407333374, 0.3412136435508728, 0.7116544246673584, 1.0061955451965332, -0.088756829500198364, 0.51162832975387573, 0.55518043041229248, 0.17020751535892487, -0.20017638802528381, 0.19189594686031342, 0.41819816827774048, 0.51477605104446411, -0.30272650718688965, 0.31601390242576599, 0.35559093952178955, -0.01633831113576889, 0.55204659700393677, 0.20811706781387329, 0.45023444294929504, 0.10753811150789261, 0.22106409072875977, -0.12837430834770203, 0.38593685626983643, -0.050365723669528961, 0.1313587874174118, 0.42882075905799866, 0.38443616032600403, 0.5042375922203064, 0.14821451902389526, -0.064425580203533173, 0.46253448724746704, 0.59112989902496338, 0.0088355829939246178, 0.65417850017547607, 0.48565483093261719, 0.52354985475540161, 0.67394644021987915, -0.10339383780956268, 0.6065903902053833, 0.40289226174354553, -0.24451945722103119, 0.20221392810344696, 0.36959198117256165, 0.20818199217319489, 0.32871803641319275, -0.18027080595493317, -0.17285072803497314, 0.18258459866046906, 0.26437783241271973, -0.35697484016418457, 0.36620369553565979, 0.83541679382324219, -0.26481026411056519, 0.59935551881790161, -0.15328167378902435, 0.051317270845174789, 0.72911006212234497, 0.78408920764923096, 0.30744242668151855, 0.44168618321418762, 0.28255316615104675, 0.90788209438323975, 0.54379355907440186, };
const TfArray<1, int> tensor_dimension33 = { 1, { 96 } };
const MODEL_SECTION(EI_MODEL_SECTION) ALIGN(16) float tensor_data34[96] = { -0.10789293050765991, 2.7531836032867432, 2.9799318313598633, -0.43005096912384033, -0.44781804084777832, 0.056158363819122314, -0.49468737840652466, -0.17142999172210693, -0.0074326395988464355, -0.2179490327835083, 1.3898581266403198, -0.61192977428436279, -0.67794442176818848, 2.0815463066101074, 0.76138186454772949, 0.05055256187915802, 1.5948029756546021, 2.9912948608398438, -0.62459540367126465, -0.17158171534538269, -0.42945551872253418, -0.022835671901702881, 2.4392209053039551, 1.8315489292144775, 0.59782516956329346, 0.093534059822559357, -0.43701985478401184, 3.6483299732208252, 2.9100532531738281, 1.4200477600097656, 1.3521400690078735, 1.7850610017776489, -0.05071026086807251, -0.42578345537185669, 2.0447196960449219, 2.6323816776275635, 4.512359619140625, -1.067643404006958, -0.069187462329864502, -1.3301934003829956, 3.7734522819519043, -0.68396234512329102, -0.033833444118499756, -1.1257274150848389, -0.15068525075912476, -0.061504960060119629, 1.0738152265548706, -0.030673503875732422, 2.056330680847168, -0.58467859029769897, 1.8488748073577881, 3.3553926944732666, 0.15511798858642578, -0.58284789323806763, -0.008101344108581543, -0.65300554037094116, -0.11892762780189514, 0.83332788944244385, 1.770722508430481, -0.27978745102882385, 1.6948957443237305, -0.052254587411880493, -0.2228558212518692, -4.1300263404846191, 2.8942184448242188, 0.96834045648574829, -1.3768376111984253, -0.44163092970848083, -0.3902963399887085, 1.6692074537277222, -0.011020362377166748, -0.3951917290687561, 2.0805518627166748, 1.5341635942459106, 1.8910202980041504, -1.0875123739242554, -0.25215938687324524, -1.3370440006256104, -0.27727246284484863, -0.48095050454139709, 1.4134179353713989, -0.32532978057861328, -0.47098380327224731, 1.0561604499816895, -2.1439123153686523, 1.6716296672821045, 0.34796023368835449, -1.7686389684677124, 2.9095981121063232, 2.3558893203735352, 1.2137860059738159, 1.8900315761566162, 4.0891628265380859, 1.3562393188476562, 1.5329599380493164, 2.2628922462463379, };
const TfArray<1, int> tensor_dimension34 = { 1, { 96 } };
const MODEL_SECTION(EI_MODEL_SECTION) ALIGN(16) float tensor_data35[1280] = { -0.22434608638286591, -0.047235868871212006, -0.13124357163906097, -0.16206052899360657, -0.49510395526885986, -0.22655141353607178, -0.34353795647621155, -0.2414994090795517, -0.21933317184448242, -0.44561246037483215, -0.50466424226760864, -0.17374239861965179, -0.36344301700592041, 0.022578677162528038, -0.19862605631351471, -0.18504917621612549, -0.11916378140449524, -0.21998965740203857, -0.22119325399398804, -0.15810585021972656, -0.30267903208732605, -0.17072053253650665, -0.20208032429218292, -0.079606823623180389, -0.30866259336471558, -0.26284042000770569, -0.26512455940246582, -0.1045529916882515, -0.38151547312736511, -0.51660829782485962, 0.017019003629684448, -0.35483872890472412, -0.25182276964187622, -0.2971387505531311, -0.26315692067146301, -0.37414169311523438, -0.16660404205322266, -0.057561144232749939, -0.079005412757396698, -0.24693895876407623, -0.28505444526672363, -0.14225530624389648, -0.41421902179718018, -0.41640543937683105, -0.13297893106937408, -0.19372205436229706, -0.16109466552734375, -0.30689305067062378, -0.39935636520385742, -0.32888761162757874, -0.0069106612354516983, -0.23851987719535828, -0.26881927251815796, -0.32599335908889771, -0.27957496047019958, 0.022875403985381126, 0.058894500136375427, 0.063201986253261566, -0.14402110874652863, -0.17619864642620087, -0.38222667574882507, -0.39829406142234802, -0.25063049793243408, -0.24319212138652802, -0.3787027895450592, -0.067453168332576752, -0.25182023644447327, -0.17619912326335907, -0.087001979351043701, -0.53289264440536499, -0.36706367135047913, -0.3375457227230072, -0.1776072233915329, -0.40311825275421143, 0.077911823987960815, -0.054404892027378082, -0.10250228643417358, -0.03367287665605545, -0.21057726442813873, -0.24180112779140472, -0.28816679120063782, -0.13637621700763702, -0.066210828721523285, -0.44686487317085266, -0.31983780860900879, -0.29965046048164368, -0.29754438996315002, -0.068236202001571655, -0.11972910165786743, -0.22280071675777435, -0.53667962551116943, -0.17031826078891754, -0.14703953266143799, -0.61110818386077881, -0.10227478295564651, -0.053321290761232376, -0.37126618623733521, -0.052858337759971619, -0.14353974163532257, -0.30833858251571655, -0.15552559494972229, -0.35607254505157471, -0.29088518023490906, -0.18571285903453827, -0.31341853737831116, -0.27433407306671143, -0.12161649018526077, -0.043312579393386841, -0.46315643191337585, -0.087820708751678467, -0.11849416047334671, -0.27481028437614441, -0.29737859964370728, -0.12141874432563782, -0.26001706719398499, -0.11782987415790558, -0.28206846117973328, -0.07105584442615509, -0.2158849686384201, -0.30553185939788818, -0.098015889525413513, -0.28959399461746216, -0.35365757346153259, -0.19318908452987671, -0.41780447959899902, -0.066632270812988281, -0.22535982728004456, -0.15752561390399933, -0.31037521362304688, -0.1844245046377182, -0.43878889083862305, -0.40693399310112, -0.23821611702442169, -0.27982819080352783, -0.56401818990707397, -0.16102276742458344, -0.32620325684547424, -0.22062595188617706, -0.29138109087944031, -0.23575778305530548, -0.40598097443580627, -0.099395789206027985, -0.029918886721134186, -0.33176532387733459, -0.45293501019477844, -0.16862054169178009, 0.066694155335426331, -0.12115596979856491, -0.053610041737556458, -0.1239139586687088, -0.15878032147884369, -0.13539512455463409, -0.21662914752960205, -0.41044142842292786, -0.31821984052658081, -0.25637704133987427, -0.19139295816421509, -0.30110162496566772, -0.17256872355937958, -0.32732489705085754, -0.35362663865089417, -0.4063173234462738, -0.17118723690509796, -0.17504259943962097, -0.27430239319801331, -0.4515136182308197, -0.39568245410919189, -0.023449577391147614, -0.086869105696678162, -0.50086879730224609, -0.2024507075548172, -0.0047726328484714031, -0.39382621645927429, -0.4412224292755127, -0.35065409541130066, -0.092308416962623596, -0.12632431089878082, -0.60013586282730103, -0.2689841091632843, -0.068737827241420746, -0.032835822552442551, -0.055267117917537689, -0.35354384779930115, -0.20113708078861237, -0.089442677795886993, -0.12843874096870422, -0.20609161257743835, -0.37991967797279358, -0.36987432837486267, -0.16491827368736267, -0.28955814242362976, -0.11231999099254608, -0.23521852493286133, -0.25644034147262573, -0.12521436810493469, -0.2964569628238678, 3.6695957533083856e-05, -0.20280762016773224, -0.51087141036987305, 0.040324881672859192, -0.31683260202407837, 0.0073373732157051563, -0.15635073184967041, -0.56886917352676392, 0.0056308349594473839, -0.19676801562309265, -0.29779735207557678, -0.088321231305599213, -0.48330655694007874, -0.081390462815761566, -0.49754065275192261, -0.37323719263076782, -0.34422224760055542, 0.0058708293363451958, -0.54315304756164551, -0.073744192719459534, -0.54953789710998535, -0.097696401178836823, -0.1109316349029541, -0.33653998374938965, 0.012314323335886002, -0.34504657983779907, -0.45213517546653748, -0.3049004077911377, -0.42283180356025696, -0.54315400123596191, -0.34765174984931946, 0.06326458603143692, 0.061685781925916672, -0.41186004877090454, -0.33188652992248535, -0.49015036225318909, -0.53186917304992676, -0.20181547105312347, -0.26927226781845093, -0.095680557191371918, -0.42491587996482849, -0.18427832424640656, -0.46617117524147034, 0.0050630639307200909, -0.37147349119186401, -0.31123340129852295, -0.21518322825431824, -0.1469506174325943, -0.33835718035697937, -0.34795647859573364, -0.22494035959243774, -0.19786658883094788, -0.039858799427747726, 0.047401156276464462, -0.13407248258590698, -0.4052639901638031, -0.2964421808719635, -0.05270015075802803, -0.32092776894569397, -0.1459164023399353, -0.051127701997756958, -0.49708235263824463, -0.3290635347366333, -0.28572425246238708, -0.5081031322479248, -0.29103341698646545, -0.11258593201637268, 0.096274338662624359, -0.082161098718643188, -0.32845696806907654, -0.40725716948509216, 0.092779099941253662, -0.16830919682979584, -0.077148772776126862, -0.13536952435970306, -0.21397130191326141, 0.2149798721075058, -0.66745758056640625, -0.19864958524703979, -0.093484163284301758, 0.043764475733041763, 0.053354401141405106, -0.36470472812652588, 0.25287497043609619, 0.090618595480918884, -0.0047264606691896915, -0.45897120237350464, -0.54902142286300659, -0.44526225328445435, -0.26926502585411072, -0.25561314821243286, -0.26923480629920959, -0.50070172548294067, -0.11777474731206894, -0.20079877972602844, -0.086403429508209229, 0.044655453413724899, -0.23351156711578369, -0.21944670379161835, -0.052114076912403107, -0.27487444877624512, -0.032753802835941315, -0.62840861082077026, -0.29967880249023438, 0.11597119271755219, -0.26298019289970398, -0.34133777022361755, -0.32821512222290039, -0.040571168065071106, -0.11474554985761642, -0.30945649743080139, -0.16945593059062958, -0.4184843897819519, -0.30165970325469971, -0.035875450819730759, -0.20883011817932129, -0.38086915016174316, -0.098685316741466522, -0.20573663711547852, -0.21801820397377014, 0.033832453191280365, -0.31613758206367493, -0.25661903619766235, -0.35930857062339783, -0.44530349969863892, -0.075462058186531067, -0.25170272588729858, 0.028811894357204437, -0.34407839179039001, -0.18020612001419067, 0.0034334976226091385, -0.15418967604637146, -0.47824355959892273, -0.35142779350280762, -0.035913079977035522, -0.1782931387424469, -0.14559416472911835, -0.17906491458415985, -0.27161711454391479, -0.2392219752073288, -0.33010593056678772, -0.61625611782073975, -0.074697472155094147, -0.11912593245506287, -0.45662587881088257, -0.22829191386699677, -0.41370081901550293, -0.19249650835990906, -0.29865172505378723, -0.33122602105140686, -0.2497384250164032, -0.34496954083442688, -0.12080759555101395, -0.20357131958007812, 0.14956429600715637, -0.25542372465133667, 0.040162436664104462, -0.38324898481369019, -0.086121752858161926, -0.17081622779369354, -0.30055668950080872, -0.10850811004638672, -0.10141530632972717, -0.36439388990402222, 0.00072808569530025125, -0.030611395835876465, -0.2062484472990036, -0.21314160525798798, -0.36999842524528503, -0.24651561677455902, 0.027896720916032791, -0.16467823088169098, -0.19879157841205597, -0.30911922454833984, -0.255167156457901, -0.44906157255172729, -0.56049102544784546, 0.11813795566558838, -0.32410404086112976, 0.20569539070129395, -0.18850542604923248, -0.27406427264213562, -0.39869752526283264, -0.39502450823783875, -0.21930275857448578, -0.18386776745319366, -0.12811355292797089, -0.21065418422222137, -0.11569307744503021, -0.38612326979637146, -0.26062041521072388, -0.27381443977355957, -0.23175857961177826, -0.3513047993183136, -0.1694837212562561, -0.012874457985162735, -0.22263455390930176, -0.29301312565803528, -0.040886513888835907, -0.32583063840866089, -0.059616565704345703, 0.20797568559646606, -0.21724939346313477, -0.13488863408565521, -0.33164018392562866, -0.15674254298210144, -0.075511403381824493, -0.075386054813861847, -0.25041863322257996, -0.24361743032932281, -0.39754492044448853, -0.22145186364650726, -0.22740098834037781, -0.11989596486091614, -0.38540643453598022, -0.077672697603702545, -0.12392392009496689, -0.23329488933086395, -0.31056162714958191, -0.24023078382015228, -0.11371523141860962, -0.1545165479183197, -0.1095392256975174, -0.35772573947906494, -0.41968822479248047, -0.55208522081375122, -0.19504664838314056, -0.15673001110553741, -0.280292809009552, -0.12420798093080521, -0.54930096864700317, -0.36413991451263428, -0.29159820079803467, 0.033119063824415207, -0.62003910541534424, -0.42093130946159363, -0.27126175165176392, -0.32113054394721985, 0.0031042199116200209, -0.27455458045005798, -0.035296168178319931, 0.13754506409168243, -0.29152005910873413, -0.34856352210044861, -0.19801121950149536, -0.053393721580505371, -0.43501424789428711, -0.26926323771476746, -0.10741599649190903, -0.1263168603181839, -0.11978267133235931, -0.26691699028015137, 0.21730858087539673, -0.09875844419002533, -0.24506902694702148, -0.46245300769805908, -0.31876632571220398, -0.1825857013463974, -0.15925353765487671, -0.47675338387489319, -0.098204866051673889, -0.37025707960128784, -0.077221512794494629, -0.081753946840763092, -0.12273283302783966, -0.13609820604324341, -0.41870185732841492, -0.16863037645816803, -0.41392269730567932, -0.20370081067085266, -0.10983584821224213, -0.33208748698234558, -0.22133612632751465, -0.22899124026298523, -0.046943843364715576, -0.33145338296890259, -0.34310010075569153, -0.14807724952697754, -0.56599879264831543, -0.06151282787322998, -0.33254155516624451, -0.14126051962375641, -0.3083878755569458, -0.13737921416759491, -0.051810827106237411, 0.036411203444004059, -0.10682950913906097, -0.014005396515130997, -0.11949578672647476, -0.27364769577980042, -0.40331631898880005, 0.026355987414717674, -0.23719139397144318, -0.19609726965427399, -0.38944211602210999, -0.065080173313617706, -0.30878087878227234, -0.16286776959896088, -0.30990538001060486, -0.47822514176368713, -0.13976998627185822, -0.25415602326393127, -0.13161928951740265, -0.092395670711994171, -0.11759484559297562, -0.074399642646312714, -0.38950353860855103, -0.35172298550605774, -0.16203755140304565, 0.04203004390001297, -0.12645412981510162, -0.13513034582138062, -0.49831607937812805, -0.3016849160194397, -0.063500955700874329, -0.12823016941547394, -0.27047047019004822, -0.061559457331895828, -0.40847229957580566, -0.12871494889259338, -0.23699770867824554, -0.10477438569068909, -0.10809426754713058, -0.30323129892349243, -0.14940176904201508, -0.2119496762752533, 0.064707867801189423, -0.049271993339061737, -0.11112024635076523, -0.26394960284233093, -0.010445747524499893, -0.29275268316268921, -0.23889820277690887, -0.01568186841905117, 0.12809719145298004, -0.29867175221443176, -0.21184436976909637, -0.10638778656721115, 0.033977676182985306, -0.32663223147392273, -0.060344267636537552, -0.53568869829177856, -0.18516509234905243, -0.44300267100334167, -0.13365520536899567, -0.20823673903942108, -0.24143572151660919, -0.2567506730556488, -0.45262050628662109, -0.022601976990699768, -0.093997254967689514, -0.14914773404598236, -0.30443322658538818, -0.076746553182601929, -0.25120085477828979, 0.17903074622154236, 0.05727655440568924, -0.29266834259033203, -0.34353780746459961, -0.23240174353122711, -0.19346693158149719, -0.14316041767597198, -0.20514808595180511, -0.20389440655708313, -0.37133002281188965, 0.15683118999004364, -0.13709880411624908, -0.2255915105342865, -0.30166739225387573, -0.40050399303436279, -0.16869930922985077, -0.44089528918266296, -0.26498430967330933, 0.2313484400510788, -0.16146594285964966, -0.33483520150184631, -0.32785812020301819, -0.17072641849517822, -0.1857839822769165, -0.23269851505756378, -0.047087695449590683, -0.14098484814167023, -0.22206728160381317, -0.32543489336967468, -0.29671859741210938, -0.43902641534805298, -0.20618818700313568, -0.35241389274597168, -0.30966353416442871, -0.34696757793426514, -0.36814022064208984, -0.26531451940536499, -0.29319080710411072, -0.26902145147323608, -0.33170977234840393, -0.42219451069831848, -0.42353707551956177, -0.15689902007579803, -0.33831682801246643, -0.47480103373527527, -0.19300135970115662, -0.14799933135509491, -0.47441267967224121, -0.25777387619018555, -0.017329951748251915, -0.26410755515098572, -0.31587404012680054, -0.25578776001930237, -0.30638429522514343, -0.32412105798721313, -0.2302546501159668, -0.027114279568195343, -0.52825278043746948, -0.12710852921009064, -0.1953091025352478, 0.051730666309595108, -0.48501190543174744, -0.28819137811660767, -0.37839815020561218, -0.11690279096364975, -0.34172427654266357, -0.53282201290130615, -0.072928190231323242, -0.26002120971679688, -0.26330283284187317, -0.14343118667602539, -0.098948255181312561, -0.13801209628582001, -0.03018568642437458, -0.42337992787361145, -0.41411083936691284, -0.18480433523654938, -0.13172212243080139, -0.081462278962135315, -0.13014349341392517, -0.30518439412117004, -0.29730930924415588, -0.10448116064071655, -0.28459799289703369, -0.29269376397132874, -0.19107420742511749, -0.03101564384996891, -0.22429390251636505, -0.5149044394493103, -0.66748046875, -0.17627845704555511, -0.34489470720291138, -0.76567429304122925, -0.19586826860904694, -0.31342494487762451, -0.23534134030342102, -0.46006101369857788, -0.18036280572414398, -0.25336748361587524, -0.11009224504232407, -0.22839713096618652, -0.20013679563999176, -0.11523037403821945, -0.24287915229797363, -0.12413652241230011, -0.25119847059249878, -0.15112514793872833, -0.29936221241950989, -0.033139586448669434, -0.15254411101341248, -0.28473842144012451, -0.14890316128730774, -0.078957900404930115, -0.12236818671226501, -0.053857870399951935, -0.20407257974147797, -0.28263899683952332, -0.40514585375785828, -0.048156760632991791, -0.3087887167930603, -0.49089062213897705, -0.2013973742723465, -0.33250010013580322, -0.24463026225566864, -0.23428954184055328, -0.39634093642234802, -0.031678114086389542, -0.13727924227714539, -0.36668920516967773, -0.21213077008724213, -0.27796247601509094, -0.36038601398468018, -0.15944813191890717, -0.31622946262359619, -0.22148829698562622, -0.47682282328605652, -0.3622366189956665, -0.11614775657653809, -0.30921214818954468, -0.1022273376584053, -0.46593067049980164, 0.012370487675070763, -0.17262677848339081, -0.065831109881401062, -0.33638778328895569, -0.077909618616104126, -0.15164464712142944, -0.23731261491775513, -0.2154650092124939, -0.067935444414615631, -0.059406716376543045, -0.024969687685370445, -0.23384661972522736, -0.43612292408943176, -0.55737912654876709, -0.21617428958415985, -0.10144481062889099, -0.0077382507734000683, 0.067135907709598541, -0.47233080863952637, -0.48642781376838684, -0.25933846831321716, -0.44389697909355164, -0.21930457651615143, -0.15431128442287445, -0.35264447331428528, -0.20345041155815125, -0.17104978859424591, -0.095885463058948517, -0.53506261110305786, -0.26972419023513794, -0.68875372409820557, -0.25209677219390869, -0.12286786735057831, -0.15882323682308197, -0.094249546527862549, -0.25214961171150208, -0.24335005879402161, -0.23501864075660706, 0.025715077295899391, -0.26440107822418213, -0.43694916367530823, -0.34317502379417419, -0.20030033588409424, 0.066845588386058807, -0.4349653422832489, -0.13624109327793121, -0.30224686861038208, -0.13311964273452759, 0.11892174184322357, -0.0445428267121315, -0.064895875751972198, -0.240801602602005, 0.060157414525747299, -0.1133287325501442, -0.49017903208732605, -0.34039270877838135, -0.36985540390014648, 0.2379579097032547, -0.30628377199172974, -0.23501324653625488, -0.12166519463062286, -0.31838220357894897, -0.1067223846912384, -0.32407733798027039, 0.037690702825784683, -0.073727555572986603, -0.45895290374755859, 0.063319608569145203, -0.19837787747383118, -0.12138950079679489, -0.49080395698547363, -0.20174770057201385, -0.029900204390287399, -0.37630096077919006, -0.29965990781784058, -0.058715552091598511, -0.33948692679405212, -0.18204572796821594, 0.061271131038665771, -0.094194225966930389, -0.30266687273979187, -0.22864773869514465, 0.043808963149785995, -0.15140767395496368, 0.10834716260433197, -0.069880120456218719, -0.14269523322582245, -0.057358495891094208, -0.19519391655921936, -0.41733831167221069, 0.014927070587873459, -0.32473981380462646, -0.2354561984539032, -0.066667795181274414, -0.23458351194858551, -0.36097121238708496, -0.1530289500951767, -0.0069633335806429386, -0.47719988226890564, -0.094113811850547791, -0.019975204020738602, -0.10938981920480728, -0.21003510057926178, -0.31208148598670959, -0.13731659948825836, -0.32223951816558838, -0.12320145964622498, -0.092227652668952942, -0.092594504356384277, -0.44631999731063843, -0.13419252634048462, -0.40681847929954529, -0.068999551236629486, -0.21784833073616028, -0.32759401202201843, -0.037703856825828552, -0.15735945105552673, -0.17867466807365417, 0.19593285024166107, -0.13270764052867889, -0.077138878405094147, -0.20709407329559326, -0.034587766975164413, -0.16718068718910217, -0.37914383411407471, -0.18846581876277924, -0.24685122072696686, -0.29898759722709656, -0.058618560433387756, -0.0099070407450199127, -0.18831914663314819, -0.075674764811992645, -0.14990164339542389, 0.0062507102265954018, -0.35877743363380432, -0.28249213099479675, -0.14391665160655975, -0.39289605617523193, -0.33033522963523865, -0.26179537177085876, 0.17789024114608765, -0.064939923584461212, -0.13738730549812317, -0.3754040002822876, -0.42712748050689697, -0.23823441565036774, -0.24442391097545624, -0.28091129660606384, -0.16094617545604706, -0.22215050458908081, -0.16022378206253052, -0.5578761100769043, -0.095571085810661316, 0.047120645642280579, -0.28007039427757263, -0.061813849955797195, 0.065579578280448914, -0.14199675619602203, -0.2384239137172699, -0.14972510933876038, -0.19207717478275299, -0.21204735338687897, -0.48499765992164612, -0.20173856616020203, -0.066286548972129822, 0.074383772909641266, -0.37307855486869812, -0.11531920731067657, -0.17782025039196014, -0.35368868708610535, -0.3826194703578949, -0.49203976988792419, -0.026282673701643944, -0.17119716107845306, -0.55801886320114136, -0.37363737821578979, -0.28437817096710205, -0.42455744743347168, -0.014162201434373856, -0.099126890301704407, -0.17708501219749451, -0.37819567322731018, -0.0055133197456598282, -0.34009814262390137, -0.29559466242790222, -0.45366835594177246, -0.39594244956970215, -0.24204683303833008, -0.20594121515750885, -0.29324936866760254, -0.22573579847812653, -0.19983784854412079, -0.40829604864120483, 0.047323435544967651, -0.25893205404281616, -0.34502014517784119, -0.22369350492954254, -0.016301324591040611, -0.26596227288246155, -0.12942487001419067, -0.24982434511184692, -0.10545358806848526, -0.17321081459522247, -0.10895654559135437, -0.16232205927371979, -0.54320687055587769, -0.43547767400741577, -0.1230362132191658, -0.10398929566144943, -0.29068362712860107, -0.13400769233703613, -0.22782765328884125, -0.095925197005271912, -0.23410943150520325, -0.33523771166801453, -0.42368531227111816, -0.21759623289108276, -0.045864254236221313, -0.48392397165298462, -0.029075592756271362, -0.49194628000259399, -0.13338887691497803, -0.21477296948432922, -0.31197929382324219, -0.29102128744125366, 0.21890917420387268, -0.21411779522895813, -0.2903113067150116, -0.26581805944442749, -0.27059847116470337, -0.36021381616592407, -0.280140221118927, -0.036327794194221497, -0.24131791293621063, -0.23831319808959961, -0.20314317941665649, -0.3417915403842926, -0.079536408185958862, -0.11634019017219543, -0.18279804289340973, -0.24121105670928955, -0.15252475440502167, -0.12309274077415466, -0.25026419758796692, -0.49182805418968201, -0.29216241836547852, -0.15846697986125946, -0.44633942842483521, -0.12008277326822281, -0.62000405788421631, -0.52754908800125122, -0.090068399906158447, -0.51927626132965088, -0.44499176740646362, -0.29726576805114746, -0.40258994698524475, -0.13687767088413239, -0.20061880350112915, -0.31450521945953369, -0.1853240579366684, -0.089723363518714905, -0.21598117053508759, -0.0096483500674366951, -0.0021311496384441853, -0.2608579695224762, -0.14496774971485138, -0.34102234244346619, -0.038821376860141754, -0.17042510211467743, -0.36246117949485779, -0.43736028671264648, -0.016666572540998459, -0.30702453851699829, -0.18667572736740112, -0.42268022894859314, 0.20376083254814148, -0.16519559919834137, -0.19487416744232178, -0.26342633366584778, -0.47011411190032959, -0.15981432795524597, 0.066798627376556396, -0.2058485746383667, -0.15031863749027252, -0.33934047818183899, -0.17573490738868713, 0.012041876092553139, -0.18942686915397644, -0.18083652853965759, -0.18795192241668701, -0.26146671175956726, -0.31481495499610901, -0.30386734008789062, -0.35739433765411377, 0.090456403791904449, 0.021588476374745369, 0.26372301578521729, -0.1145220547914505, -0.43988871574401855, -0.18206439912319183, -0.52680563926696777, -0.36344781517982483, -0.29168185591697693, -0.044815760105848312, 0.1163158044219017, -0.10084053128957748, -0.21837528049945831, -0.010779597796499729, -0.46668952703475952, -0.22833043336868286, -0.31297621130943298, -0.23888754844665527, -0.19760653376579285, -0.34356075525283813, -0.043050531297922134, -0.13002473115921021, -0.061102300882339478, -0.18021559715270996, -0.18905358016490936, -0.020459670573472977, -0.24430267512798309, -0.48676770925521851, -0.65829604864120483, -0.05515647679567337, 0.18205380439758301, 0.047904208302497864, -0.3354509174823761, -0.049208536744117737, 0.31125622987747192, -0.28132900595664978, -0.28151342272758484, -0.17906270921230316, -0.43629208207130432, -0.12213479727506638, 0.018030731007456779, -0.22373116016387939, -0.071641601622104645, -0.27269250154495239, -0.20293731987476349, -0.0089176297187805176, -0.17345370352268219, -0.22318360209465027, -0.19966632127761841, -0.1465192586183548, -0.24372829496860504, -0.098678797483444214, 0.67617112398147583, -0.34671610593795776, -0.094818457961082458, -0.43719500303268433, -0.24845211207866669, -0.35741409659385681, -0.39257985353469849, -0.55757719278335571, -0.28400209546089172, -0.19048051536083221, -0.18511879444122314, -0.029070809483528137, -0.13347449898719788, -0.14044727385044098, -0.17795881628990173, -0.50696200132369995, -0.10386583209037781, -0.19656305015087128, -0.69611150026321411, -0.37889197468757629, -0.22953991591930389, -0.56719410419464111, -0.27428260445594788, -0.23081925511360168, -0.79030019044876099, -0.33475565910339355, -0.39140209555625916, -0.25059527158737183, -0.3210395872592926, -0.27323088049888611, -0.17566496133804321, -0.3633732795715332, -0.54203927516937256, -0.093647509813308716, -0.28943407535552979, -0.19984793663024902, -0.35248827934265137, -0.33184278011322021, -0.22384393215179443, 0.24761892855167389, 0.084383748471736908, -0.60030102729797363, -0.53837448358535767, -0.22775876522064209, -0.26430171728134155, -0.15598990023136139, -0.41103681921958923, 0.041851557791233063, -0.31999450922012329, -0.26293370127677917, -0.4353078305721283, -0.25560280680656433, -0.22633069753646851, 0.0066313310526311398, -0.18137390911579132, 0.13154935836791992, -0.20543739199638367, -0.35608863830566406, -0.34579512476921082, -0.11337874084711075, -0.10478793084621429, -0.29430609941482544, -0.20668591558933258, 0.049997899681329727, -0.056300289928913116, 0.024918068200349808, -0.097154989838600159, -0.37864595651626587, -0.35052818059921265, -0.21656858921051025, -0.10190530866384506, -0.15632706880569458, -0.084173455834388733, -0.25592026114463806, -0.4109819233417511, -0.32791814208030701, -0.28878867626190186, -0.30354580283164978, -0.06909468024969101, -0.29299843311309814, 0.061969786882400513, -0.45843943953514099, -0.18839424848556519, -0.32983657717704773, -0.29049497842788696, -0.26692003011703491, -0.038323372602462769, -0.23369044065475464, -0.40816518664360046, -0.26500451564788818, -0.18008497357368469, -0.41315510869026184, -0.26490277051925659, -0.43500041961669922, -0.43792545795440674, -0.080803729593753815, 0.095971174538135529, -0.17505690455436707, 0.049989320337772369, -0.73434770107269287, -0.15858551859855652, -0.16779822111129761, -0.36633399128913879, -0.32104766368865967, -0.24955439567565918, -0.36950194835662842, -0.34423056244850159, -0.20178258419036865, -0.058107402175664902, -0.43291762471199036, -0.030118327587842941, -0.12839625775814056, -0.5017666220664978, -0.20513878762722015, -0.39230114221572876, -0.16966380178928375, -0.54848837852478027, -0.11928797513246536, -0.29941040277481079, -0.28618472814559937, -0.16841435432434082, -0.21955239772796631, -0.041603315621614456, -0.065477415919303894, -0.28121921420097351, -0.11883495002985001, 0.1001044437289238, -0.31946468353271484, -0.041246052831411362, -0.17614933848381042, -0.28653079271316528, -0.29312995076179504, -0.13282443583011627, 0.0071902470663189888, -0.044836100190877914, -0.18552727997303009, -0.27955466508865356, -0.44223237037658691, -0.19709253311157227, -0.34953570365905762, -0.12795393168926239, -0.31119316816329956, 0.26425653696060181, -0.36857971549034119, -0.25309041142463684, 0.031214743852615356, -0.11528556048870087, -0.38364812731742859, -0.089973635971546173, -0.014450334943830967, -0.45504394173622131, -0.044992633163928986, -0.32123482227325439, -0.24923346936702728, -0.083322808146476746, -0.31643342971801758, -0.33351904153823853, -0.25800108909606934, -0.22557893395423889, -0.29394564032554626, 0.05584600567817688, -0.38711303472518921, -0.30676412582397461, -0.24852228164672852, -0.32259669899940491, -0.37879204750061035, 0.13080444931983948, -0.44879803061485291, -0.13697424530982971, -0.2589317262172699, -0.079709529876708984, -0.17895351350307465, -0.15853281319141388, -0.30919352173805237, -0.31206473708152771, -0.29994073510169983, -0.22632969915866852, -0.21821802854537964, -0.27452561259269714, -0.20513615012168884, -0.12867580354213715, -0.29747998714447021, -0.079759582877159119, -0.099355213344097137, -0.30635282397270203, -0.4220481812953949, -0.36298543214797974, -0.32219362258911133, -0.4319574236869812, -0.15384584665298462, -0.39573264122009277, -0.13593406975269318, -0.40853506326675415, -0.22400151193141937, -0.059604648500680923, -0.36673420667648315, -0.45732095837593079, -0.17633065581321716, -0.37357234954833984, -0.12620694935321808, -0.17797568440437317, 0.070726640522480011, 0.016552336513996124, -0.21678753197193146, -0.14961628615856171, -0.10909373313188553, -0.010761658661067486, -0.093736529350280762, -0.13208383321762085, -0.16563281416893005, -0.67207133769989014, -0.22620031237602234, -0.41155347228050232, -0.27353063225746155, -0.10654382407665253, -0.14505580067634583, 0.10907363146543503, 0.010649232193827629, -0.26833850145339966, 0.019353825598955154, -0.18259552121162415, -0.40663406252861023, -0.13778291642665863, -0.2797415554523468, -0.045410994440317154, -0.28233757615089417, -0.097008630633354187, -0.39938768744468689, -0.078015051782131195, -0.11104780435562134, -0.48187288641929626, -0.26402482390403748, -0.1280171275138855, -0.43196350336074829, -0.59656596183776855, -0.56267404556274414, -0.26027047634124756, -0.27058449387550354, -0.099500253796577454, -0.29258435964584351, -0.22344370186328888, -0.41644260287284851, };
const TfArray<1, int> tensor_dimension35 = { 1, { 1280 } };
const MODEL_SECTION(EI_MODEL_SECTION) ALIGN(16) float tensor_data36[1*3*3*8] = { 
  /* [0][0][][] */ -0.11128570139408112,-0.080308489501476288,0.020379813387989998,-0.035651907324790955,-0.014481637626886368,0.31535494327545166,-0.074852459132671356,-0.01010749489068985, 0.060496166348457336,-0.015656895935535431,0.019762510433793068,-0.18233931064605713,0.067661859095096588,1.4637752771377563,0.24506138265132904,0.45596602559089661, 0.015747943893074989,0.0042613544501364231,0.027049964293837547,-0.20651505887508392,-0.010204419493675232,0.18694876134395599,0.047102145850658417,0.030438069254159927, 
  /* [0][1][][] */ 0.029776383191347122,-2.2301182746887207,-0.053112950176000595,0.076838001608848572,-0.10607897490262985,-0.06669299304485321,-2.5659980773925781,-0.017084883525967598, -0.63522571325302124,1.7593249082565308,-0.53648805618286133,3.2958433628082275,-0.88578617572784424,-0.087179265916347504,2.9479224681854248,-0.14211538434028625, 0.056324873119592667,-0.010308778844773769,-0.024495063349604607,-1.6859593391418457,-0.040017694234848022,0.016454627737402916,1.1493020057678223,-0.081953167915344238, 
  /* [0][2][][] */ 0.08930283784866333,-0.037200275808572769,0.0084127383306622505,-0.11187614500522614,-0.0070045557804405689,-0.25861319899559021,0.060969188809394836,-0.009371291846036911, 0.28822752833366394,-0.02396835945546627,0.88914698362350464,-0.56452000141143799,0.088394723832607269,-1.2990059852600098,-0.010949643328785896,0.036484356969594955, 0.044820625334978104,0.0036738840863108635,-0.040880102664232254,-0.21442459523677826,-0.013816856779158115,-0.23615466058254242,-0.10780282318592072,0.00011381514923414215, 
};
const TfArray<4, int> tensor_dimension36 = { 4, { 1,3,3,8 } };
const MODEL_SECTION(EI_MODEL_SECTION) ALIGN(16) float tensor_data37[8] = { 0.34863469004631042, 0.23912462592124939, -0.19889959692955017, -1.7990241050720215, 0.009545021690428257, -0.16483995318412781, -0.26562818884849548, 0.83875399827957153, };
const TfArray<1, int> tensor_dimension37 = { 1, { 8 } };
const MODEL_SECTION(EI_MODEL_SECTION) ALIGN(16) float tensor_data38[1*3*3*48] = { 
  /* [0][0][][] */ 0.26648387312889099,-0.30972686409950256,-5.2037453651428223,-2.2931003570556641,0.12169528007507324,-0.76052141189575195,0.20013618469238281,-0.65021133422851562,0.56371486186981201,0.44122862815856934,0.27638468146324158,1.0907741785049438,-3.4044406414031982,0.47190043330192566,0.29145887494087219,-27.641931533813477,0.54491239786148071,-0.84940588474273682,0.03675127774477005,-0.17944258451461792,-3.1582965850830078,-0.19212460517883301,0.47391811013221741,0.56765562295913696,-0.04847443476319313,2.18603515625,-0.033009514212608337,1.0244994163513184,-5.1356573104858398,-0.66287869215011597,0.30215653777122498,-0.41570788621902466,-2.1331484317779541,-1.7097264528274536,0.371570885181427,0.5322035551071167,-0.88117992877960205,0.1430555135011673,0.51418900489807129,0.74490022659301758,-0.78106707334518433,-2.3621740341186523,-0.19133502244949341,0.34640046954154968,-1.9269615411758423,-0.93620240688323975,0.97204363346099854,-1.8339524269104004, 0.1997649073600769,-0.47564375400543213,5.5917401313781738,3.1064679622650146,0.45859551429748535,0.27107918262481689,0.372234046459198,-1.4860521554946899,-0.65273714065551758,1.8223444223403931,0.16927489638328552,1.5384578704833984,0.017852174118161201,0.44786831736564636,0.31303685903549194,27.57194709777832,0.55753481388092041,-0.83013999462127686,-1.3511528968811035,-0.25705510377883911,2.2121071815490723,-0.32321879267692566,0.66763067245483398,0.0063795112073421478,0.78199535608291626,3.9475967884063721,-0.17119221389293671,1.2937142848968506,0.23805063962936401,1.0808908939361572,0.27337402105331421,-0.25974088907241821,2.307880163192749,3.0724003314971924,1.012275218963623,0.82009094953536987,-0.64311003684997559,0.13790559768676758,0.32845351099967957,-0.25109750032424927,1.460263729095459,0.43966880440711975,-0.11619986593723297,0.79896080493927002,3.6270253658294678,2.9525325298309326,-0.6290927529335022,-0.22991208732128143, 0.053412340581417084,-0.18545790016651154,0.19246169924736023,-0.99831974506378174,0.19436930119991302,0.4053005576133728,0.064356498420238495,-1.0793095827102661,-0.09647572785615921,0.85959017276763916,-0.25757420063018799,0.78531211614608765,3.2081756591796875,-0.093417897820472717,-0.35758218169212341,-0.18519194424152374,0.21242696046829224,-0.27854377031326294,1.2567960023880005,-0.085971496999263763,0.93876582384109497,0.0052771237678825855,-1.076947808265686,-0.46274816989898682,0.15065200626850128,0.22427657246589661,-0.031159933656454086,0.48098251223564148,1.3433126211166382,1.4334766864776611,0.121684230864048,0.043650329113006592,-0.21172486245632172,-1.231657862663269,0.23625794053077698,0.2274477481842041,-0.13891255855560303,0.032552860677242279,0.071061804890632629,-0.55015873908996582,-0.97267812490463257,1.9452753067016602,0.043845657259225845,0.62198847532272339,-1.6884864568710327,-2.1088886260986328,-0.29831400513648987,1.7090609073638916, 
  /* [0][1][][] */ 0.30743059515953064,0.6058315634727478,-9.2745018005371094,0.38570037484169006,-0.42765289545059204,-0.95871615409851074,0.2170846164226532,-0.77560716867446899,0.78070622682571411,-1.3337759971618652,0.37987539172172546,-2.1145987510681152,3.1939182281494141,0.71380311250686646,0.67754256725311279,29.193008422851562,-0.34059590101242065,1.0070158243179321,-0.16989769041538239,-0.36995717883110046,2.8870995044708252,-0.27221056818962097,0.63534742593765259,0.66028457880020142,-0.029466327279806137,-0.24842537939548492,-0.17906340956687927,0.30306863784790039,-2.324080228805542,1.6476305723190308,0.22338885068893433,-0.66068124771118164,-5.996248722076416,-1.9636247158050537,-0.16842827200889587,0.17331203818321228,-0.094311967492103577,0.29474636912345886,0.58245062828063965,1.1963305473327637,-0.90524429082870483,-1.4823054075241089,-0.39353570342063904,0.41102972626686096,-0.072859033942222595,-0.73736447095870972,-18.662057876586914,-2.8466019630432129, 0.30536341667175293,1.0849279165267944,8.3560400009155273,-0.52183741331100464,-0.66538244485855103,0.09158894419670105,0.39194658398628235,-1.5323232412338257,-1.0341465473175049,-2.3567879199981689,0.25297203660011292,-2.8393566608428955,1.3061279058456421,1.006765604019165,0.53929036855697632,-29.413219451904297,-0.28977289795875549,1.1537520885467529,1.6420669555664062,-0.55557012557983398,-1.6658167839050293,-0.43072393536567688,0.95571798086166382,-0.18518081307411194,0.49954241514205933,0.18983492255210876,-0.66310924291610718,1.1101160049438477,0.41216769814491272,2.6380741596221924,0.43459486961364746,-0.53850358724594116,5.6231169700622559,3.4825649261474609,-0.23629865050315857,0.030057383701205254,-0.14575222134590149,0.36929929256439209,0.43824636936187744,-0.39125975966453552,2.1561658382415771,-0.13815663754940033,-0.17483566701412201,0.96686774492263794,-0.27580258250236511,3.4361310005187988,18.143447875976562,0.98023879528045654, 0.055807303637266159,0.46589884161949158,0.15685416758060455,0.20946778357028961,-0.16661673784255981,0.58623820543289185,0.082888364791870117,-1.0196623802185059,-0.081229411065578461,-1.7462124824523926,-0.26320868730545044,-1.5514960289001465,-4.49871826171875,-0.023577122017741203,-0.40854713320732117,0.21639452874660492,0.25473892688751221,0.32262131571769714,-1.4490343332290649,-0.23967956006526947,-1.2397869825363159,-0.042475763708353043,-1.6342196464538574,-0.53818947076797485,-0.21236427128314972,0.020114047452807426,-0.3663373589515686,0.35675811767578125,1.7436399459838867,1.6924964189529419,0.10239144414663315,0.031402569264173508,0.30356204509735107,-1.6799132823944092,-0.08416709303855896,-0.0242582056671381,-0.0048905764706432819,0.095153413712978363,0.086052060127258301,-0.72430729866027832,-1.0844757556915283,1.7043745517730713,-0.045190900564193726,0.7682422399520874,0.22365207970142365,-2.3105239868164062,0.47388860583305359,2.1380190849304199, 
  /* [0][2][][] */ 0.09658581018447876,-0.35763546824455261,-2.139434814453125,-0.036108341068029404,0.20084232091903687,-0.18880222737789154,0.010860919952392578,-0.22601209580898285,0.5685773491859436,0.37437343597412109,0.091572709381580353,0.99524712562561035,0.18725511431694031,0.37344160676002502,-0.071328341960906982,-3.2241299152374268,-0.96044808626174927,-0.26343783736228943,-0.061670627444982529,-0.07303735613822937,0.42983850836753845,-0.12383367121219635,0.13860553503036499,0.22564339637756348,0.57785367965698242,-0.41704714298248291,-0.075812473893165588,-1.4787088632583618,0.90128201246261597,0.88746494054794312,-0.043352622538805008,-0.39840826392173767,-1.1619523763656616,-1.1582930088043213,-0.56545937061309814,-0.023430325090885162,0.53800308704376221,0.068081147968769073,0.1522374302148819,0.6791762113571167,-1.7773123979568481,-1.007657527923584,-0.35893300175666809,0.26745587587356567,0.070833936333656311,-0.12796883285045624,13.735602378845215,-1.4367353916168213, 0.031943745911121368,-0.55452734231948853,0.30994245409965515,0.005980366375297308,0.18151271343231201,0.02096129022538662,0.090301454067230225,-0.60206097364425659,-0.74948906898498535,1.1928945779800415,0.00031897626467980444,1.3236149549484253,-0.74010896682739258,0.47564142942428589,-0.038383718580007553,2.9916651248931885,-0.72956591844558716,-0.21432174742221832,-0.15322211384773254,-0.22749686241149902,-0.69110637903213501,-0.2391473799943924,0.38207909464836121,-0.054972641170024872,0.87550264596939087,-0.31786391139030457,-0.23481801152229309,-1.9821466207504272,0.76089251041412354,1.4495282173156738,-0.0014850129373371601,-0.27637976408004761,1.3610793352127075,2.1803183555603027,-0.48259583115577698,0.08354196697473526,0.58708071708679199,0.13188134133815765,0.078330814838409424,-0.23354147374629974,-1.1014155149459839,0.0016899291658774018,-0.1741175651550293,0.64870303869247437,-0.10495585948228836,-0.25435876846313477,-14.408915519714355,1.342587947845459, -0.01024418231099844,-0.22861839830875397,1.7076596021652222,0.15375609695911407,0.024772696197032928,0.1509486585855484,0.015810539945960045,-0.2444976270198822,-0.0828738734126091,0.90255910158157349,-0.10576020926237106,0.69234853982925415,0.61441910266876221,-0.12833300232887268,-0.11925281584262848,0.24696759879589081,0.16111679375171661,-0.039174851030111313,0.248613640666008,-0.16313579678535461,0.27531829476356506,0.012103811837732792,-0.52585387229919434,-0.27611562609672546,-0.082904733717441559,-0.17954406142234802,-0.070202544331550598,-0.64697706699371338,0.66919606924057007,1.252208948135376,-0.022179486230015755,0.068420678377151489,-0.16203825175762177,-1.0523669719696045,-0.32839259505271912,0.0072522661648690701,0.48427155613899231,0.053990665823221207,0.0098935598507523537,-0.3978334367275238,-1.8065954446792603,0.95926880836486816,-0.086120054125785828,0.36397626996040344,0.16928419470787048,0.11573530733585358,0.72793596982955933,0.28762948513031006, 
};
const TfArray<4, int> tensor_dimension38 = { 4, { 1,3,3,48 } };
const MODEL_SECTION(EI_MODEL_SECTION) ALIGN(16) float tensor_data39[8] = { 0.59170752763748169, 0.30582877993583679, 0.32337155938148499, 1.4932745695114136, 0.68958580493927002, 0.61170929670333862, 0.28343462944030762, -0.8860926628112793, };
const TfArray<1, int> tensor_dimension39 = { 1, { 8 } };
const MODEL_SECTION(EI_MODEL_SECTION) ALIGN(16) float tensor_data40[1*3*3*48] = { 
  /* [0][0][][] */ -0.57981765270233154,0.60080277919769287,-0.37193921208381653,-0.68750107288360596,-0.12490057945251465,-0.36621922254562378,0.08475397527217865,-0.16938664019107819,-0.0060134441591799259,-0.13336275517940521,0.1253645122051239,0.76212853193283081,-0.030573934316635132,-0.62254625558853149,-0.76733589172363281,0.25081914663314819,0.34511765837669373,-0.20089554786682129,0.95669078826904297,0.28800085186958313,-0.4170096218585968,-1.3211143016815186,0.4754144549369812,-0.78928762674331665,-0.10316003859043121,-0.5820002555847168,-0.10446412861347198,1.2435551881790161,-0.2519230842590332,0.14075952768325806,0.22094397246837616,2.8819324970245361,-0.054618649184703827,-0.19130243360996246,-0.1359047144651413,-0.011231163516640663,-0.067943990230560303,-0.39181533455848694,-0.31482461094856262,0.31672677397727966,0.24025672674179077,-1.4203087091445923,-0.36791747808456421,0.27634090185165405,0.92477315664291382,-1.2968603372573853,-0.17593337595462799,-0.038851290941238403, -0.088338099420070648,-1.5397858619689941,0.29782792925834656,-1.6934705972671509,-0.039311718195676804,-0.42390382289886475,-0.37062087655067444,1.3850085735321045,0.22169576585292816,-0.69801473617553711,0.40065863728523254,0.75121176242828369,0.17348533868789673,-0.84294772148132324,-0.89798915386199951,0.14254382252693176,-0.10216657072305679,0.75259256362915039,-0.52381008863449097,-0.59774523973464966,-0.32962861657142639,0.078245267271995544,0.33774340152740479,0.94178885221481323,0.16199745237827301,-0.089343957602977753,0.15589761734008789,1.67991042137146,0.54070842266082764,-0.056694582104682922,0.062876380980014801,-2.327040433883667,-0.29023808240890503,0.38464236259460449,-0.075678929686546326,-0.79761141538619995,0.83092325925827026,-1.2084038257598877,2.0913541316986084,-0.13292096555233002,-0.0085788676515221596,-1.8246374130249023,-0.41569912433624268,0.16086918115615845,1.2183237075805664,0.82181233167648315,0.23245188593864441,-0.51805776357650757, -0.20498843491077423,-0.01729869470000267,0.15243086218833923,-0.33266302943229675,-0.050008587539196014,0.7173311710357666,0.095275312662124634,0.69797283411026001,-0.0087304683402180672,0.11330287158489227,0.049063447862863541,0.58080720901489258,0.25803130865097046,0.24032275378704071,-0.70825797319412231,0.33012059330940247,0.19476129114627838,0.74998641014099121,-0.50475561618804932,0.11668584495782852,-0.50782698392868042,1.1326059103012085,0.29666566848754883,0.17630209028720856,-0.099167466163635254,0.82235985994338989,0.044501636177301407,-0.57406836748123169,-0.3716331422328949,-0.010406319051980972,0.06347096711397171,-0.84949517250061035,-0.15285444259643555,0.035740647464990616,-0.017351703718304634,0.14110134541988373,-0.1693415492773056,1.1125020980834961,-0.5307881236076355,0.18769977986812592,0.1796654611825943,-0.9057045578956604,0.092585720121860504,-0.19319543242454529,0.69875383377075195,0.46032857894897461,-0.23193788528442383,-0.17596986889839172, 
